-7.859727421377922518e-02
2.889616622834930565e-02
1.259984914130147238e-01
1.308537429518385753e-01
2.146887686531556427e-01
-1.028397953577160073e-01
-3.088456750295769937e-01
-5.443743745873574902e-02
1.793123936060739554e-01
-9.390556291637174036e-02
-1.157646528090064131e-01
7.307246875006286058e-02
9.412694821990777450e-02
-8.080187569928493074e-02
4.279847269567872703e-02
5.123137233407906721e-02
-1.635793642895192190e-01
1.710897511497933010e-02
-1.773859714516178021e-01
1.033155755629377136e-02
9.143078194138147541e-02
-2.065321102594548652e-02
-4.827435210664295789e-02
-6.774134241703540227e-02
5.489795522712433845e-02
-1.004314532370259860e-01
-1.099922611010696188e-01
1.807566988559478061e-01
-2.472728744926238134e-02
4.788850009556735315e-02
6.991168946818071550e-02
7.934903184658097242e-02
-2.275112486686694246e-01
8.216797660624942934e-02
1.755737519620913512e-01
-2.045445333317681691e-02
1.106230507549887526e-01
-6.067182456489954995e-02
-7.050849486474605743e-02
-6.652721400854148814e-02
-4.865520735464683166e-02
3.692259419442496526e-02
6.495200348801011096e-03
1.262381170564456367e-01
2.948538433488970267e-01
-5.688775026035782119e-03
1.268830407391654536e-01
4.857301402250011578e-03
1.229317987072955781e-01
1.178020666623943134e-02
1.236002718671315587e-01
6.791969828395949538e-02
-1.593752952198805306e-01
5.471097507230360951e-02
-1.204846893883814718e-01
-2.136637158940632997e-01
-9.665002602505338991e-02
5.587809800947459576e-02
-6.918317899080481115e-02
8.732486794818201947e-03
-7.975312053605182472e-02
-2.446188439870885731e-02
-2.068492386242828593e-02
-2.656347192727376294e-01
-2.343924674357742988e-01
5.072135634540668458e-02
-5.827329018476794936e-02
-6.262523248140745846e-02
5.000338931712579316e-02
-1.063962795273266509e-01
1.517638881985380883e-02
-8.932341401751416055e-02
2.014217791456585638e-01
-7.986897357381587959e-02
-1.620486817812037683e-01
-1.543574858454120902e-01
-2.633377239720178717e-03
3.905449108333088060e-02
9.743718490481050043e-02
5.387650842630182374e-02
-1.335262409779642938e-02
9.503504570509997695e-02
9.631871978499910447e-02
1.812288763026305149e-01
-3.091034770220987271e-01
-1.599612086740439046e-02
1.028758962204092964e-01
9.386861691629973248e-02
7.229862361695599260e-02
3.865602698090789269e-02
-3.221399214729413207e-02
2.781462286156597546e-02
4.580361376224165865e-02
5.111214832359124022e-02
3.191324933772466538e-02
6.320511833947618785e-02
6.846457418957074825e-02
1.498804851281708428e-02
5.722271713947960081e-02
-1.185720864113276873e-01
5.805751020414574165e-02
9.496344867353395669e-02
8.383639519345002789e-02
1.713584083771737265e-01
-2.356213561839803350e-01
-5.053844153269612671e-02
-1.247029562124035290e-01
-6.185861913383922280e-03
-2.233314792337711199e-02
1.919424027793949494e-01
2.445651257465713269e-01
1.095697436808912711e-01
5.324190033074757689e-02
3.556156167461211326e-01
2.821349259157872047e-01
9.075347044047901712e-02
-3.923820719643569127e-02
1.069087172104426914e-01
-3.514050034732989214e-02
1.384112458565723951e-02
-9.717219930148521256e-02
-4.882940989779051277e-02
1.520676331538347581e-01
-1.522057561492201339e-01
1.495977634959471704e-02
-2.105693621426321105e-01
-5.095761272795382851e-02
4.381754069471077012e-02
-1.581352220683198972e-01
1.037292105405917958e-01
7.050254160901014977e-02
1.571738918763510573e-01
1.300507866309738580e-01
-1.176484593054387268e-01
-1.140124319008312126e-01
5.716717694532754551e-02
-2.108414224572341678e-01
3.310887891989365561e-02
1.709554884135714575e-02
2.523975359852568268e-01
3.862520731014968539e-02
2.118623110575112711e-01
4.972989447065599006e-02
-1.540210902426239481e-01
-3.033186679651809006e-02
1.419332523200133034e-01
-1.434258680077990789e-01
-1.479688267843804785e-02
4.312685946238287160e-02
4.420850888944886231e-02
-7.195796366728757221e-02
3.745768281672477718e-02
-4.460147569980467408e-02
1.546111310830964036e-01
-6.563031955713567733e-02
1.769610729767613633e-01
-8.055968561686638330e-02
6.270401284618505600e-02
3.144176148786908542e-01
-7.175850368970811133e-02
-1.816979866593127768e-01
2.054908950006636287e-02
1.531376132807323320e-01
-2.406642018426087826e-01
8.336117720891490779e-02
-3.189172966362658901e-01
-1.168404786273547456e-02
3.195465679213842225e-02
-1.690313125788954485e-02
2.033734423540093650e-01
6.665977796455069271e-02
1.362120376386695420e-01
5.213349691979012046e-02
-7.012446087569007558e-02
-1.000836964215236075e-01
1.821764976263281488e-01
1.812353850241435471e-02
-2.345724379081406408e-01
-5.552649812532303719e-02
-4.401903231690185159e-02
-8.334587682374930417e-02
8.419797924881848583e-02
8.556628518316371224e-02
-1.059634890211516439e-01
-2.502246387738231714e-01
2.871881137447339638e-01
1.920247220515841624e-01
1.325916638518992718e-01
-8.328576903497532380e-02
-2.113597873200928623e-02
-2.993328425172836482e-02
1.900594319526835441e-02
1.348886314199770620e-01
9.366619649100538236e-02
-6.403486715808250074e-02
-2.498391836874740424e-01
5.589933981347514069e-02
8.823968939789750277e-02
-1.478413609506646353e-01
2.067989404915580587e-01
-2.173879842927677608e-01
1.093197925055160169e-01
1.153950002798125041e-02
-3.984222985751478124e-02
1.226271739187165671e-01
-1.841861058554826458e-01
-1.321211335198753944e-01
-1.862207208172434458e-01
2.186857266085888707e-01
-1.043759488515798861e-01
8.729780541438703079e-02
-6.844442394434357979e-02
-5.301177951784095954e-02
-2.256357471480509302e-02
4.481975533654147803e-02
-1.618794527631754743e-01
-9.898821664828805211e-03
1.506342302542880429e-01
-4.224025257172317471e-02
6.449314416066546929e-02
-1.199870256620409192e-01
-8.853190520153909893e-02
-7.057831642892412050e-02
-9.083428063820271278e-03
5.078056822976246241e-03
-4.264354505223372921e-02
-1.022856075099960044e-01
-1.013381484825400317e-02
-1.061185444161782121e-01
1.875292709896742571e-01
2.031366782126376933e-02
3.521574691200493046e-01
9.479017686883256522e-02
1.194874995147760244e-01
-5.083946876801990339e-02
-7.626135652675478105e-02
-1.771859670312689317e-02
-1.433227252565064391e-01
1.180842515705665847e-02
-3.066053789627013609e-02
9.589437081017987419e-02
-1.413686488123957474e-01
9.704819407744540161e-02
1.112165539321892105e-01
2.520066621587244149e-02
5.948041208409984154e-02
-9.639499836362003249e-02
8.907783379887264374e-02
1.021074898686118310e-01
-9.936522397957998909e-02
-3.472272834151513693e-03
-5.376112131882634926e-02
7.588182520873908155e-02
-5.018418990696001808e-02
1.011945573937971139e-02
9.629656984718169832e-02
