3.908723928398150638e-01,-2.590941864993931421e-01,1.984637632775372584e-01,-1.106921005365823774e-01,-3.260399018153275347e-02,2.942044686798064596e-03,2.831625330356446132e-02,-6.070548395858886837e-01,4.243533962306970664e-01,-2.767685709721010370e-02
-2.088669083421394040e-02,3.076676246581152574e-01,8.230810410231850227e-01,-5.555046086731074695e-01,-8.722139624805567981e-02,6.338737363232696542e-02,-5.006265011961010675e-02,1.336930785853642500e-01,-6.928211721150185909e-01,-9.519892006433713916e-02
6.680829706176208971e-01,6.250116042801720506e-02,-5.592713893281836546e-02,-2.780795672335693025e-01,-2.410484185722712724e-01,1.357528227867417225e-01,5.683830182070180870e-01,2.112232699074679254e-01,-1.078993836282010621e+00,-2.550743032899633889e-01
-2.870081427638403460e-01,4.648282214878092788e-01,1.418835502705049177e-02,-2.352677663830193555e-01,6.859591189182766627e-03,7.177053441503626896e-01,-2.515310114701023725e-01,2.348189727003106853e-01,-3.956916782028871982e-01,-4.380602812985932570e-01
-2.179219181934382021e-01,-2.593796631265715136e-01,-3.650029817738647542e-01,-2.634889374231624837e-01,-6.763476707915956343e-01,1.079441574219986322e+00,5.526882173117775299e-01,5.157460173373337384e-03,-8.571918858769383975e-02,3.274717978576741073e-01
8.808781592715322351e-01,1.969049304677485124e-01,4.037912171233936642e-01,-3.076736965466483897e-01,-4.302305601076701347e-01,-3.674778949257738736e-01,3.518380670964693091e-01,-4.453153242897898156e-01,3.927343148821299534e-01,-5.798437016358792828e-01
-2.079384468419909204e-01,-2.482332930408040483e-01,-3.340389699599100037e-01,9.197413459980486872e-01,-2.730442070936576759e-01,8.214459541965009048e-01,-4.593996308623958247e-01,-2.858444425336459926e-01,-4.708292394215055077e-01,5.354703854252612638e-01
-1.420015982689415146e-01,-1.829201002311874324e-01,-2.341127666487676784e-01,6.230452166685824800e-01,-1.305382070633251956e-01,5.120398001644402841e-01,-5.534372479326276073e-01,7.265965077178462850e-02,-4.951111089560445988e-01,4.567800422715190267e-01
1.981956207567570419e-02,-1.377523850507120099e-03,-8.024819572125884148e-01,-3.673990389433372528e-01,4.589557194751956587e-02,6.151100698010826262e-01,4.082277807120570090e-01,-3.944626204591279994e-01,-1.391457928038185125e-02,4.108410436461223947e-01
4.814827276803277933e-01,-8.421577002593966244e-02,5.402806729207247916e-01,3.558495877018397757e-01,-1.173062835996545816e+00,-4.950609075425541628e-01,-4.409053618518027906e-01,1.332730237550868724e-01,4.073608268743050265e-01,1.767864902137405159e-01
-3.934302652914740683e-01,-5.740041884438550762e-02,5.861912748470369250e-01,8.205505989424491942e-01,-3.366041403975071344e-01,2.307486037805791257e-01,-6.223975253454798739e-01,1.603354666007888729e-01,-2.368746500803999289e-01,-1.162276512872807976e-01
2.342437621126765290e-01,-7.058849844213693769e-02,-1.182930641176516418e-01,-6.466526348579949568e-01,5.901907041837619813e-03,2.261744191948675264e-01,2.417133851837389991e-01,2.449649755427593112e-01,-2.036263412935963579e-01,-5.361596961050925370e-02
-5.436487037736133926e-02,4.479290777646285360e-01,3.454573182453141156e-01,-2.423341337659919506e-02,3.349547363444629333e-01,-5.092959488644858285e-02,-4.321931391235538933e-01,-1.327806633050234164e-01,-9.927291739311577823e-02,-9.057113880080022716e-02
-1.483269132070610397e-01,-3.380776086106625500e-01,2.755345982453420994e-01,3.724785668212381440e-01,-2.544441983769265558e-01,2.836946290423316697e-01,-9.090090131045060196e-02,-2.274536289960766566e-01,-1.664135601130540265e-01,1.852481240629596237e-01
4.031379013521004251e-01,-1.492587872526915382e-01,5.103619851198847313e-01,1.324197696792357160e-01,-2.397504604875146939e-01,2.707176023018848521e-01,7.039925964640418588e-02,-5.863434411061312773e-02,-2.194517010326194617e-01,-3.100371300003302855e-01
-3.032723558902545857e-01,-1.380746200448572658e-01,-2.275025893985011816e-01,-2.269613787015766215e-01,1.401382398797754725e-01,-4.829678324786409321e-02,-2.436248356120509773e-01,4.021114620030710185e-01,1.488397722876843576e-01,4.586974066963094288e-01
-2.954425309945600264e-01,-2.821810178581271034e-01,2.257756544123511455e-01,9.443730996957798718e-01,-6.345210379859715921e-01,-3.774162735027420390e-01,-2.961101766006050684e-01,6.726156060402243009e-01,-2.558740444150343074e-01,2.998060880184033050e-01
-4.172677841303241986e-02,-1.190460351811475220e-01,8.899253497523833267e-02,2.724888207317078814e-01,6.767421640522176540e-01,-1.694254643896818402e-01,-1.556121997979239280e-01,6.195322924914699325e-02,-4.057722091793122821e-01,-1.558021310189520725e-01
-1.446019715401532235e-01,-3.502063327501454826e-02,-1.202841453814787118e-02,-2.109278971167323213e-01,2.638532494865517553e-01,-2.680981986431695274e-01,2.001693846116569739e-02,9.655180954779078728e-02,-2.136105035737165814e-01,6.769055735469927670e-01
-8.760184483431522617e-02,-1.248068701524723129e-01,-5.460484384024854032e-01,-6.358893697325805616e-02,2.486607971033874265e-01,4.726588821896471337e-01,-1.652299813159426312e-01,-3.631985791035519974e-03,-2.815277934375501334e-01,4.173208083226638276e-01
-1.474934900306034968e-01,-6.347224302848846200e-01,4.470669260025773861e-02,4.437440061268255742e-01,-7.848818951512659403e-01,4.587789417843056716e-01,-7.543763565542122018e-01,5.875042482778307651e-01,2.646173471699169721e-01,4.483837695496435960e-01
-5.871078255426270820e-02,-1.221163559826291406e-01,-2.901128542292303880e-01,-2.960444744508698989e-01,-1.567869458271495264e-01,3.405070289027854469e-01,-8.072161938530728054e-02,5.322345974929398871e-01,3.284644811520940899e-01,-1.463921744307936368e-01
-1.465323228091044150e-01,-1.759857566028067699e-01,4.244295865299241299e-02,-6.301253345379692616e-01,1.346157881466252329e-02,2.223373669037627953e-01,1.981601078277782091e-01,-6.034553371128510424e-01,2.897645112512436394e-01,7.794530960009846687e-01
-9.229104478815666757e-02,1.008967249089956164e+00,-5.567685985203475463e-01,5.303369987295039056e-01,1.086367517176062281e-01,-5.508500324573462059e-01,1.394306339200396538e-01,-3.617138246864403661e-01,-1.330254563702831794e-01,-3.065134707488562094e-01
-4.389284299305910853e-02,-1.989249217079535614e-01,-2.904501645479182562e-03,-1.191939109990618473e-01,-1.695355117123225341e-01,6.177972229546065952e-01,9.196245329559567250e-02,-1.351662161275922758e-01,2.166250333922977167e-01,-2.077624120152479215e-01
5.103393645825021752e-01,4.237194307068753996e-01,6.811244688211850473e-01,-1.286100427422061099e-01,-1.733883172068746148e-01,-8.821115255374205599e-01,-7.194286151397063511e-01,1.564701455791240592e-01,-1.722534046521952827e-02,1.684389281093843782e-01
-7.730691621643595579e-02,-6.294183840357453485e-02,-2.000040611661915990e-01,2.503356700178587246e-01,-8.964765513739128555e-02,-8.576175393675565528e-02,1.261985604608677758e-01,-1.610740436304533840e-01,3.589960844688687702e-01,4.653736081764782428e-02
-3.660758539981512349e-01,-3.010419863490106929e-01,5.594277337600482847e-01,-3.634741083707664910e-01,6.006485644165233673e-01,-5.953247384178219498e-02,3.685969067082705553e-01,-8.517022886269055570e-01,-4.498438299691711606e-01,5.808991763091203575e-01
-1.919701474474891367e-01,1.673401997569128052e-01,2.451359283767111374e-02,-1.695261347459860735e-01,7.136260503071317762e-01,-1.714064424259107711e-01,-1.340295779229058459e-01,6.124256025994626595e-01,-1.052567763708410320e+00,4.874695104855072403e-01
4.140896704722403787e-01,-1.415944620624158025e-02,-3.947804747764159239e-01,-3.467053979833500943e-01,-3.200823841511134527e-01,3.520086625774089539e-02,-2.009857635884842453e-01,4.516186773766865947e-01,-5.221951367783255740e-04,1.341898162822237617e-01
-3.692651558564957193e-01,3.779405794291476051e-01,-1.059405557110218998e-01,6.531413114688244814e-02,3.500138702098960497e-01,4.184316039285772004e-01,-5.040999675178193806e-01,-5.359336302821898768e-01,-1.311607137162008885e-01,3.576848625269677395e-01
-3.858193524876698532e-01,-6.897714409949565195e-02,1.807526364919219697e-01,-1.833264253385457343e-01,2.842633742434644839e-01,2.684910105868909547e-01,2.391102244770492991e-01,-2.037283062230736130e-01,1.994084632413442859e-01,-3.662920963250486106e-01
-1.489264517492052964e-01,-2.547400093645575958e-01,1.517365397951167261e-01,3.519890417943395411e-01,-4.163700214290622648e-01,2.238356559250356259e-01,-3.865066951278940399e-01,-1.745142205297517679e-01,4.495755778566193350e-01,2.380692195407476675e-01
-3.281059720679922465e-01,6.876403102832806535e-01,2.328428504971740143e-01,-4.129252655210248202e-01,-1.712221317191947034e-01,3.701993254465391070e-02,-1.416519891197726422e-01,-1.107759182048472235e-01,-2.216543863979332230e-01,3.456322037267798297e-01
-3.370302149828070110e-02,2.059920592844995679e-01,-2.544740180329062018e-01,-3.174563555193756215e-01,5.757987901358264070e-03,1.198980666645205750e-01,-1.538892461001079015e-01,5.338507271647627839e-01,-3.781956220155591741e-01,5.190966356835094997e-01
-3.688555426370345725e-01,7.144130607332623839e-01,2.328194887667615343e-01,-6.219399216342115233e-01,3.630110600558132949e-01,2.020430324098257402e-01,-2.257737364971713900e-02,-7.888448120648239303e-02,6.136639163798562890e-01,-1.135653902670779480e+00
4.192863367003306085e-01,-3.681016595894293780e-02,-9.083074086363799801e-03,3.527261839028285606e-01,-1.943209318657506679e-01,3.561401658650431012e-01,3.247649735179231056e-01,-1.125230174649799464e+00,2.258351144656163545e-01,-3.922964151287309242e-01
-2.916728121164858800e-01,2.599225022366835613e-01,6.936750877049315811e-01,2.952997058349804416e-01,-9.314942161869267656e-03,-1.882365495299796743e-01,1.064999872208699100e-01,8.105030641963314464e-01,-5.757231725094645869e-01,-9.249027251296807473e-01
-3.453848187231219335e-01,-8.733092653085638979e-02,-1.917599486375817508e-01,9.601603676206873494e-01,-6.102253402860910447e-02,-3.303497073150505892e-01,-2.792468041759832431e-01,-3.091524431465345404e-02,4.645488088517906594e-02,-1.869708388544905064e-01
3.904791541540795219e-01,5.023245312375369531e-01,-8.179839481311709792e-02,-7.860613642869562767e-01,2.830423482068807339e-01,-8.572360753078146767e-02,-6.018629767394452212e-01,1.843233210382192733e-01,-4.876003407265630529e-01,4.621354054644229992e-01
6.021225051306298981e-02,-5.937150336117064803e-02,-1.949064319552567051e-02,6.625244711950291354e-02,-8.504309212928001793e-02,-8.023548549917250763e-03,-1.554987762693119113e-02,3.590704826007947575e-02,2.144079823636569487e-02,7.746805245331833678e-02
8.644976947513195731e-02,-6.708813187693361824e-02,1.997328796782880944e-01,-4.709524611339057643e-01,1.432397025931673729e-01,-1.181235837265598027e-01,-2.739499089338119919e-01,1.071294601796483059e-01,5.340744869081948121e-01,-5.874564883359448958e-02
-1.165658012465786569e-01,-2.049039203965331568e-01,6.611055379158441436e-01,-2.411379397530583890e-01,3.293174903748689042e-01,-7.055665010937552939e-01,2.487504249438696885e-02,5.376476247707651090e-01,-6.316357524048074046e-01,5.506239347811436868e-01
1.632244935940488084e-01,-3.738265510546734394e-02,-3.165365438133840303e-01,-9.194053181402659369e-01,3.748129069775215094e-01,5.547783845968020655e-01,1.197723897453751157e-01,-2.503219936088100783e-01,4.828856758811637673e-01,-2.507052149814554265e-01
6.637379907404693247e-02,5.115476848629902339e-03,-3.705028441523646188e-01,-8.743015699266175333e-02,-6.410916812930903541e-01,8.415787236116588632e-01,5.652669419361778802e-01,2.148908054558478220e-01,-2.547460144678477256e-01,-1.627717229354208872e-01
5.438712815597338546e-01,-4.305489154410051950e-02,-3.513764532958796871e-01,2.075813338927690044e-02,-1.504044337267368414e-01,1.631631419295892782e-01,-7.027043849961510380e-02,3.058603751867682297e-01,5.528842287002984079e-01,-5.230059077405021517e-01
-1.351506079772846480e-01,-1.874529023051878518e-01,1.648201945079572073e-01,6.415269436806283476e-01,6.156720037478842500e-02,1.499288956400481043e-01,-1.849746258709135394e-01,-8.215248286851455084e-02,-1.538622954430176604e-01,-2.686720475324994584e-01
1.361252144300015843e-01,-5.023909158120362095e-01,-1.330217123125529977e-01,5.961512545822029718e-01,-8.689009198305444048e-01,3.831711107906072833e-01,3.888334042207695629e-01,4.609099119056614402e-01,2.451868257240356341e-01,-4.916476464211204100e-01
1.587463027339667265e-01,-5.187075736981715535e-01,-9.430186380825157644e-02,2.379436584857103631e-01,-3.739592117222488854e-01,1.823814924894148481e-01,3.672774791314304954e-01,1.960526256815608159e-01,2.477497065922325825e-01,-6.851416888723641518e-01
-2.342013330766693213e-01,3.219938142752479249e-01,-1.774761205079553872e-01,8.290398808622803095e-01,-1.496036577281722457e-01,-6.218470421499809886e-01,-1.914507517578253604e-01,-2.440972177223281123e-02,-1.284882643093096565e-03,2.992624991903313214e-01
2.002784123187310583e-01,6.323151068410833853e-01,-5.666316230876756732e-01,1.209602959467094008e-01,-2.886806189057793959e-01,-1.662787494301763980e-01,-3.294612325217534665e-01,6.281680126175237522e-01,-5.992721769967258583e-01,9.725976275744081800e-02
3.802872496944415537e-01,-3.170855835075464535e-01,3.217763332749978278e-01,-9.395312636941594020e-02,4.182455077258799558e-02,2.163671488558723266e-01,-1.536294223454207908e-01,1.409156461929067690e-02,2.964368274387343960e-01,-6.127596467317801832e-01
7.033362599706757812e-02,1.190363712166060545e-01,-1.079335007324606494e-01,6.396394829170133356e-01,-5.858586563642775857e-01,3.623956556566710341e-01,2.272684031097101098e-01,-1.316843451567148993e-01,-2.647281929113150523e-01,-3.309910353027804564e-01
-1.074925773343422764e+00,1.225082536159309982e-01,-2.552244567711344902e-03,4.193342956991355508e-01,8.125096374122454945e-02,-8.676511587456098296e-02,-5.054947462635056565e-01,-3.977512854939036502e-01,7.810182654753332621e-01,6.641538523844821018e-01
7.318435972554819813e-01,-1.551250635932716893e-01,-2.756769222747049719e-01,-8.531343803672366555e-01,3.274244053559010603e-01,-8.914092851652265226e-02,1.973825171799288014e-01,-1.238676670612699759e-01,-3.935208884576618660e-01,5.849226437553499691e-01
-7.832996162951338937e-02,4.878409380058137401e-01,1.069851734239599811e-01,-9.382812264514884815e-01,4.500442375921047677e-01,-2.583091563335160323e-01,-1.804663031354871161e-01,5.791958077065126886e-01,-3.907537899344886156e-01,1.980332252826559891e-01
-6.443739952405564964e-01,3.377817235323388179e-01,9.417413857995241555e-01,4.732778772880479323e-01,-1.540713377479350221e-01,3.910117276434038613e-01,1.534039897170538271e-02,-1.637291777441727270e-01,8.867249438249256988e-02,-1.209079632634245449e+00
3.273723497467849464e-02,-1.081373437725162250e-02,-5.971513399955634405e-02,-1.135138789244836272e-01,-1.192504936983168479e-01,6.999299856750036686e-02,-3.380600369355991897e-02,4.776793196153337161e-03,-8.239872711454543364e-03,-1.104741755366717565e-01
4.100304085653258546e-01,1.471041098548631076e-02,-3.643054746595060685e-03,-7.093377381299060813e-01,2.848881646076636964e-01,2.936076907117690649e-01,-2.564635249452487109e-01,1.659179716225443468e-01,-3.710842177500391914e-01,3.616597381251293042e-01
7.918807863767159116e-02,1.467780770728913109e-01,3.043539581360523161e-01,2.371136845951392347e-01,-7.316349360165882443e-01,-3.198328258315519257e-02,-1.431625803503427941e-01,2.226567278066294286e-01,-2.485226327633449639e-01,1.514284828150971041e-01
-1.775049557010934254e-01,3.383705136898089161e-01,6.569499691692104459e-01,2.451931664037847181e-01,-2.978720741222198320e-01,-6.678463311512715661e-01,-1.282864884886207313e-01,3.790670677798740895e-01,1.031108195154205182e-01,-8.072240453890098255e-01
6.081462962497805602e-01,-7.043027713529306788e-02,9.147449916994633556e-02,-1.374903442104869200e-01,-1.406319644430428784e-01,-7.439613498132350289e-01,4.984834646788821044e-01,2.838190052555165099e-01,-2.367211138452638974e-01,5.482439217083914101e-02
5.178439237363954284e-01,1.060454262486386773e-01,3.010713188791658834e-01,-1.957224314236085880e-02,-2.947445224086451751e-02,-2.305810349107072499e-01,1.181142917395278102e-02,3.138902762834719362e-02,-5.935275306167178133e-01,8.890943684027075022e-02
8.432307961755161618e-02,8.235038205491253260e-02,3.526839018103664625e-01,8.217449615785132888e-01,-5.271311032319583312e-01,-4.638819891566594023e-01,4.271181371334576982e-01,4.263814491185922706e-01,-4.704230133219379217e-01,-5.862825734296771563e-01
1.361488557677992817e-01,-2.829388219605070143e-01,2.627951759612969784e-01,4.096762584534129892e-01,1.060425379416863600e-01,-1.264300210234749144e+00,5.906072011477761508e-02,-7.158324320953003694e-02,6.312909837079124786e-01,3.903707608591195921e-01
2.041964278148976075e-01,4.634355880867417621e-02,2.082225837069247854e-01,-2.317330777405302300e-01,-1.437076822502184048e-01,-1.530627668586213574e-01,3.409688275953178249e-01,-3.690582013454669630e-01,5.646837737820542547e-02,3.860737890339125539e-02
-4.795086872154478153e-01,2.316892732549611367e-01,-6.174115958224642986e-01,7.398693316937579589e-02,-3.336808918051367701e-01,5.757055572940250610e-01,-6.741142558127963258e-02,6.248628038785246641e-01,2.328979179955022460e-01,2.319854085059989968e-01
-1.179485815805340343e-01,-1.579994513498766961e-01,1.156729444940824830e-01,-4.488815173197974184e-02,1.095609256920965363e-01,-8.711529325389905098e-02,1.731601111607564969e-01,-1.470440383991183653e-01,-5.940271404718630577e-03,1.966690613723914571e-01
3.117571167677848365e-01,-3.158548550830505008e-01,1.015485731365852462e-01,-1.933312657086792008e-01,5.353334108888069265e-01,3.996062516240998785e-02,-2.412174659929284537e-01,4.936983251963156794e-01,-7.024792927378747942e-01,3.918129010858312222e-01
-1.334510568029304844e-01,1.422889963632789981e-02,1.185032108332940981e-01,-7.216161190402109460e-03,3.636918128931865279e-01,-5.397744548444946000e-01,-3.848609715781515783e-01,1.418248770083343213e-01,3.358022209889856557e-01,2.414654855489419827e-01
-1.129358593260380711e-01,6.010000776025478664e-02,-9.441745740539179976e-03,2.876502993938944222e-02,2.866591314069517199e-02,-1.731729764264862761e-02,2.810379235805366555e-03,1.614011249254700131e-01,1.989347988894482333e-01,-4.595671474017413993e-02
2.944838758201995255e-01,-1.735920787614238514e-01,-4.015051963736800955e-01,-1.992745748753048940e-01,2.712548303203508038e-01,-1.767944102360414216e-01,7.171533156497159611e-01,1.502943493168878430e-01,-2.236189980081054185e-01,-5.456399510156839661e-01
1.583710884234084959e-01,-3.745868191298961092e-01,-3.503313199888578588e-01,-4.944998939994194598e-01,-3.441584208204300777e-01,4.785247406060001429e-01,2.656439106416146889e-01,-2.631722349426051655e-01,1.813447112431307573e-01,4.374353304287051936e-01
-4.684363008503978354e-01,3.735922845759643840e-01,2.094426605278402187e-01,1.802466981806117308e-01,3.423467706098083929e-01,-6.465744180579582334e-01,1.503634723947362972e-01,2.158279232686583227e-01,2.139079709202266477e-01,-5.708713309804893665e-01
1.366094687672462782e-01,-4.237074839821638322e-02,-1.101185288544740404e-01,-4.275691659635172948e-01,3.909421115242756595e-01,-2.443364614370763521e-01,8.558518103701204249e-02,3.119509415096047844e-01,3.844067015227086159e-01,-5.997113498335208126e-01
-1.727371135138094371e-01,-6.304269218642676031e-02,-2.790521369498422111e-01,-1.023747951002168116e-01,1.370184178874732928e-01,5.016154918835774579e-01,2.486000343831454296e-02,-2.048575972621693997e-01,3.347432054886522595e-02,-5.800337907158843731e-02
6.052969619344054225e-02,1.513748691194005333e-02,1.206878442759330566e-01,-5.874722974055793939e-02,-4.611980003206321392e-03,-1.666835933619664478e-01,-2.986546681401307940e-02,8.843271283251774237e-03,-7.636556317788536011e-03,1.283022516604946650e-01
-1.108646489465429236e-01,-3.799878545397913920e-02,1.043862122906868972e-02,4.176936883859362903e-01,-1.495342655589073644e-01,-4.939388384250827796e-02,6.045351674000674740e-03,3.420199575656088231e-01,-1.165473649132876544e-01,-6.059912221421260431e-02
-6.197595455434606881e-01,-4.192505013761629873e-01,6.539525414360398692e-01,1.274936460117525039e-01,2.940657127029755458e-01,-2.418914938411472967e-02,1.164898180611322609e-01,-1.553288355689716460e-01,-4.346086374395124463e-01,3.573368205735049652e-01
4.994478213222565133e-01,-2.602128683811070209e-01,-1.099606849076389059e+00,-1.424785170589751293e-01,5.253548753525560944e-01,4.776331650893288899e-02,4.793628830278697239e-01,4.816607260847628746e-02,-3.635656088145928222e-01,3.073442980732719598e-01
5.535204385985910136e-01,-4.332784864342317799e-01,2.086581442509322648e-01,3.434155563810997180e-01,-5.671036116662486748e-01,2.359417801924538483e-01,6.833628136093670979e-02,2.483602123322078692e-01,-2.654356146229455149e-01,-4.554707793543697480e-01
-9.586509456042347985e-03,2.524165352571827725e-02,1.836341157020986437e-01,-6.594208887252850371e-02,3.435842552956836493e-01,-2.931766107635440655e-01,4.532121272940428658e-01,7.018941358547836629e-02,-4.201135919741489921e-01,-3.921834303017722734e-01
-5.352567817052852374e-03,-1.552874143586222000e-01,8.686167745916102689e-02,-7.478550456362095811e-02,2.668366453788741793e-02,4.718628124552394776e-01,-3.571719748400073446e-02,3.460643914770631935e-01,-1.708663872021760621e-01,-7.493623782612029993e-02
-4.211349563520853101e-01,5.675882721149437815e-01,6.063877759377607202e-01,-3.292977832069510224e-01,1.154217199557798224e-01,4.005265823826562599e-01,-1.947988229547361894e-01,6.252612014137225172e-02,-4.873332155972301960e-01,-2.066849338963981375e-01
4.981829667407420281e-01,-2.246132515293373932e-02,-2.332209419096166469e-01,1.087165740234160155e-01,6.383243035537200516e-02,-4.846581429359055337e-01,2.506258737484919341e-01,-5.550668191921348527e-01,4.444571321853771351e-02,1.486164578727544039e-01
-8.071247555282440311e-02,6.555261446508101053e-02,-3.308593689537357718e-02,-4.655808228964012363e-01,1.193144053765205631e-01,-2.363054529005041704e-01,-2.015631691760356656e-02,1.993658175769830454e-01,4.379547089983219094e-02,1.583799327483176311e-01
-2.549891309175610909e-01,4.238648421287430912e-01,3.182078255963520785e-01,4.634339176759443291e-01,-5.472993536172697515e-02,-5.756070893712926795e-01,6.150560902239413791e-02,-9.742631822758493487e-02,-1.303122937776373114e-01,-5.641967792523087250e-02
-8.075938077954253336e-02,-6.215759142858506836e-02,3.954191318008082323e-01,2.825586169841637907e-01,-3.205520939775450273e-01,2.927133005003224736e-02,5.478122241198417341e-02,-6.678752690387912416e-02,-1.641528066520424878e-01,1.469686254496995956e-02
1.210752938467002660e-01,-9.307332093997947031e-02,2.900376679286635895e-01,-2.702261803855113276e-01,1.398961825309558704e-01,-1.834685922010839687e-01,-1.136185716710498977e-01,9.368661314251625072e-02,2.542069056755411616e-01,2.303001587781466075e-01
-1.762949083611359963e-02,-2.077381162351258498e-02,-1.995459122095930293e-01,1.776184558726046636e-01,-8.311200786878294999e-02,8.558098554566231919e-02,-2.312662917420775233e-01,-7.903361951627295434e-02,1.563930710712441996e-01,-7.643768100565186130e-02
8.004914372218893681e-02,-5.623025379684153113e-02,2.210738841266957355e-01,4.220333656874742934e-01,-2.279493187894206796e-01,6.508327855588770250e-01,4.838153046878904129e-02,-8.658341031588594472e-01,-8.127076972559156565e-02,-1.233375141973231254e-01
2.695200911501475227e-01,-3.564761338991760398e-01,1.892388464055715647e-01,-9.694281833449215624e-02,-3.435705073605301307e-01,7.574000942894477950e-02,-4.212211527940275257e-02,-1.601289590276404051e-01,-1.155477252426533458e-01,6.660204032505806504e-01
1.287754836231012612e-01,5.434720897202275358e-01,-9.173257596459392926e-02,-1.466646085003800448e-01,-1.672954592201530586e-03,-1.172405642678135684e-01,2.545452535411563133e-01,3.389889121735302213e-01,-7.299235544884845606e-01,-2.756223667166427527e-01
3.844099884260444855e-02,6.563119078555190722e-01,-1.902970478934786769e-01,-1.894244831229589809e-01,2.525878863962818244e-01,2.552074137334674198e-02,-1.661574212849366017e-01,3.621949836807307754e-01,-3.711240849398313446e-01,-1.667956415751767063e-01
-7.443435415860601145e-02,2.983904937374368682e-01,-7.230710058827530262e-02,-2.452487979561509823e-01,-2.916711434333662048e-02,-5.547737535746769533e-01,3.237828692319530410e-01,-3.443417563870871945e-01,3.858604708272513895e-01,4.847715717611875696e-01
4.662914570362948208e-01,-8.777902250691242692e-02,-8.476952203381866724e-01,-5.668661909772023666e-01,1.047487475101267773e-01,3.049731356040067398e-01,3.142419624595274019e-01,2.306582595957398785e-01,-1.937297603454219141e-01,2.097272142158450869e-01
-1.136723451750467212e-01,-1.416600751887082121e-01,-1.371566475765757798e-01,5.048559430314362162e-01,-2.662508395697404939e-01,3.886673432049828764e-02,1.043611854414320111e-01,3.512602567139551657e-01,-6.249210782499734496e-01,2.522787962534122075e-01
-1.848884206411527398e-01,-2.199650535933306283e-02,-1.299318836760415541e-01,-2.100632904437037818e-01,-7.798682258418661306e-02,-8.147974115253754646e-02,8.742365836776466725e-02,4.135138909221368064e-01,4.016854165167976776e-02,1.508948130327253737e-02
-7.671985465979876129e-02,-4.611849505290790963e-01,9.876812793098557752e-03,8.709755674555508254e-02,-1.497104136353943626e-01,-5.125034430800520097e-02,2.291099557438704415e-01,8.920393771004408306e-03,3.233694150181579130e-01,1.304294700679748120e-01
-8.592450654463040793e-02,4.987141936141768483e-01,-2.549908868431670084e-01,-1.093378767439315974e-01,-3.605816340565181077e-01,6.150742993126254859e-02,8.045013759558769517e-02,2.272289551275680219e-01,-2.596049985016931072e-01,3.980890120638374552e-01
-1.679954376555028439e-01,2.848762890553627192e-01,6.953902329970879093e-01,-6.114170950270015892e-01,3.696839946021367451e-01,5.962041155571332074e-02,2.928420297770186753e-01,-5.378463678405525084e-01,-1.541806377213938151e-01,-8.424275329887888353e-02
9.367706342643486450e-02,-4.587691761423217524e-02,2.417269528889984254e-01,-1.131868638965859569e-01,2.622123096405127862e-01,-2.294710373651650814e-01,-4.947000389354972993e-01,-3.954097360375950082e-02,-1.028100506441272100e-01,2.733279002501033395e-01
-3.392432443305753997e-01,4.242423213977436491e-01,4.750673934033909918e-01,1.972220498803130273e-01,-1.825682860607230340e-01,4.303910920505773507e-01,-2.950943944399538887e-01,4.410787771929245982e-01,-3.634985377731237421e-01,-7.972533827224419500e-01
-1.426890878357160893e-02,4.291416507672748959e-02,-2.317839219628266001e-01,-3.098683072249377446e-01,-6.019672079919318186e-01,8.791235959426761948e-01,-1.162302144550292765e-01,3.628670870574226548e-01,1.039644748696427201e-01,4.399836503289116657e-02
6.333921098796605476e-01,-3.927388704744383952e-01,1.509949181828362241e-01,1.228360459101435348e-01,-3.273264261817890874e-01,-7.555344956512983767e-01,-1.864434419089558148e-01,1.772779938581278414e-01,-1.577912317732631797e-01,5.799033800374979730e-01
-3.721093141541283438e-03,5.082054843866247174e-01,-4.762980534570009361e-01,3.315781236633453255e-01,1.120728804150496610e-01,-5.284600838001075607e-01,-2.011461287950512822e-01,4.888737763049517265e-02,4.186914142181630827e-01,7.270184019968474465e-02
-1.886755149832228806e-01,2.132150816179279040e-01,1.252625883410156682e-01,-9.939442191685574635e-01,8.302333501134816496e-01,-2.086848997737620059e-01,-5.146519512128412410e-01,1.894817922817103040e-01,3.332405425729787485e-01,2.692563015369164314e-01
-9.505410351954865500e-02,1.302549323488611799e-01,2.011745893399800034e-01,-2.862916651621171815e-01,-2.236029884143557744e-01,9.953704278290020913e-02,1.545321631265121065e-01,-1.736437569896280217e-02,9.897985114060604828e-02,1.097230609379094418e-01
2.252390541730130702e-01,3.045459964224224089e-02,-6.165010342969252655e-01,-2.209326675561038011e-02,1.570283590928641115e-01,3.845887334506995492e-01,1.536690412101895942e-01,1.794096373010033996e-01,-2.444293596117273412e-02,-1.252952041655692184e-01
-3.670101061087111538e-01,-2.290493357553719800e-01,-2.031862959172220096e-01,9.790253565603815322e-02,-2.580141433136471929e-01,7.325793596297991428e-01,-4.631631169812002770e-03,-5.979225688544239636e-01,3.633250633353561909e-01,5.395594035194856836e-02
8.062594275452408810e-02,-7.016403437199068838e-02,-3.102824343765429593e-01,-1.737074405753948336e-01,3.999986605610995061e-01,-5.942182054749882425e-02,7.481927662688718783e-01,5.144029224780751752e-01,-5.218556734484733894e-01,-7.506971035580035645e-01
6.191073555933670480e-01,1.689565530465199084e-01,4.228823021850836028e-01,2.295281674007389472e-01,-3.972059367545842101e-01,3.462853263044626262e-01,-4.061971128484397897e-01,-3.191728490891496128e-01,-6.755436524191287262e-01,-5.944723823553570152e-02
-1.546420177815668318e-01,2.993848321357586162e-01,-2.707006710352308221e-01,-5.303357443990758258e-01,2.675399576500770427e-01,1.989157909710397298e-01,-4.958473880156676061e-02,4.067028070914023297e-01,-3.453558482009443931e-01,8.950504516399918065e-02
2.132764945637050102e-01,-5.364287156220384420e-03,8.210416630099860447e-01,-7.326902749268877912e-02,5.368220045775591309e-01,6.098521176870842497e-01,-2.186853037789154297e-01,-8.820367329733193318e-02,-3.041746892607536390e-01,-1.230648608284415912e+00
-4.112299943193378771e-01,-1.145222262655685858e-01,-7.588859991682257722e-02,-3.210799268325365552e-01,4.098111976300635728e-01,5.545260896173288545e-01,-2.424431324906578533e-01,6.203505893597804910e-01,-2.942945251556047803e-02,-3.111171301281477342e-01
5.213802031483510957e-02,4.866721320870252554e-01,1.569469544893317414e-01,-2.116553381563167635e-01,7.415441099476556552e-02,2.622238993306558741e-01,-2.439993183628150764e-01,-2.127640018273164457e-01,-5.872491048410850567e-01,1.789977880661557386e-01
-3.105954944549234667e-02,-5.304509599911348683e-02,-3.927818286863319491e-02,-2.937687489944485614e-02,4.388094825713770991e-02,3.447709609008952486e-02,3.503565248020760331e-02,7.708247827685295317e-02,-2.870056661907855952e-02,-1.501108862626186480e-01
-1.485467159225319911e-01,-5.120799006969897205e-01,-6.757735621786543634e-01,8.727296725427673429e-01,1.268171234423955962e-01,6.262248271711753356e-01,-9.005661206937937147e-02,-3.691774083601671586e-01,-2.542008876754761615e-02,4.161347385543037181e-01
-1.063104819171821133e-02,6.137214872836112001e-01,7.490057559067665460e-01,-1.868774483698241728e-01,-1.138321198503472881e-01,9.029068922813675291e-02,-1.611501657444616986e-01,-2.895053809557335822e-01,-4.155707820718897438e-01,-1.473948266296456755e-01
1.066575488376424463e-01,-1.801427120287662498e-01,4.500355813418486783e-01,-4.597032004286309981e-01,-1.201409859962735693e-01,-3.402276240458517731e-01,1.696226135701141193e-03,3.800024303178768381e-01,6.973135712597033908e-01,-4.219298127499547246e-01
-2.719574514046708136e-01,9.974183716735618432e-02,-3.403063699450033508e-01,2.902653110527996239e-01,7.493835079445732017e-01,-6.159991707987821918e-01,-4.760490198150073293e-02,2.616427605169988069e-01,1.784987441639049599e-01,-4.596138122385433622e-01
2.414117094088065740e-01,-3.012970573736218349e-01,2.957486270089936808e-01,-4.167614222657680667e-01,7.324530459493349133e-01,-2.291368548620990042e-01,1.428267674530898368e-01,9.258304906260676759e-02,-3.954251991276597211e-01,-4.631980295256994951e-01
-2.503572685395867858e-01,3.750972083753177921e-01,6.451539838946556138e-01,-4.758073620843302799e-03,-1.320869213370949036e-01,-2.161705539731519632e-01,1.183619911616336229e-01,-4.388387753380410539e-01,-3.030597407947652200e-01,1.510165261157605243e-01
-1.706315880247061822e-01,4.196622859512212367e-01,-5.056766552609091164e-02,6.765577682710313678e-02,1.887525161403797239e-02,1.407260208906397358e-01,-2.029336337968325743e-01,3.195011114072198177e-01,-2.363897413843088491e-01,-6.788646123127893561e-02
-3.149061470582173450e-01,-5.294497240300049395e-02,4.094640861690836409e-01,2.712604518334552073e-02,-2.625869758306705881e-01,1.761289950503180934e-01,-3.303068790669155819e-01,-7.178418095262134764e-03,2.694489531757117140e-01,-3.626779222028061328e-02
-1.736470060578406902e-02,2.077208051691788182e-01,1.802139974510843790e-01,-1.916093451269815229e-01,-4.541149328865857690e-03,-3.057679722514990150e-02,-5.960461032729943986e-02,3.237546207491386330e-01,-4.484260101215584160e-01,-8.206502662975058426e-02
-1.551977415341923849e-01,-1.075128298004573990e-01,-3.542602454186277727e-01,-2.271581564253837004e-01,-3.966033135849890146e-01,5.229679914308258404e-01,6.711685550757340302e-01,-1.791908478981503183e-01,2.157722771118892047e-01,-5.531449179747954803e-02
4.997012081111398829e-01,-4.765161933072819544e-01,1.630108799531718514e-02,1.709521002270063539e-01,-6.117443474283179583e-01,-1.829162455011197896e-01,-9.077040075540929176e-02,-2.937112934125659172e-02,3.333276340669488191e-01,5.653814746899099575e-01
-1.025363510557740360e-01,8.129666235589584344e-01,-1.766511380071171256e-01,2.686226305919388602e-01,2.346689171645433281e-01,-9.319722102409099262e-01,-1.168275697993522658e-03,3.874770916040414237e-01,-3.313836242079213346e-01,-3.133337712785892459e-01
-6.197057476522595948e-02,-2.749332176503347380e-01,-4.782118849757359125e-01,-1.137080776844038577e-01,-2.453231612733505762e-02,5.110536387498519906e-01,-3.031014529943706903e-01,-1.143010916750877154e-02,5.882357619523391756e-01,2.659985429790748257e-01
-4.354914215618537754e-01,-4.699248878321005130e-01,7.547600969725127840e-01,5.200377367367299275e-01,-4.857418645225588527e-01,2.824381824822334019e-01,-6.881976974721591978e-01,7.539419327671462723e-01,-1.852511251594528563e-01,6.811231366551395716e-02
-6.440411722345404932e-01,4.895545946644315749e-01,-7.498913033966136954e-02,-6.503849448626967122e-01,-6.279256402966910677e-01,5.359055412734240464e-01,5.789291905483233691e-01,-2.362071759426244769e-02,3.997847712331618619e-01,-1.513115096149202365e-01
1.513297890067205956e-02,4.451023445189368211e-01,-7.928529604345257997e-01,-3.222560720032308090e-01,3.611014523084019046e-01,-5.360401655301940543e-02,-1.661660743508257543e-01,3.923486973450689835e-02,-3.646456613880525999e-01,5.023276132156303531e-01
-4.290217448481558615e-01,-1.633135030137403965e-01,7.507412671887931932e-01,5.968552013210159934e-01,-6.080264661501169066e-01,3.464693250793409729e-01,-3.238578401307347643e-01,1.107457442670240155e+00,-1.988120962007248194e-01,-1.015656431627532275e+00
-2.804021922334363759e-01,6.084175958405141360e-01,1.893286460709430463e-01,3.576306952472962375e-01,-9.221816335143867560e-01,-6.781941682364132917e-02,-3.685421205791830079e-01,4.319954316796117411e-01,4.579362364615586767e-01,-9.828177169230693788e-02
-2.187571654871115490e-01,2.275754998621645486e-01,9.247529828483634640e-02,-4.346737589287830161e-01,5.615874563999545543e-01,-3.520706146408703607e-01,-3.825804861741514008e-03,-8.072118816218925436e-03,-6.133463785259675172e-01,6.731412847810944733e-01
1.397984594145411374e-01,-1.263231839893413366e-01,-4.218026982067899500e-01,-1.439605087267881445e-01,-3.471908563607295495e-02,4.070644305758908815e-02,1.037852001306447836e+00,-2.599611897235584723e-01,-4.738140433080942349e-01,9.815396632770147234e-02
4.414879573051808115e-02,-2.011521007940816896e-02,3.618564355744680050e-01,-2.193037800394517095e-02,6.625618825808724521e-01,-6.359609216250848851e-01,-3.401364246413459691e-01,2.660426594320418059e-01,-2.529905377069993078e-01,1.770424998645758752e-01
3.393934602078934604e-01,-4.576892874986727144e-01,6.736089014549537235e-02,2.955457475900037934e-01,1.303173654212577415e-01,2.469146798391795225e-02,3.290180571105283391e-01,-2.538385400231340516e-01,1.877215651322790280e-02,-6.919324296344331326e-01
-3.570971187203966224e-01,-2.861446310575155999e-03,-7.227658031432018237e-01,5.593968948612293435e-01,-3.689939885396572583e-01,1.063266296417472390e+00,-2.392723101499119875e-01,-4.508334547443053064e-01,6.321578820273683341e-01,1.463619911451294053e-01
-3.871893747828530213e-02,-7.283774043956213473e-03,-2.054943357736601361e-01,-1.010770343130270102e-02,-4.218978348231390285e-01,-1.866511870314044030e-01,-1.507274330400394935e-01,3.193139419935133727e-01,-3.806087558784547187e-01,8.402954597897561717e-01
-1.655950607845382283e-01,-8.929598103822533606e-01,-1.972151769342161409e-01,-4.416851840093790615e-01,3.431457527238216954e-01,2.181672280699959998e-01,3.573242084736834023e-01,-2.754306087618972332e-01,8.824389269408835501e-01,2.916516203614717417e-01
9.379381374971106078e-02,-3.659589980984746527e-01,-1.086190957454058192e-01,3.231235563929194532e-01,-2.706016090201110447e-01,8.950117574056228043e-02,-3.087829444285430935e-01,-4.337719083847146884e-01,5.941919097799482907e-01,3.963006838098305784e-01
3.752872550117290484e-01,4.165414703731371016e-02,-9.345009686871315335e-02,-2.140706762560587728e-01,6.214986636460950731e-02,1.440577061049655161e-01,3.420922759238581579e-01,-6.593303067605672807e-02,-1.746334541435088095e-01,-1.647437549495057718e-01
-1.867591171861473498e-01,5.518615854518212904e-01,4.769126142409974012e-01,1.301373835252219724e-01,6.579033648234298981e-02,-1.046756410631286688e-01,-1.417947794020961993e-01,5.750983034802487071e-01,-6.390059660490321480e-01,-7.523874396593112079e-01
-2.948102507875870540e-02,5.380543021364993239e-02,-9.546429684168480923e-02,-7.640868690897520410e-02,1.996087277066015651e-03,5.187862698600541611e-01,-1.342613806610231109e-01,8.909653078904269941e-02,1.289470024750563326e-01,-3.101501842091974326e-01
-2.954583041381258490e-01,1.530934455211869771e-01,-7.246063179470936533e-02,-8.033598737671665546e-01,8.101217383494807578e-01,-2.068970125167790552e-01,-1.482364149071362380e-01,8.797341788322430300e-01,-6.922862251905044229e-01,6.793246695656496303e-01
3.794022228130831120e-01,2.663215585588646697e-02,2.889832033148685420e-01,-4.231164672844737740e-01,2.104842936264686992e-01,-1.862747039144938832e-01,-2.439911877484724489e-01,-7.242399010577418861e-02,1.316058352126259490e-01,-1.420029184579400805e-01
-5.558973930399668806e-01,-5.140993090250499664e-01,-2.749884809794362339e-01,5.737759915690565649e-01,1.905548985861847955e-01,5.365350053046596956e-01,-1.710379121723575035e-01,-1.859098617564044764e-01,2.284654973300683789e-01,1.245214082745231959e-01
-2.753175979676721341e-01,-9.203361175624073798e-02,-5.450100252784657179e-02,-1.592909684428452932e-01,-2.692246216010560911e-01,2.910580105364345416e-01,2.720409069290344872e-01,2.811773284941648798e-01,-3.353983154997288163e-01,1.346103623329790167e-01
-1.175716921196526543e-01,-1.370423251688786606e-02,-7.158777414426199526e-01,-6.918262060972250049e-01,-4.338293628513174016e-01,1.019650758535614044e+00,5.905948270591613314e-01,6.065582792809869755e-02,-2.549705602743526089e-01,3.172205579887565907e-01
9.337144480304088515e-03,-5.027191629787907123e-01,3.340002244437005885e-01,-1.673137255479331120e-01,-3.433531074713427889e-01,1.690760314605962988e-01,4.945297462201297400e-01,2.674426983755390785e-01,1.706633169168533248e-01,-3.364157074178057427e-01
-2.356016310584972406e-01,1.709432315761145842e-03,-1.082205930480356626e-01,5.249316404718341600e-01,1.156966574342023213e-01,7.778749661828958384e-02,-7.919480712668661160e-02,1.557101982134992124e-01,-1.868294354524764334e-01,-4.088911205316460018e-01
-1.534803977284498189e-01,-1.299459422754059013e-01,3.106166420782198734e-01,2.697255913405275374e-01,-6.519929902838538238e-01,2.087948965140304647e-01,5.756804299504305611e-01,-4.276698214937640352e-01,9.511418485084968677e-02,-3.758791730263991680e-03
2.560655040320734543e-01,-6.615473823648609919e-01,-5.767761717147955602e-01,4.052890377868936245e-01,1.870979059124993141e-02,1.385771365055485094e-01,-2.682702287871329139e-01,7.261215037433384201e-03,3.156822914136565572e-01,1.683363749499248441e-01
2.294802589242763702e-01,-1.711680350585804630e-02,-8.474708427862853721e-02,2.164927201089781872e-01,-7.262575431828703909e-01,2.144221083699359709e-01,-6.410292481113204210e-02,7.345721065415394824e-01,-5.063055795399280523e-01,4.174344708517654379e-01
-4.624050920621329275e-01,-3.626517059795005271e-01,-7.252295311699201719e-01,3.686876429547658596e-01,5.605176361730835888e-01,-4.820760546430901544e-02,-5.025577883755473207e-01,9.636169324233015421e-03,4.049687406048034788e-01,6.185538610195902010e-01
4.389290002498517640e-01,7.416961120483582526e-02,7.277963790371465569e-01,-3.060024552007056808e-02,-5.499067476135823807e-01,1.660876553634212938e-01,-5.286762134343144792e-01,-2.468657868393793753e-01,-3.051064049401239209e-01,2.101220977980447213e-01
-1.592226363667108846e-01,-1.204556182359235311e-01,-3.448178589610403355e-01,-4.429662290568787686e-01,8.837732416164002514e-01,6.805903780942990089e-01,6.140778597562471935e-02,1.874232398019000934e-01,-5.527557988264054922e-02,-4.354923977345456776e-01
-1.707571676819648610e-01,4.529002585759726585e-01,1.764978791078337106e-01,3.093369370110922167e-01,3.408916275707551402e-01,-6.020987057157400901e-01,-1.292632733974168613e-01,-2.434873221788851627e-01,2.003664711389771536e-02,-1.954529448201757225e-01
4.749674934398983028e-01,4.127681780595823802e-02,-1.109874285083619350e-01,-7.491246245642117774e-02,-1.174869221717588369e-01,1.306748457151451215e-01,-3.506472394418816974e-01,2.412014939504704414e-01,-1.221038540421472696e-01,1.507614608507549803e-01
6.389959602235210923e-02,1.984563710816367177e-01,-1.259037030320882877e+00,3.688203073857737602e-01,-2.028225933615681043e-01,-2.873265670512233361e-01,1.470755003246963233e-01,4.860054589855435925e-01,1.781621308123705894e-01,4.548453208316552976e-01
-1.789945382463220824e-01,2.874366805486103793e-01,-1.667433247471662994e-01,-5.586506302994267426e-01,9.679355267921481432e-02,-1.299870404476879404e-01,-1.916191532993048730e-01,2.661267582977860924e-01,-1.798370670634682755e-01,7.687842237755783126e-01
4.685274106629244151e-01,2.562952499163663744e-01,-5.416157863771672298e-01,-2.684031311661584929e-01,1.797326439942080745e-01,2.384957413776090662e-01,5.197791925848807004e-01,3.454628284487790135e-01,-7.272300149162732597e-01,-5.132513424933516921e-01
2.825349796922324574e-01,5.590280430378720133e-01,-6.718438450659662831e-01,-3.453406629096295033e-01,-2.733733892548225186e-01,1.994490872886720001e-01,-5.696412882321973126e-02,2.106103445780724004e-01,-4.620450243815796450e-03,-1.089628249235475438e-01
-4.351932526190519512e-01,2.054082269427185137e-01,-7.333852563323585150e-01,7.389108130841693933e-01,-2.347560022151899684e-02,6.361360835977416528e-01,-2.299741913651344449e-01,-1.709000806860702659e-01,-2.837006072682550228e-01,2.949859412612156895e-01
8.387368081704222461e-03,1.415122100368448599e-01,-1.237653809467532534e-01,2.765991402371991148e-01,-2.312048539489159615e-01,-2.066841821865959272e-01,1.998955249292352909e-01,1.873874544291676825e-01,-4.069733672403872404e-01,7.556153689050379429e-02
-6.586058212390688560e-02,-4.848048365938379539e-02,-1.233760278054553128e-01,1.524296185589998909e-01,-2.572465241319966955e-02,1.376314011873929766e-01,2.041771482539593563e-02,6.027760850331916054e-02,-5.818877110115808216e-02,-1.793613126924816781e-01
-4.006300720663922843e-01,-4.815638617309133673e-01,-4.494249169082514261e-01,-1.407678397466231301e-01,-3.984979068310490202e-01,1.033018600528924802e+00,9.375914124520156046e-01,-1.477714761462979587e-01,-1.688970370763940090e-02,5.270740221962112448e-01
9.955353753498761768e-03,2.693005589730545490e-01,-1.261828831751468094e-01,1.633628692584401521e-01,-1.035850330011288400e-01,2.882739940461686579e-01,1.135142154270797343e-01,9.066531611986617945e-01,-3.512003517780018513e-01,-9.153823063957473583e-01
-2.997673495495389306e-01,-1.681776658217187526e-01,-3.504424096955801593e-01,-3.048885820048821138e-01,5.351660101621106280e-01,-1.460274903292064774e-01,-2.677041146805905769e-01,1.349526195579661803e+00,-1.418795878116498599e-01,6.112091398971147838e-02
2.822143091648286056e-02,-5.067506976139897201e-01,6.603724461228339671e-01,-1.078477911625874697e-01,-1.979084895615356721e-01,7.352367745509871821e-02,4.948107923378114448e-01,1.010195728568595297e-01,-1.400934278943103684e-01,-2.858011328564669662e-01
1.476691287706206612e-01,-3.957609581822552625e-01,1.745551118759115783e-01,1.190859435392569721e-01,-3.399055046857329399e-01,1.672402179501321362e-01,2.118786073194510455e-01,-2.752019105533929921e-01,6.513945379269650560e-02,-1.907521624214997963e-02
7.521159428530016511e-02,-1.959794864720242058e-01,-2.788953422941682359e-01,9.436904414526485485e-02,5.683482377277275788e-01,3.030251923149289428e-02,1.913654429176231409e-01,-1.546569176334880169e-01,6.438687433157644358e-02,-9.408573936080232014e-02
-2.110361162889884401e-01,-2.917160246930196044e-01,-2.877420706015670349e-01,7.221726408043195322e-01,-8.923517148871469573e-02,-1.807404050394423659e-02,-2.948589790358289164e-01,-9.402707800975862451e-02,3.674798153244711041e-01,7.212867211431545078e-02
-3.587172317620271333e-01,3.685495264668083304e-01,-4.413119366574778657e-01,4.864656005627691626e-01,2.081039679238835538e-01,3.624942232022941302e-01,-5.360474484627231195e-01,-2.285975472099442685e-01,-6.397921167097704309e-01,6.619813672270022931e-01
-1.338002124989398911e-01,6.344061358511975390e-01,-4.997417912817507801e-01,-1.825832855470885807e-01,3.047021374352602563e-01,-2.049408112909731437e-03,7.701680649496139841e-01,-1.890606385908324694e-01,-8.837279296442408782e-02,-7.210510941260467321e-01
1.590947830284755449e-01,2.915947839333623004e-01,1.962924728965356469e-01,1.412243970390444359e-01,4.415625524610800046e-01,-3.474992594562733433e-02,5.980587028436203795e-02,-2.672510710917164745e-01,-5.328725371134263034e-01,-1.548219825950259976e-01
-4.060592372896100199e-01,-2.571821405153619788e-01,4.375253842315484643e-01,4.683931213879788391e-01,2.688478466550000001e-01,-6.470043973776807844e-01,4.870474146850619843e-03,-2.256028880391582336e-01,5.925985669597315653e-01,-2.174600316508845388e-01
-5.029743674246066609e-01,4.058190694375524710e-01,1.658394777522299302e-01,4.826997532790010537e-01,-1.463915372465718068e-01,-4.226042845035649781e-02,1.612357819139243753e-01,4.839467059523583359e-01,3.331961034223462348e-01,-1.117013634784328024e+00
4.575268408305870338e-01,-4.228347341053308867e-02,3.987782047450156853e-01,-1.212886081509516600e-01,-2.791498732115739179e-01,4.932225293231221747e-02,-1.855549052397545418e-02,-1.313542319015015558e-01,-3.329370664251208867e-01,6.727341689061848429e-02
-2.285091887723057213e-01,2.908219862281510165e-02,5.810937215966615055e-01,4.171778983826737730e-01,-4.959992096276378826e-01,1.998492216043454284e-01,-3.240944794663621620e-01,3.719511041983858957e-01,-3.908754469591154690e-01,-1.603123803541699477e-01
-1.244039220310810961e-01,1.824460364994228423e-01,1.825201563679434980e-02,-1.618299354403506529e-01,-1.154861012852808899e-01,7.117006535166639503e-02,5.785605195559808539e-02,-5.635931775627502777e-02,4.627423348800234655e-03,1.234578024519997624e-01
-4.097090242057060960e-01,8.519592067415133751e-01,-1.888254227362516913e-01,-2.451590528254467619e-02,9.779232880488556434e-01,-8.288575867604306424e-01,1.875387927585980274e-01,4.953850088133017471e-03,-1.645475067020804871e-01,-3.694317070754787324e-01
7.517699579188773240e-02,-9.037398771859289637e-02,-1.352570587060994978e-01,3.433523086674917790e-01,-3.301014054697161693e-01,2.230556399714121174e-01,-6.726962344240998426e-02,-3.677671678316828396e-01,5.983209087707107576e-01,-3.611869745060867359e-02
1.768794049541659308e-01,-4.105253467603768303e-01,9.109557173772820926e-01,-1.329155280391201566e-01,-3.988428760440059784e-01,2.385287745209345167e-01,7.451116700841942109e-01,-1.482977201840380843e-01,-3.016222513984007647e-01,-3.550558573359412495e-01
4.521791916618622120e-01,3.256167689198808390e-01,6.973452420114508721e-01,-3.405979769900350229e-01,-4.337087977271247841e-01,-2.852716765832361556e-01,3.492626656564680188e-01,-4.014017524144450344e-01,4.614048534525828638e-01,-8.963417984481173439e-01
3.096072124813128990e-01,-4.613744916800929796e-02,5.455921926778175557e-01,8.367903522236657884e-03,3.879238317017291715e-01,-1.812946398411550142e-01,-3.752373101147033624e-02,-2.116852149525165760e-01,-3.579914532999113330e-01,-2.013758232272923887e-01
-3.492031967849977270e-01,3.152337549587665988e-01,5.947801876475221627e-01,-2.052988130807328060e-01,-2.374688726316411258e-01,-5.350641265963938104e-02,5.764558722585944039e-02,5.331382501316842548e-01,-4.304203791030077886e-01,-2.419350059509988438e-01
-2.406920506457572995e-01,-3.995060015321523217e-01,-1.120608498989502516e-01,-8.944801412420809728e-01,1.790968808210063046e-01,-3.451858915981920184e-01,3.953624237145285103e-01,4.121381841298078497e-01,7.567488658501733134e-01,2.182605848850879271e-01
-1.510328605483182152e-01,1.074304656633120331e-01,-1.158593657450777831e-01,5.283839236053759249e-03,1.015415927389469841e+00,-4.090018983714083928e-02,-3.072604600125283247e-01,2.264585436873026714e-01,-2.180285677892263851e-01,-7.773991450525923330e-01
6.124726205275281554e-01,-1.619759602501510964e-01,1.000748461969305642e-01,-3.599482602964675371e-01,-2.571072626427886587e-01,-5.271254938484953162e-02,6.503078243203785913e-02,1.693325076918984068e-02,1.264299948792930450e-01,-6.596237410727054384e-02
-9.918434571580726777e-02,6.107317431671015484e-01,-5.742852294212816844e-01,-9.613014894557682377e-02,-4.186123698837455193e-02,1.822901934127360568e-01,1.655725514772952711e-01,-8.794666404138225257e-02,-1.948040680086552956e-01,1.024246357473766744e-01
1.058560809416058263e-01,-7.234322975164370062e-02,5.917141004741723748e-02,1.945499399084728576e-01,3.663154938475360334e-02,3.483522199028314947e-01,-2.533735609388206300e-01,-8.392651947057570005e-01,3.378599254258798368e-01,-1.171860232832406049e-02
-2.978414844919136106e-02,1.763544740933555843e-01,4.276316947819795711e-02,-1.494948762149454491e-01,1.507419708259459812e-01,1.141694339984062993e-02,-1.347454213518829991e-01,-2.902116974075618638e-01,5.787775937310301044e-01,-1.476205235202907029e-01
-5.739818950457052649e-02,6.120379043285368859e-01,-5.901981103025714243e-02,7.191560447783946763e-01,4.155516360449478253e-01,-6.690935693412664031e-01,3.461558138450653854e-01,-3.317255891461726725e-01,-2.800262604301447800e-01,-4.057211302731889568e-01
-3.520060035687173627e-01,-4.994888942941555499e-02,-1.868180201756833858e-01,-2.337593968954549128e-01,3.101773402758331022e-01,1.511638787668913644e-02,-3.311416811346356570e-01,2.813957725588943082e-01,3.765469332252332491e-01,1.155694657076649506e-01
2.814261706631341828e-02,-2.415603511499717360e-01,-2.576215299032078576e-01,-3.383522907476795849e-01,-1.285421040107388169e-01,3.790514726905864218e-01,6.203036729450048803e-01,-2.155381802348360354e-01,2.159619411232316932e-01,-1.074886769673300407e-01
6.187487051470531157e-02,3.719162734058471531e-01,-1.760894830729388405e-01,2.664150417857268360e-01,8.084529844621239913e-01,-7.560057521595476837e-01,-2.673615497786470674e-01,-1.692723813823488951e-02,-6.630640954405755960e-02,-1.181784145847769446e-01
-2.092367999081292673e-01,3.256638991484214207e-01,6.753758395379614310e-01,-2.286544909618175303e-01,-1.467381298023143210e-01,-4.900378611837296478e-02,-1.003814385837266260e-01,1.711998702933107130e-01,-4.456526278711151479e-01,-1.193699538690360523e-01
-5.337883073526636935e-01,2.359987515772112021e-01,-1.269445145472030689e-01,5.140442736175274696e-01,6.306163467913216136e-01,-8.769503399174073399e-01,-5.189324898032367239e-02,5.805420654410266001e-01,-8.638826901875318320e-02,-3.342250417898007253e-01
7.108963375080097624e-02,-9.371670152535992865e-03,6.900519362745097807e-01,-4.311801060873574759e-02,-2.704110371188668260e-01,1.104844441310924991e-01,-4.429892527580354955e-02,-5.980399642340120114e-02,-2.611849847380721679e-01,-1.068054867619231962e-01
-7.406489489041725438e-01,-4.100057519258163419e-01,2.666018328861106124e-01,-1.132632230672272200e-01,4.974799937277792350e-01,1.138637914397187395e-01,-3.131362955184951447e-01,2.937206749783155893e-02,5.994215892773896437e-01,1.858065976012669152e-01
-1.220956029630075323e-01,-2.412452721425580125e-03,9.797857640278494207e-02,-2.105114433393892037e-01,-3.497545493328829691e-01,-1.771480871811875746e-01,3.022571585682772288e-01,1.915499507730134693e-02,7.948895561124408315e-01,-1.492086393422392410e-01
1.033328509997245431e-01,-2.124740305274936680e-01,-1.467003019440967504e-01,-1.609741748016122950e-02,6.729865943748896129e-01,2.702877946824093769e-01,4.198334577474338580e-01,2.031144094079174178e-01,-1.000193414700321526e+00,-3.282812276466165469e-01
5.447594633265852027e-01,-2.146499716902630639e-01,2.174914239869221444e-01,-3.396629177901333563e-01,5.942560800941011634e-02,-9.562872772323061099e-01,-5.609376867731036970e-02,2.455503577035327289e-01,-1.430824493917557116e-01,4.866472724888308288e-01
5.196708371464354298e-02,1.212842192066228009e-01,-1.568853495123789799e-01,3.933451032353802446e-01,-2.866716560356517562e-01,-1.491716752653439726e-01,4.468040643240581700e-01,-5.782970677785664870e-01,-1.973360056409158292e-01,2.692288843625669781e-01
-1.503690742103342692e-01,-9.283615041577175653e-02,-1.388435782309609123e-01,5.767757560621090684e-01,1.175673649107388946e-01,-2.435226222235934435e-01,-2.448839384739842084e-01,-4.208460006881278859e-02,-8.643457961370855369e-02,2.939444471201283493e-01
-1.763538747505249138e-01,-7.349322057789950402e-02,-3.049269536836716685e-02,-2.652041682076887730e-01,1.513021181293234541e-01,4.581628883928975937e-01,6.915759041706828758e-02,8.604501280343828107e-01,-5.796602324878733503e-01,-5.142558244617102536e-01
2.929999141620007186e-01,-1.526454895036436499e-01,-5.893554573709409300e-02,7.722721967847812063e-02,-6.470207815327097545e-02,4.248941801736509649e-02,-5.253684415677182390e-02,6.699566652992098303e-01,-4.405090783589143966e-01,-1.518236332799238197e-01
5.273210667925032347e-01,-3.007761821714084460e-01,8.934898248449905933e-02,-2.759952435829015477e-02,-7.903933936752617351e-01,-3.228083938575455197e-02,3.200051089345136157e-01,-4.983318408866299065e-01,6.407193365339843849e-01,-1.165896340631264183e-01
-4.509060240351270288e-01,5.140072707670362284e-02,3.433013420436003549e-01,-4.602350468667835148e-01,2.297436988005600866e-01,-1.286043940007547126e-01,-1.311550716387025473e-01,2.348070209567716671e-01,2.793468635011849832e-01,-5.764310919413924150e-01
-1.860412149363991491e-02,3.990809207288371213e-02,-3.183187792032375618e-02,-6.200634415838980444e-03,-7.573734468731814495e-02,-2.231032207675562318e-01,7.219768216260644134e-02,-9.068895621256213568e-02,2.966118120840239292e-01,1.554066006695701274e-01
3.164644168337363284e-02,-1.065379774620198172e-01,3.344298142869083640e-02,2.577241535450039978e-01,-6.156163618374951157e-02,-3.418400462455008920e-02,-1.658771487568221070e-02,-8.853390046910465661e-02,-1.340299446043546339e-01,-1.309433021548621519e-02
1.364978617335297663e-02,-1.285827289124006900e-01,7.405015093533670644e-04,-4.293785369554677378e-01,4.111490294151443625e-01,-1.745784217668722507e-02,-6.579737462304779960e-02,9.112923547823573167e-02,2.513184327193112091e-02,-7.744350385832325830e-03
-2.213909359295520574e-01,-7.364618577505761821e-02,-2.096826532652980857e-01,1.056938170603304028e-01,-5.881427162974467437e-01,5.510752547757816755e-01,3.399731966368124692e-01,-1.728434857751626474e-01,2.476502189270703147e-01,-3.234443092042649237e-02
-3.240895445245382811e-02,6.190592386513490419e-01,-5.861012398850067306e-01,9.625474403742048657e-02,4.118151294862958389e-01,-5.625050419232827670e-01,-4.497644246575650540e-01,8.613732547259594918e-02,-2.873934157336772710e-01,6.702995890563923087e-01
-1.639850406166391827e-01,1.595752481592642158e-01,2.046805503074695387e-01,-6.224935524261242525e-01,4.298180810012309783e-01,1.141908564744301274e-01,5.003073009033532914e-01,-2.298746134908221106e-01,4.371798119215042355e-01,-5.015621638827395534e-01
-2.957988991966803427e-01,-2.216063279941860378e-02,-2.184760026251331144e-01,3.719099438146390990e-01,3.777193625494030260e-01,3.643455222316323572e-01,-4.273793546447355873e-01,-4.128278747054915376e-01,-3.741200899877856201e-01,7.297688635219938824e-01
-5.556264766244508463e-02,1.297440255538301057e-01,1.748808184239671881e-01,7.394732286894878381e-01,-8.715490465559820599e-02,-2.009315501851245966e-01,-2.110425615277378153e-01,6.629614242362742715e-02,-2.875072874171983872e-01,-2.934944772337090280e-01
1.128760937979315752e-02,-8.285691885509957610e-02,8.830724451089844163e-01,3.740550523715842068e-01,-1.370380621525497111e-01,-5.409008412809142019e-01,-6.966683377087895535e-01,2.021020382667013116e-01,2.513199504037269549e-01,-1.401165938320516613e-01
-1.783812468265373943e-02,-1.753029455420597738e-01,1.446538215250631199e-01,-7.063227863211342730e-03,1.404436779381088574e-01,1.946642809401347707e-01,-5.794244045897907203e-01,-2.134013695808957833e-01,4.892798458179024590e-01,2.167560125885454325e-01
4.987163013025723846e-01,-7.171021913615872878e-02,2.925593439927918205e-01,-2.723285676692530077e-01,2.820538841179538389e-02,-1.185335744405480396e+00,-5.339329083689541705e-02,-1.069803849666301106e-02,-7.975788940451231102e-02,6.662286289888434965e-01
2.427622232722382797e-02,2.148044019223082496e-02,-7.240606190591993008e-02,4.584456402687670656e-02,2.994352571368411042e-02,-5.969009160243822498e-02,-8.267927770197557036e-02,2.420477821424244294e-02,4.092530045084077917e-02,2.355252820307886241e-02
3.231810987806537083e-01,-4.124956355230282035e-01,1.720577077440301750e-01,3.120216558283927522e-01,-8.961016547524782716e-01,-9.520387432065886835e-02,-4.479609156266721182e-01,3.323993714419879453e-01,2.949972604979885227e-01,2.700522445081330880e-01
-4.920854588910857086e-02,-5.954866763044882605e-01,2.546276892279418225e-01,-8.556914342261490170e-01,2.086031787102173851e-01,-3.330837452986147307e-01,7.246508978822844282e-01,4.363598096517933844e-01,-1.157600561191365895e-01,1.574588540831630412e-01
-2.295478414949294610e-01,7.229587554947097816e-02,-9.699239619433712434e-02,1.722953755650397101e-02,2.104781719393594153e-01,-3.678784904288128210e-01,7.584735566991744893e-01,2.872053336244139166e-01,-1.279594907905282630e-01,-5.488389621798938078e-01
-5.316627457857142636e-02,-3.877503179495579988e-01,-4.423672809054993160e-01,6.452723787985640280e-01,4.281225909621355075e-01,3.082760582995746623e-01,-2.358695102946529731e-01,3.636350760094967938e-01,-4.666899239326647297e-01,2.690239673612665472e-01
-7.573498730121092093e-02,-3.188440343179581304e-02,1.414631025085768545e-01,-4.169414962963275406e-01,-4.170464159270236004e-02,-8.902703200493373992e-02,-1.169382796983516916e-02,3.577547830130504702e-01,-1.942290203571870114e-02,5.862727766151835246e-02
5.325586402008003484e-01,-8.911443983508089695e-02,7.154062158387634041e-01,2.249878551174847308e-01,-3.597490222485454914e-01,3.353811335569602536e-01,-4.443529531290247858e-01,-6.495096149928473173e-01,-5.081865144463496575e-01,1.644613417009291867e-01
4.251784398769025697e-01,1.666429868815196003e-01,-8.820114147826432771e-02,3.366056589197457538e-01,-2.465808410060687239e-01,5.118794093851773003e-02,2.163804152911508183e-01,-3.436949728398315806e-01,-2.776029589020777011e-01,-2.335325397966392658e-01
-8.476871498018334616e-02,7.695189820931263025e-01,-2.756930431909221935e-01,4.614359831203844464e-02,1.245823302651244413e-02,5.362183186852549355e-01,-2.538637884589478033e-01,-3.391612876283193745e-01,-3.191103599537867819e-01,-4.827221235110197572e-02
4.986856985785938501e-01,-1.035190511419514930e-01,3.328532314281488214e-01,2.283888920887451879e-01,-4.402330020007385603e-01,2.670209372227609346e-01,3.944746176329884113e-01,-7.354401683517632904e-01,1.789153474301962143e-01,-3.662023804126012250e-01
-1.897502804229312112e-01,2.011167706201232308e-01,-6.153302369606152844e-01,-3.518526585237542470e-01,4.491073398042490505e-01,3.039564303917510757e-02,-1.699174387194316849e-01,4.974964178536542825e-01,-3.820319130606803643e-02,2.605194329085049332e-01
-3.515097480896190452e-01,9.365062702870639022e-01,-1.538560607432031511e-02,1.596513372596760072e-01,-3.803376118296166175e-01,7.934735841393698585e-01,-6.717164909129884620e-01,-8.268763818968562218e-02,-6.316838826016799580e-01,1.245218704992726022e-01
4.169913034219363546e-01,-9.763591759826263650e-02,-2.485601777904335730e-01,-3.719259794627071125e-01,-8.312873392887949742e-02,-1.650871398254332711e-01,1.427983647922962396e-01,4.471582071213364151e-01,-1.076481223286432365e-01,-1.794635227087988671e-01
-2.106208788542152793e-02,7.080013380443286319e-01,-4.987921117846777497e-01,-6.055771665854529084e-01,1.908097896314747688e-01,-1.061554901281252655e-01,3.682863293237815805e-01,-2.438283070669475250e-01,3.008923663202686671e-01,-7.737543095740337384e-02
-9.071224476465156172e-01,-4.156308068548867363e-01,-5.157927859550515137e-01,9.642737235427698561e-01,4.243983316683097584e-01,6.396839909102340904e-01,-6.357595051471534031e-01,-3.052802360918598912e-01,1.900441357710423440e-01,9.340752364754112413e-01
-5.186198543115403403e-01,1.745207827050707095e-01,-2.122422999103618646e-01,-2.708862198489202754e-03,1.860294768595231463e-01,1.400827110162180256e-01,-4.226898869980673379e-02,-7.367739768741004003e-01,5.172188419592558262e-01,2.639080801067141269e-01
3.292508382553584467e-01,-1.298005156453680142e-01,3.227428460525352261e-01,1.015934727722981323e-01,-7.414060073540558182e-01,-4.767243277119533051e-02,2.656023452290982578e-01,-5.869695847804352606e-01,3.521452631444869641e-01,3.057722191382868382e-01
6.247192426781496000e-01,-9.246676735797806912e-02,5.281004384043311850e-01,-8.408338431260263535e-02,-1.394521749567589064e-01,-3.583277428024362887e-01,-4.664903142649429735e-01,5.189628218880389943e-01,-1.069895909836207304e+00,-3.817948666595196577e-02
-1.168881329810445152e-01,-4.024325246135323497e-01,1.007799649251362450e-01,1.556775129968205607e-01,-1.046331066599692106e+00,5.312578447913194335e-01,6.921248616618284055e-01,-4.884437738960552000e-01,4.851251065941663554e-01,-8.198781288106482545e-02
-3.395956508093826431e-01,-8.603054564165286966e-02,-4.131000325470057105e-02,-9.378603487916217785e-02,8.564790978713375802e-01,3.777224543623617925e-01,-3.951597160608044668e-01,-3.068527830840070969e-01,-4.008359657850589786e-01,5.857705847865254389e-01
-1.674763522738085819e-01,-4.547478592902485239e-01,1.711948479235879117e-01,-1.982138333520108708e-01,4.899461590851837411e-01,3.120834321213305507e-01,-1.704090326202467864e-01,2.670888200730181516e-01,-4.780981289884106977e-01,1.395571034426869861e-01
4.115132380334668438e-02,-5.522237562605417094e-02,4.815775309888731259e-02,-7.805990003665330690e-02,-1.574845012146857404e-01,-1.238390049263739939e-01,1.266166151969008169e-01,-1.130072357811431477e-01,1.507415488295440475e-01,-1.979194590376305227e-02
-3.798063880384430213e-01,5.963276831836340497e-01,-2.340428783769134963e-03,-8.310867329262626724e-01,-3.573947320429719521e-01,2.172491348839745151e-01,4.612705918646354264e-01,-3.373429572690860301e-01,5.429156331294018312e-01,2.145124795554793906e-01
-2.006329015331735077e-01,4.005543945043547605e-01,4.265238805629992802e-01,-3.148110215605491313e-01,9.101340788398119830e-02,-5.243276050583203229e-01,9.347856468731642610e-02,7.777393314817548919e-01,3.797948057449860304e-01,-9.986772598195984285e-01
-1.884694664162472610e-01,-2.678311983725098488e-01,2.758931571073052758e-01,1.761803951049917827e-01,-1.390432308206031586e-01,-8.655893083188312409e-02,1.469772487558399232e-01,5.116008179768041786e-02,7.235743708880187919e-02,-7.234246347572108327e-02
-6.433103868867272312e-02,-2.502307208565955343e-01,2.251769448424026654e-01,9.105523682106084205e-02,5.487889937561597486e-01,6.384522787649511699e-02,2.278099321119640142e-01,-5.955428238891595782e-01,-2.685979418390985751e-01,-5.745290955783247111e-02
-1.305169102208402765e-01,-3.815101022877641634e-01,-5.176926115845347232e-01,4.148058409796592794e-01,-1.743189753847352863e-01,4.149889872663081181e-01,-1.535795908260544906e-01,-7.019718232990388440e-01,4.456974511384881321e-01,3.618606707693268199e-01
3.966984151628628052e-01,-2.509770264518635940e-01,2.063164741061154217e-01,3.180043988962154011e-01,-7.584954550767588621e-01,2.475172862031680132e-01,-3.647696913064580326e-01,3.978975124151651332e-01,1.263299142595232516e-01,-4.965027901720774073e-02
-4.789083780332107909e-01,-2.101303079543215546e-01,-3.816883947547681788e-01,2.053241997201977753e-01,5.782816390409193374e-01,3.658820435830703599e-01,-3.271484445052612045e-01,2.789369275104197632e-01,-6.048538531247884542e-01,3.058257536711824209e-01
5.044755067885066391e-02,-5.521819490272643627e-01,8.936755070076904395e-02,-5.085867813796533105e-02,-1.874437756634118324e-01,7.125040700607594701e-02,2.353399641567113509e-01,1.317232846341826469e-01,2.847674001031580415e-01,2.774538018147565399e-01
-5.648583410148859396e-02,4.830406072037640025e-02,2.138830208419481224e-02,3.867100266375776696e-02,-1.127298406329443475e-01,2.419342260770948605e-02,-6.152413780382155056e-02,2.037912289575934122e-02,7.643389990969769177e-02,-4.490716814106619770e-02
6.665337823594227329e-01,-2.052796337936588500e-01,-1.667500236717046336e-01,-4.908279851268070870e-01,-2.011660579729062648e-01,-1.474494548645717551e-01,-3.665757136690938611e-01,-6.527899417078844579e-02,4.847597685436481063e-01,2.873708329157295682e-01
-3.877658201609052724e-01,8.414283323517493529e-02,1.767049751529079643e-02,6.789027412759904845e-01,-1.661609593712422561e-01,7.708219981759720785e-01,-3.285486831552016374e-01,-1.628888909674732766e-01,-6.630250858274410186e-01,5.829934668457620317e-01
