-1.188897556915701481e-01,4.268881188655413994e-01,-1.477269937665055266e-01,-6.178257152467168598e-03,2.406510201002934335e-01,-1.737437025710975580e-01,-2.048714596875304550e-01,3.239179839311944753e-01,-3.650146659609589395e-01,1.758049776999258684e-01
-9.973797591741205559e-02,6.297806856107995843e-02,-5.624410186433667636e-02,-3.439747981916559290e-04,-1.137143168922407910e-01,1.665821680562231538e-02,2.627266702321297276e-02,-3.678510902841471142e-02,7.723807356999538853e-02,3.895288498802080418e-02
-1.419764612664610737e-01,3.150480225362096154e-01,1.891771943866042693e-01,1.785862370524126663e-01,-2.811832656472775804e-01,-1.956973604118718013e-01,-4.037167115822439672e-02,-6.516719247411824345e-02,1.760652725820153752e-01,-2.477972229012495239e-02
-2.843705298588144470e-01,1.267975458339203054e-01,3.249213762852794507e-01,1.226496707212102466e-01,-1.126846498864766954e-01,-1.731864346970339863e-01,1.492680354421493660e-01,-3.621530317954010370e-01,-1.525737345861110927e-01,2.462272860212569581e-01
1.004589489859307183e-01,1.517935485792519801e-01,2.424021262861985049e-01,2.393998065441103329e-01,-5.397719459214540827e-02,-9.253024894546257872e-01,-5.552444967721273938e-01,4.007455054295861463e-01,2.462424393861051622e-02,2.403201855370679374e-01
-3.055885998694338884e-02,1.251277423716796178e-01,1.375702601193771468e-01,-3.761548780778479761e-01,1.023097890423127349e-01,-1.496591663683347062e-01,3.939574424046575762e-01,-4.584478929859053115e-02,-4.248204956584039627e-02,-4.396635959904381108e-02
-5.890170244626827950e-02,-3.581545865181393618e-01,2.521164777609350427e-01,-3.270413095606939380e-01,9.782035854386757212e-02,-1.078427815561544545e-01,1.107190070086528783e-01,3.126968025038013854e-01,2.884854036728852766e-01,-2.159156935104420139e-01
3.009826217669102078e-01,4.094820532540039970e-01,3.701178768068276725e-01,-5.233869929922780884e-01,2.394664507349199833e-01,-2.645451550852949696e-01,-1.289548498923078490e-01,2.097554109603872174e-01,-4.083308103459152294e-01,2.575734512029715928e-01
3.218435059792412178e-01,-2.010201188730236510e-01,-5.602000064940804158e-02,-4.438933420993516898e-02,-1.301725606188890508e-02,1.896867555029039532e-01,-5.165333010744367348e-01,2.052427950212471486e-01,1.900882122509408301e-01,9.427217179198110752e-02
1.006601912454213599e-02,1.786559852799246562e-01,-1.034843660625842932e-01,-6.696498434263811750e-02,3.517844094768554086e-01,7.036322921611837256e-02,1.256039119957940986e-01,-1.370576492375640554e-01,-4.347969208233724847e-02,-4.283701033999781638e-01
-3.969456575611670646e-01,1.979101501892966200e-02,2.924852079035929545e-02,1.901997429788762628e-01,-1.616917157698693694e-02,1.593229536249558265e-01,-1.363517603534915856e-01,9.689455773185590148e-02,-2.426374300039157161e-01,7.567254610966410444e-02
1.029693995859965738e-01,6.625953449840095433e-02,-1.478219821029380654e-01,5.207115441583563126e-02,-1.332707663866171677e-01,-3.434360011277872160e-01,-8.811019944646940327e-02,1.758567544276134764e-01,8.336528511834480348e-02,9.871274715544295364e-02
3.571566153864692145e-02,-1.487086594023772079e-01,-2.458828494978441970e-02,1.835270169445608057e-01,-4.736347918739603480e-01,6.137308622789228174e-01,-2.889585978644976239e-01,-1.073255663465841614e-01,-2.803776237876296484e-01,3.031797143355988156e-01
2.170381897340442276e-02,4.072366666028414128e-01,4.942997648078171352e-02,-1.270976414613067818e-01,3.583426924935057545e-01,-7.281093175259875094e-01,-1.381483599271976503e-01,3.900363239486350775e-01,-2.033288072700071281e-01,-1.049750365406604685e-01
1.974280808709695523e-02,1.138051097248358040e-01,-1.348524642015251629e-01,-2.343117187614036090e-01,-3.278712288952753129e-01,2.861689862599381962e-01,5.504431993940430701e-01,-1.698486193964970636e-01,-2.202705382954094071e-01,-7.403792520332930227e-02
4.180701161342550293e-02,-4.688565108737707821e-02,3.152547134053230171e-01,1.400207761619942821e-02,3.700074125985650664e-01,-4.047249548524020080e-01,-1.281821776472708563e-01,1.776754850969526067e-01,-1.331581262106922847e-01,-6.659289094631329342e-02
-1.189724089523225142e-01,-2.003911784486692715e-01,-2.082564298013220849e-01,-2.346361259776836572e-01,3.629824814577330416e-01,-1.217677479894728743e-01,-4.701422291030347977e-02,2.140832094281566386e-02,2.646550334635133228e-01,1.110485778748682428e-01
8.617396917945119306e-02,1.287591776668622033e-03,-7.647874971235089914e-02,-4.107674873592658815e-01,-3.608192773567281061e-03,-2.975664850133928341e-01,4.157871806778788426e-01,3.090722026262942082e-02,3.429116365841400893e-01,5.366096364757354936e-02
7.398184042126906834e-02,2.553825737410623242e-01,-1.376536946533933603e-01,-2.824670966123734028e-01,8.078250187870965326e-02,-5.797279278430227389e-01,1.993718475265189582e-01,-1.465253969085508201e-01,4.322335609761161768e-02,5.046255808044357583e-01
-3.641711039276595008e-01,-8.662893581647507224e-02,-2.391393173451388521e-01,3.543893364576345406e-01,1.053643143538754989e-01,1.490377161910712012e-01,-2.883242314679363982e-01,-3.889608567947644979e-01,2.375347828424390906e-01,2.824641291900787943e-01
8.026328673508628664e-02,1.268417131196521441e-01,1.355567747177545690e-01,-9.673864443757857617e-03,-2.875286148375789247e-02,-8.804307961336914345e-02,1.199320694703686352e-01,2.242611231358524609e-02,-6.660290672690385994e-02,7.132254189634601449e-02
-3.077786130834885350e-02,2.087903537960572251e-03,-2.666954434925445927e-01,-4.414971808733194059e-01,4.385819192051151894e-01,5.305963279279041211e-02,-6.347979725316463262e-02,5.790593602872631113e-02,-1.619912729889652625e-01,3.346881404853759290e-01
3.055740648231680123e-01,-2.405046916035788462e-02,-3.715106244571770855e-01,3.096157574844713989e-01,1.925833035176349184e-01,3.890381658637958595e-01,1.788541267438997495e-01,2.029737791407988379e-01,-5.975729412338559587e-01,-4.275340839329901943e-01
-4.719200444696616259e-01,1.017103564473315624e-01,2.165144159837474602e-01,3.396526893558016735e-01,-1.419722704567921712e-01,-2.878573534137816026e-01,1.893216467638060563e-01,-2.121728932801497380e-01,9.396343587976052625e-02,-2.864565122764616695e-02
-3.110158038715647444e-01,-2.151335128583392597e-01,-2.314749917610510466e-01,-2.209557681957058928e-01,3.430170555776644314e-01,3.338520926335968864e-01,-1.775506674782439953e-01,-1.497001076768427474e-01,4.471112308535890034e-01,2.845802337133889956e-02
1.154320319232172293e-01,-3.205314376730930004e-01,2.854673954360937294e-01,-1.831905104040471716e-02,-7.054729217376562445e-02,-1.368649184361274695e-01,3.096995161938869146e-01,-6.085278026952033459e-01,2.171422078967354119e-01,1.244106997769926365e-01
-2.921209509247518210e-01,-2.309869630001786800e-01,-1.925494359432844416e-01,3.944582915605456264e-01,-2.861566132060201495e-01,-1.371587691913873641e-01,4.314314734029719989e-02,1.853681729910375831e-01,1.559489438496397262e-01,2.605298435609573748e-01
8.146970521323906866e-02,5.314653941389344549e-01,-2.570792307248203068e-01,3.713868384097265135e-02,2.682107521398457983e-01,-2.270574542936036611e-01,3.894680307131325736e-01,5.090006213683213876e-02,-6.625464148207221848e-01,-2.754643149371381883e-01
-1.292376356017010675e-01,-8.211443271638872721e-02,-2.514449743644130431e-01,-2.044243399115073800e-01,-3.444134076170028425e-01,2.328258452508285836e-01,4.786406808364984111e-01,-6.130279869534678572e-02,1.285761261810066391e-01,1.140351534994313437e-01
-1.581194064792930676e-01,1.423385775988390001e-01,1.616202891487575344e-01,2.147130166573341381e-01,3.459936046244919683e-01,-2.807528443452655398e-01,2.093409781582910856e-01,4.491358522023842226e-01,-1.099287383147702496e-01,-8.577947918682059525e-01
-3.506261824982476738e-01,-3.417841571061126099e-02,-1.938519213536258889e-01,-1.948322910463291258e-01,1.643217407340870351e-01,8.316619008065356811e-01,3.657973464958630405e-01,-2.495541303803951866e-02,-3.127708582764892609e-01,-4.797097210497169861e-02
2.214110683653114642e-01,-2.957544298084981427e-01,-6.108789109135831508e-01,-5.040410861257126340e-01,2.457693566807444552e-01,1.969067236600162973e-01,2.552682943040669450e-01,-2.496434775946608231e-01,3.999211679245813222e-01,3.219377650024549814e-02
-2.467066176209570250e-02,-3.115223923955846852e-02,1.104947092093119393e-01,-1.360876230412227071e-03,7.575760973945341870e-03,-5.096013840325793604e-02,1.382201860614281630e-01,-1.212031859387683319e-01,5.812699116333613913e-02,-1.398068534101917504e-01
-9.030660048641005189e-02,1.120290151248625743e-01,1.902760512711892948e-01,-2.697922047170791537e-01,1.220300587374206353e-01,1.204921642725755937e-03,2.808270576496699755e-01,2.170595528842706179e-01,4.454692114438148914e-02,-8.425681379046958686e-01
-1.684123479162719372e-01,-5.193628822533322316e-03,8.137883797717429535e-02,-8.859810263556511245e-02,-2.247638476587005343e-02,1.379258442285218322e-01,-2.716929547652964794e-01,8.529842649101293528e-02,9.212479139360378599e-02,1.202379142354358943e-01
1.128623612481303440e-01,-6.065733259454812731e-02,-1.050664921707607780e-01,-3.600740492037303106e-03,-4.124533287649818913e-02,7.681308256703557602e-02,-2.864082033156448714e-01,4.077537790514026289e-02,2.297977064338264097e-01,1.015259214413988392e-01
3.373409231245809714e-01,8.821158003813694970e-03,3.393959783223444715e-01,6.202213856267651398e-02,-2.413462173084459650e-01,-1.071834387527133670e+00,-2.069171798310931731e-01,3.063171465885140554e-01,1.647626895993413443e-02,7.797113583724001040e-02
1.481470850865060918e-01,7.889087042677211947e-02,6.168893915304404091e-02,-9.434869160871975358e-02,-3.100373648227833234e-01,1.484223424785098555e-02,1.485153422716656291e-01,-1.638265544662677875e-01,-8.099567450482052233e-02,-1.176785276079451159e-01
6.789661037895630691e-02,4.586056234870979770e-02,-1.683072145559670052e-01,-2.189997290975996269e-01,1.199006223989762671e-01,-9.544980097692082506e-04,-3.416266214657591171e-01,3.127960057259316362e-01,-1.211939319170491774e-01,2.231485255827028447e-01
-6.747380175880191011e-02,-2.219913178630930281e-02,7.936656087116809866e-02,1.018658941019796593e-01,-1.065310547532475997e-02,-1.889497566549850072e-01,-1.454128778768478680e-01,2.744895544192899745e-02,6.132258553964358566e-02,3.618399475856538122e-02
4.051471012388801474e-01,-1.629471041931725150e-01,7.699143628415200391e-02,-2.696727083728792662e-01,1.439004900404038285e-02,1.546864227621451426e-01,1.967722610793227675e-02,-1.882115356613945634e-01,2.958250201609590180e-01,-3.865161822334323150e-01
3.519914065593990893e-01,1.676182561414608363e-01,1.250214968888483658e-01,1.130364204861187931e-02,-5.147338836391943673e-01,-3.548993488973101445e-03,-1.558882691831894318e-01,-1.140563367684235135e-01,1.372968666891289935e-01,-1.260523622108602193e-01
1.116987967300995116e-01,1.100881708993432101e-01,2.964597215067076852e-01,3.677305922544424344e-02,-2.740905431951824456e-01,3.502639152702065051e-01,-3.390855022232052568e-02,5.433468775168595055e-01,-3.591768514851747529e-01,-7.214740155034732316e-01
2.374945220334217233e-01,-9.314472597291777178e-02,-3.956520049043367182e-01,3.510938913926519023e-01,1.894224481447858155e-01,-5.046656087518925915e-01,1.141258422929147531e-01,2.669914015586350442e-01,-1.040808016455854468e-01,-7.910174332219219173e-02
-5.668824922978679681e-02,2.652104363331613673e-02,-2.021559261395539098e-01,2.527011734295320222e-01,-1.476513827053357042e-01,4.068261377587624569e-04,1.487206294034215392e-01,-4.982111402207389794e-02,1.864861074247154693e-01,1.119604215855099921e-01
7.002652787122855271e-02,-1.002571512806170601e-01,-1.623784249712928174e-01,2.234197243132317601e-01,-1.570123096226119230e-01,3.760064115275565388e-01,1.842419394952027334e-01,-2.068169477975946025e-01,-2.196568846693599652e-03,-8.660759429583113345e-02
1.228089425998950823e-01,1.052256847625355624e-01,5.008702200577697106e-01,2.008042524834109666e-01,-2.351910936812885711e-01,-3.189893646234039926e-01,-5.227515804197058191e-01,-6.056098632123126796e-02,1.630980855465317264e-02,1.648886112355159583e-01
-6.054935437908735146e-02,1.746642034850905134e-01,-2.312432618999943693e-02,2.671847960031913938e-01,8.534301408216569129e-01,-4.592607744909609768e-01,-1.813940639642452890e-01,2.017446370758620988e-01,-3.251076406944942154e-01,-4.649174974732164789e-01
3.275548823379227925e-01,-8.382960645564747904e-02,-1.174228201689214851e-01,-9.627882398497185357e-02,-3.211944020474951644e-01,6.028054378685275549e-03,1.265965639175653523e-01,-3.284721594348812279e-01,1.506785245686755037e-01,1.975891084869244724e-02
-2.374355308756337934e-01,-4.175093565176429267e-01,-1.575170660723014537e-01,5.953078530510391708e-01,4.372531014472481048e-01,5.444189040273249569e-01,-1.679247536004934149e-01,-2.730610017575453297e-01,-7.356683833712824860e-01,8.212750683454702605e-01
-6.397582902030413132e-02,7.911303068538247385e-02,9.733721832396430296e-02,3.141783012513753026e-01,-1.847299481791149223e-01,1.160675150196977673e-01,-1.871622541729439648e-01,3.009985960913771352e-01,-3.802544114521377305e-01,-9.057483636247756764e-02
-5.877648689884862332e-02,-3.154784050425799569e-01,-7.215683441732062553e-01,1.358247682113030985e-01,5.040850335855845410e-02,3.095248264473928201e-01,8.557967465875485069e-02,2.228225349551156420e-01,-5.359369494343240586e-02,2.495045764828025536e-01
-1.877689722610768885e-01,1.349193934320156163e-01,-6.460654396455769999e-02,-9.137292825511715844e-01,3.655868816342309757e-01,2.959550817568216696e-01,7.236956566240204669e-02,-9.575568330876560452e-02,2.585184539650908775e-01,2.864275405759174609e-01
5.560894292572805819e-02,2.670001269872367480e-02,3.280851548490512637e-01,1.900859062315747861e-01,-2.967364450502571471e-01,2.159896227018751336e-01,-5.960487992482951247e-01,-4.459802736733237821e-02,2.778643991811976383e-02,-1.717635883071565728e-01
2.836741549205444857e-01,-7.430618364097577033e-02,4.449712216263074227e-02,-1.733643743178023000e-01,-4.427777724542548698e-01,1.456404178775606018e-01,2.791279416379434664e-01,-4.023783920726826252e-02,9.702330773140104003e-02,-2.892002160159528601e-01
-2.665291006502120696e-01,-2.473800037728560997e-01,-8.175446848602524463e-02,-2.482291836070270926e-03,-2.415456015842240567e-01,1.429842295289538157e-01,1.908411116409567537e-02,2.560440667958177596e-01,3.809195377881993694e-01,4.016863923913441270e-03
-6.087972686768959585e-02,1.911301354828917262e-02,-1.220860838888647298e-01,1.675567710352285355e-01,-1.963567760094120651e-01,-6.005464194664297817e-02,-2.273959515922333030e-01,1.099182444338727277e-01,-2.241674230050584929e-02,3.045380819149712814e-01
5.134132760130941664e-01,-1.985853793639068623e-02,-7.829156359524996889e-02,-1.142583140650375306e-01,1.121667419581594133e-01,-6.644975956980206933e-01,1.813275390700909082e-02,-1.393930766558930667e-01,1.827551854253141317e-01,2.488561109617498934e-01
1.790619495668943351e-01,6.590750151130156387e-02,3.794203298171468924e-02,-2.043416763353350651e-01,-2.823077439397682631e-01,-3.506764828385866561e-01,3.126174495096343819e-01,-2.295184091297562679e-01,3.418591323772384727e-01,1.512322465104850855e-01
-7.062378646994145470e-02,-1.778262813722486790e-01,-4.196835909017071486e-01,3.074518701204199123e-01,-5.192938075481892679e-02,1.693444516068858818e-01,-2.113587114148453017e-01,2.547236049026842530e-01,-8.150902564669833261e-02,2.749162929846998837e-01
-8.270296385606344669e-02,7.589391403658053703e-02,2.471329665496509453e-01,-3.268178098343849092e-01,1.811868319802866500e-01,-1.535511231966753265e-01,7.639807139226832688e-02,4.081366976112715816e-01,-2.072705419814743211e-01,-2.896339221567475475e-01
-2.004976287736479068e-01,9.501441095789937841e-02,8.875575787949572248e-01,-1.319167157823418757e-01,2.995838421803190821e-01,7.513851821457666336e-02,-2.280693460312641641e-01,-6.058592594967861233e-03,-2.346302322924639638e-01,-6.400003286189229756e-01
-2.776316212711041689e-02,3.493168406697296779e-01,-4.309880764258297026e-01,-4.804207522882651960e-01,-1.217298068606613298e-01,9.056687014472324104e-02,8.401023374969431023e-02,-9.717600843793204601e-02,-2.669852480566598518e-01,7.094120677198072489e-01
-1.674935239098658546e-01,2.998700381991358244e-01,-5.161097201083881814e-01,-3.356363808247834202e-01,-1.741368761538069909e-01,2.609730819477582564e-01,-8.060991077625435930e-02,-3.090164677962813911e-01,2.718429518697376146e-01,4.156226973346061060e-01
-1.009026274705236148e-01,-1.486669844541397244e-02,3.096021664514356786e-01,-2.245277433234628695e-01,8.775614788184074588e-02,-6.736389301444879740e-02,-7.033263857525079259e-03,-9.666872244863972119e-02,-6.801073792370247728e-02,6.474178177247290333e-02
1.740255113374534202e-01,2.195767212439802066e-02,1.158034929804933194e-01,4.121327356823289434e-01,-3.046020870851335327e-01,-2.732941271557622342e-01,-3.149168032789685934e-01,3.619211276096685470e-01,-3.183536379148957929e-01,1.646476928050409627e-01
-3.707160460609483787e-01,-4.608970600658967576e-01,1.672165589809566089e-01,6.198249084987231816e-01,9.272406484942383176e-02,-3.005063514622688947e-01,-1.715742596402675957e-01,3.990354305846426919e-01,-2.326603066600647085e-01,2.841930384569807955e-01
2.485071948267804920e-01,-4.787951373976250258e-01,-2.396517626197924855e-01,-1.567729820729093781e-01,-5.106081801807292597e-02,1.547439132876453627e-01,1.298538683751370437e-01,2.729895920384225461e-01,-2.756400609826298864e-01,2.428870436156949641e-01
-1.172944421458620018e-01,1.164201805278107169e-02,7.878752248793109703e-02,-1.507356403999058625e-01,3.997459999187339547e-02,-2.814001262161735725e-02,1.084049996462700949e-01,-5.432404483987793298e-02,-5.073820123034353258e-02,-5.210422629616043994e-02
-1.386782250413851059e-01,1.482279054937881146e-01,2.959412162985965988e-01,-1.439076280006140185e-01,-1.330218887829992258e-01,3.584649862936906822e-02,-1.084313931024776800e-01,1.998990485953214824e-01,2.294159404148702619e-01,-4.215565003162350943e-01
-2.927629499859782380e-01,1.080690461840200234e-01,-1.799300790368104919e-01,3.914012665941181413e-02,2.677186919923171260e-01,-2.082212432581297401e-01,-2.471781202530176913e-01,-1.559501399721305581e-01,2.411129847978409901e-01,2.817832632934560433e-01
1.410468834317735454e-01,-2.342049024935188017e-01,1.392798106874607589e-01,-2.123403907799349122e-01,1.608149449661974706e-01,-2.604692842890009991e-02,4.410203638474105015e-01,-1.268300312577873845e-01,6.804712776973483902e-03,-3.998468842687897401e-02
7.457078770432745696e-02,1.431785228970840901e-02,2.990710593334751019e-02,6.518587197769105945e-02,-7.813206877340551637e-01,9.080101355536124297e-02,2.608140793375032240e-01,8.125456806951404654e-02,-6.265345430852609088e-02,8.478125547553258534e-02
-1.231270750806686132e-01,-1.080187852044812713e-01,-1.693710290324362266e-01,-6.097933344904968300e-02,-2.614077991679729374e-02,3.372626007872137621e-01,-1.669904083201788902e-01,4.045967346084612393e-01,-2.331425462974840435e-01,2.111116658600737384e-01
-8.344456650204526427e-02,-1.151863445998893981e-01,1.132474523659896121e-01,3.425197777679421240e-01,-3.085102973557367692e-02,7.081892791001145882e-02,2.285254631066304179e-02,-5.422443285829887938e-02,2.698285584015717303e-02,-8.180441061690066906e-01
-2.075667942257006238e-01,-2.455636216365687102e-02,-4.949673170908509556e-01,3.012836497439392788e-02,1.924547980974332106e-01,2.931791893953095141e-01,-4.082405764101360024e-02,-1.151464392094008055e-01,2.307881707302251173e-01,-5.961575071109478235e-02
-8.103653503440899630e-02,-7.589029412897509153e-02,7.780660914238636261e-01,-1.247144359072680231e-01,-4.179223428064026691e-01,1.034330542270788800e-01,6.871731373420318922e-01,1.965172827450035464e-01,-4.017558923539225058e-01,-5.970397062374096508e-01
-3.415703168478148588e-02,-9.364657860912341258e-02,9.687673934855936531e-02,-2.747481818985242352e-02,-3.320934543650667092e-01,2.294037739919062568e-01,-5.016934217270548058e-02,9.770693826513403291e-02,-1.857689416546292605e-01,2.893470974866135248e-01
1.527224596389108353e-02,-5.868740271128573827e-02,7.194461714741783205e-03,1.024047317815451608e-01,-1.037819053259947527e-01,3.361199321041337673e-01,-9.842709628240232933e-02,-1.638756608615758725e-01,8.312532053455710945e-02,-3.298749683296105933e-02
-4.110115937180194301e-01,-1.845595453185721324e-01,2.250095240794145746e-01,1.183533955461486403e-01,-4.857975513291845626e-01,4.925275313258851151e-01,-3.661784308483102823e-02,6.190240274750740124e-01,-6.743469147686946422e-04,-1.226811294720459994e-01
-6.584846751653747332e-02,-5.051104310876514125e-02,-2.901963414765653115e-01,-1.984404039945476816e-01,-2.284698982697203340e-01,5.349666650663187362e-01,5.094121475233563956e-01,2.670422611936161261e-01,1.573850111454679623e-01,7.400168208009332005e-02
6.042853776176704966e-02,5.426854151053378539e-02,2.992554387452263098e-01,-1.699631538955407029e-01,-1.564052710488204878e-01,-1.281809553085613007e-01,2.163226805035639855e-01,-5.182156713347574328e-01,-4.352177901159505480e-02,1.808876024658391535e-01
1.701649577606283437e-01,4.237102609107054052e-01,1.305124186990046509e-01,7.057258956557196927e-02,4.421555788176020907e-01,-2.971774171321899249e-01,-3.969701681917799374e-01,2.415316530450980007e-02,-2.554618047523235513e-02,-2.389000054284680374e-01
-8.952071209115826378e-02,-3.182401867323505495e-01,4.638001996831218193e-02,3.475280692603634203e-02,3.859430185813080005e-02,2.822386119554615158e-01,-1.527532680232498649e-02,-1.512915894068210532e-01,1.453643976911312696e-01,-4.793850874130622941e-02
7.399771862204410078e-02,4.261930910153766301e-03,7.549158189052819490e-02,2.891587387966294484e-02,-1.329743138766067700e-01,-1.576998310774870016e-01,3.521860379050915230e-02,-4.751298052183373921e-02,2.177962617305878590e-02,2.799555924388202194e-02
1.583579094964275291e-01,-2.558387187335501300e-01,2.005603929154904305e-02,-3.482328230308857908e-02,-1.344513167589383995e-01,1.804370136180999118e-01,9.978188423342422564e-02,2.553642917323266093e-01,-3.868110132037982235e-02,-7.309810957508194873e-02
1.305144064065242616e-02,1.483817806370715808e-02,-7.473822078979942829e-02,1.790464661841688898e-01,-9.664199477856107168e-02,1.250006462806524388e-01,-1.591751916560004421e-01,1.144909830095522801e-01,-4.248761019436107789e-02,-3.955768861012535706e-03
-1.765745958069589363e-03,1.875370947713266012e-01,-1.701960272472672897e-01,1.721993197662333441e-01,1.017573482123937667e-01,1.918567196409015629e-02,6.321041270938930479e-02,-3.051226330936706033e-01,-1.116075464380586330e-01,-1.323224548814501411e-01
-4.691239062590878972e-01,-2.306649514229047182e-01,-4.584546011802420606e-01,4.264572399690167992e-01,3.238900809244552592e-01,5.431134247861491016e-01,-4.559171496675609170e-01,-2.528966443725512714e-01,2.943631743745342422e-01,4.065625209378254112e-01
-1.569687082800310662e-01,2.388018907807317182e-01,-8.391303405557583306e-02,1.471913601130899474e-01,-5.669550974467339743e-02,7.580511924496413645e-02,-6.917290722831891114e-02,3.981570588457217785e-01,-2.252750009839144252e-01,-2.006498087927286733e-01
-4.926912853922067043e-02,-2.732408364821977687e-01,-6.345728434240003463e-03,1.053198033453255494e-01,-6.247184322584890120e-02,1.857164432970112855e-01,-1.466392213110752352e-01,7.233977531898756752e-02,1.464089879068927458e-01,5.653822920565119287e-02
-1.183731756100850629e-01,5.662884998539835513e-02,4.013325932638536764e-02,3.504454927872203279e-02,-5.484501608647148439e-03,-1.188327295538627384e-02,-8.872781051117739626e-02,7.853104539351307700e-01,-4.185627605637357723e-02,-5.411462105571365200e-01
-8.958449130166511176e-02,8.948172904206050382e-02,8.647089064151236570e-02,1.559374132741461472e-01,2.473569990273162197e-02,1.330336807828256529e-01,-2.296767393616212793e-01,-3.002516074222958409e-01,-1.949114026392708976e-01,2.447689414521224058e-02
1.222140189443297192e-01,-6.254659138837173615e-02,6.759116205126308730e-01,-6.027270905920214528e-01,2.676518292271622967e-01,-4.427976316484837360e-01,-1.354309166984968837e-01,-2.056784844498978082e-01,-4.203854696204781249e-02,4.808550734885140843e-01
-2.891148385127257497e-02,6.614390218565995294e-01,-5.900176681136853896e-01,1.933937055482447820e-01,1.147959762608349865e-01,2.826209300944295677e-01,-9.463058826729270345e-02,-1.335076190899894821e-01,-6.964187014655823793e-01,2.944827693487398479e-01
-1.385796940961270263e-01,1.416621153690209543e-02,-3.628159372436420144e-02,2.795552242374066965e-01,2.393435508229774245e-01,-3.861588617823055736e-01,2.214510274361960462e-01,-3.477602058021725395e-02,-7.073053610439743177e-02,-1.893054707302680162e-01
8.928812482695834551e-02,-2.771729900338105734e-01,-9.645862709332626850e-02,7.986926545916601949e-03,9.930876856869046143e-02,2.681439562278856853e-02,1.849460220514346498e-01,-1.440075551732011017e-01,1.292716939455249847e-01,-8.954911443543547844e-02
2.142670681489568241e-01,-1.330937990058022047e-01,-1.829423361526353597e-01,-2.778350463799377987e-02,-2.661873422911587572e-01,2.123983329110911145e-01,1.473816284196657611e-01,1.257094770333855305e-01,-1.272636923557613799e-02,-2.217059031125396262e-01
-4.703216698687801706e-02,-7.011956630378458379e-03,1.618582064892296057e-01,-1.901385053038452400e-01,-2.206933509855706632e-01,-1.246141923626727516e-01,3.360242324879630232e-02,8.415669995079951005e-02,5.599993939280241140e-01,-2.032052125701526712e-01
-2.618937001159429151e-02,2.635444937327073855e-01,3.145535578347843919e-01,1.822117750632969158e-01,-3.134314040464672435e-01,3.335541449839438677e-01,-2.432384625282237034e-01,-4.160675896162358695e-02,-3.638834213779645332e-01,-1.893174002954843005e-01
-2.770662274302016122e-03,5.268893694201309472e-03,-1.346189941347743502e-01,-6.978123638799046402e-01,2.194400774822500427e-02,2.324845264244084775e-01,-2.751788033850637305e-01,2.443958870554356899e-01,4.817881764723125904e-01,-7.954821796623665064e-02
4.427851862958767648e-02,6.956083989273765811e-01,-7.290577857122559902e-01,-1.282240596945147804e-01,-2.888397860560538988e-02,7.190817052294071199e-02,-8.128130273323330018e-03,2.405816672869010575e-01,-4.270498376088013304e-01,1.545562221741516307e-01
-6.305453156174826990e-02,7.528310006900396090e-02,-3.726731953574227447e-03,-2.240339825012840902e-02,-1.068032564831206815e-01,-2.875627406042939593e-02,-9.651380549308796741e-02,-2.231807043714847255e-02,3.586733730237216811e-02,-1.133604801114809352e-01
-4.467610129034778332e-02,3.818200057056005126e-02,-3.774737369434169598e-01,8.973038453876665266e-02,2.647331019308933331e-01,-1.523129503946406005e-01,-2.286408308770507269e-01,9.067306637161733074e-02,-2.499214267511107868e-01,2.539818243285539290e-01
2.290090218710905557e-03,-4.143118074707269338e-02,-8.312243127262526621e-02,3.049907502521528868e-03,-1.889337260908090102e-03,-1.193300015231257560e-01,3.830012473534694789e-02,2.019633369538369194e-02,1.934244350170652160e-01,2.156395544754433902e-01
-2.388411763977055791e-01,1.630782236551603093e-01,-4.554272598092416052e-02,3.307953769094358620e-02,7.551333919807382555e-01,-2.101903046213673132e-01,-9.109006321349549795e-02,2.164827961966725722e-01,-6.314044387632605781e-02,-4.064536071025895425e-01
1.582425873045360983e-03,2.765116267526710470e-01,-1.323519164556372918e-01,-1.554938553379634492e-01,3.524208361546857793e-01,-1.046894131819276277e-02,-1.827297852422136715e-01,2.973136548199969975e-01,-4.256551909520625565e-01,1.570621720115558950e-01
-1.691733020435378376e-01,-1.120773309084253239e-01,-1.833453356911778631e-01,2.030813672411413764e-02,3.204313808424839038e-01,-9.673939658623155469e-03,2.793687487280723802e-01,-2.509130962377041363e-01,-7.836377568632273138e-02,-2.457298250267566861e-02
5.232197942236318372e-02,1.323864366459384101e-01,1.657135493660102654e-01,1.836388673211981348e-01,-1.767072863019194529e-01,-9.780203009098160927e-02,5.664601488125577122e-02,-3.806160701488989218e-01,2.828493201797048773e-01,-5.916936876000121748e-01
1.441195870175787652e-01,-7.080478298821937799e-02,1.400178455369061326e-01,-5.498295352884829262e-02,-1.586688812003403670e-01,-3.157266952885914857e-02,1.418615836559691812e-01,-5.610918380202798428e-01,1.826255306159520753e-01,4.651561100782998504e-03
-6.221935242362845730e-02,1.823720452571080675e-01,1.616498851292605676e-01,2.547324178772833458e-02,-5.030200271752165858e-02,1.622587690639806235e-01,-1.585999732801758044e-01,3.856245711252750258e-02,-1.997941879143923516e-01,1.372661222095313271e-01
-1.721440839466401584e-01,6.898706177569651210e-01,1.109174453130290644e-01,-4.797857922984408163e-01,-1.947715103605613188e-02,3.744336285295998823e-01,-2.285509673020950927e-01,1.356665651376661175e-01,-3.010539183652806705e-01,-2.147977786182421744e-01
4.305456788850350533e-03,1.362395942576731522e-02,1.228336727274830370e-01,1.631710201912069461e-02,4.553818179795985494e-02,-1.755870855297484226e-02,-7.998690184584245078e-02,-6.285906241118821569e-02,-7.950806789349079695e-02,-3.161798839440061598e-02
-7.631665783402258318e-02,-1.237844164279375686e-01,1.002382202083942908e-01,-2.613661163181781877e-01,1.600051845997585986e-01,1.046452767867261935e-01,1.649281654079765846e-01,-1.098910406090733843e-01,2.404661757375164133e-01,-6.961148952196076489e-02
-2.984532014696813368e-02,1.474437189158524508e-01,-2.031487648148651015e-01,1.160175816171150065e-01,-8.032392528938821219e-02,1.262554770311787311e-01,1.128566504880726684e-01,2.706576278135109370e-01,-2.769785012859769108e-03,-4.487840118608149020e-01
3.561449668825141662e-02,-9.773658796213988142e-02,-1.652563188838026831e-01,4.142567840976258027e-03,2.492111646758746039e-04,-2.563219296533609734e-02,3.450165432836736074e-02,-4.652287546010984431e-02,-5.118972550280679462e-02,-1.227851670783062371e-01
2.049335740862727809e-02,-3.112740416649700248e-01,1.971838691998062387e-01,1.838669178862602505e-01,-1.163212418479740023e-01,-1.715361309479558338e-01,-1.043500278797957481e-01,-1.187516813135718191e-01,2.790107431068269972e-02,9.145032248615560244e-02
1.136867652108065896e-01,1.053035700788074597e-01,-1.321810794554565960e-01,4.434768669368112370e-02,-4.317058663743738589e-01,4.712371642382666426e-02,-3.575981343334270202e-01,-1.012919189833129570e-02,1.161787851106762248e-01,1.556133766536035579e-01
3.617355706418938222e-01,-4.006362849455351316e-02,2.062569737059190625e-02,-2.243598930431357774e-02,-2.058127784721308362e-01,-6.698659924484362538e-01,2.342612592660937021e-01,1.921261835660931783e-01,-2.640091971964201312e-01,1.392632448989566119e-01
2.739213000744641913e-01,-3.340009377403773683e-01,4.539854160946534822e-01,-2.014982070827441851e-01,1.158286689612004622e-01,1.640688837042443005e-01,-2.687641018894733058e-01,3.105485746087657262e-01,-1.622971145822766081e-01,-6.569321802337978189e-02
8.640828176951576359e-03,-1.550824520351029023e-01,-2.416977304865856324e-01,1.574191761058420791e-01,-2.109643584839122898e-01,4.034286475396012817e-01,6.637004471290518237e-02,-1.484444718159116938e-02,3.877766698208580110e-01,-3.515475850495921040e-01
-3.565521455109472299e-02,2.059364259057075985e-01,-3.028784596200184698e-01,1.327669653198620403e-01,1.917999548469628279e-01,1.998146808611142022e-01,-1.936161315402292471e-01,-1.862027799463016053e-02,6.849755268525917207e-02,-1.872567109786414941e-01
1.651084060256086394e-01,-2.548796072619016750e-01,2.040387491264587516e-01,4.050528211217548913e-01,-2.273669489857113937e-02,-1.005191596036957846e-01,9.579482418134088739e-02,1.700325475500615302e-01,-6.596181457997575270e-01,-3.118646635946845103e-01
3.895440888163444193e-02,-1.115832831189762647e-01,1.190330641832539477e-01,-2.901310823146818207e-01,-1.512470765555343766e-01,2.505197943842180086e-01,1.043077150379082413e-01,-4.443520351304811739e-02,1.040356163820122526e-01,9.347728874994051806e-02
8.041851179025821805e-02,-2.331015830909990982e-01,-8.258977693532153219e-02,-3.239878910169594617e-01,1.503198091012709625e-01,-9.621959935213611481e-02,6.449726988110790482e-02,3.638075495705081486e-01,-1.427200946632635192e-01,2.512700577614129238e-01
3.296857876892069633e-02,-9.525574277003855117e-02,-3.643737205458911776e-01,-1.965771345278489735e-01,-1.912856756676160619e-01,1.789268600149840627e-01,-2.816659966527027686e-02,9.321076847747761240e-02,4.534626326619188852e-01,-8.036294663259564708e-02
2.744976363065364938e-02,-6.986711788063244832e-02,5.358927693671119430e-01,-3.194693954942623426e-02,-3.038094377614006247e-01,1.975871579512954862e-02,-2.056211202991929388e-01,3.047580905445093635e-01,-2.540370875698372277e-01,-1.444050399676422292e-01
-1.901227556328923332e-02,5.238470279927774920e-01,-3.665388798760986500e-02,-7.464369793493418059e-02,3.507632191134571475e-01,-2.385996847830194889e-01,-2.214324569535093545e-01,-8.974379321644546104e-02,-4.977450718366905891e-01,2.206686927009161858e-01
3.805660472328364352e-01,-2.675816828691442509e-02,1.463483686112606041e-01,7.289625710831265648e-02,-7.409381355012711889e-01,1.125537633428956713e-01,-1.565051323237200420e-01,5.597585436513380364e-01,3.047687095344756361e-02,-1.554068726396775346e-01
1.270899344518491014e-01,-4.366786527069889401e-02,1.132018782077101465e-01,4.403758713519083656e-01,-9.281683136139196044e-02,-2.684982758098256039e-01,1.076753809963696545e-01,-1.938759487094038614e-01,-1.558804307547122237e-01,4.751788818575543305e-02
-1.964009350810126675e-01,-2.745561896647558675e-01,-3.153332574358446577e-02,-8.955722124610016044e-02,6.829403004433888535e-02,2.265060188603122970e-01,7.839831848813096082e-02,-1.022612442373158903e-01,3.050207832290324217e-01,3.640264889460279735e-02
-4.048533790136758514e-01,5.335378595928303574e-02,-4.449640995707225821e-01,4.498921209270446697e-01,2.835553575100347445e-01,1.729322755820500712e-01,-3.672951063746947575e-01,7.543043164058627070e-02,-8.256719888218249205e-04,-1.022373375977066699e-02
3.014581558646119500e-02,1.170566921950372437e-02,1.505636586177933056e-01,3.766892811737438396e-01,-1.487583590044740667e-01,2.849846422089988840e-01,3.474172178447080817e-01,-3.327946198867521299e-01,-3.461917627051368518e-01,-2.748946733637521248e-02
1.517257590145420221e-01,-2.174137208435156232e-01,4.531509886230260242e-02,1.423032415259611050e-01,1.239733891765175226e-02,1.017617300160144206e-01,2.161094226900886831e-02,-8.288428215624846218e-02,1.153396092839456682e-01,-1.346592751010685929e-01
-3.142184199162003089e-01,1.093802445528110900e-01,-1.183668717526615982e-01,6.748596601046943921e-02,1.959331430685954945e-01,2.823260016703518782e-01,-3.990627273698733046e-01,2.994519800215120764e-01,-2.169100733181865415e-01,9.751682188267656037e-02
-3.469142640488512841e-01,1.904398511527536086e-01,3.283111831312453543e-01,-2.358989038587150644e-01,-3.445084381157468845e-01,4.361493624128424673e-01,-1.013650776953460703e-01,-2.318800517231881242e-01,1.642932908057374505e-02,2.886189846906672130e-01
1.017860419634567665e-01,-2.716207569141685929e-01,1.679668444420209794e-01,-4.316978961341903093e-02,9.692703094396186436e-02,-4.492061029903678115e-02,1.040965091157126376e-01,-2.108871479698519180e-01,6.731924265577289568e-02,2.061875098805147910e-02
2.560762034500847079e-02,-1.213834611669300234e-01,8.283056816147392476e-02,-6.171020486870226578e-03,3.693405089140057163e-01,-3.895890932336981693e-01,4.072501125082476220e-02,2.907261696562570830e-01,1.625264519324070688e-03,-2.257592335973867270e-01
3.971831345227828242e-02,-1.741905991614769722e-01,-9.967181698274557577e-02,1.238992509378305518e-01,1.428859591525535044e-01,-1.560031677532353056e-01,-3.230034376046216765e-02,9.828941843958989566e-02,7.035704539496930032e-02,1.331483798553622644e-01
-2.842014962738323991e-01,5.357531012375322393e-02,1.818333233538563798e-01,-5.381066901540410008e-01,-4.132298168639272906e-02,-3.995860308255205773e-01,4.423115044351380587e-01,4.347477018379979907e-01,-5.454384741543044646e-02,-8.099127047884177588e-02
-4.167285447958749001e-01,1.329687105838263106e-01,8.443243636201649971e-02,1.731285431778191441e-01,-1.929224938873516995e-02,3.793029566597381774e-01,-2.259462622342262861e-01,-1.486671885484542321e-01,2.074233801389240572e-01,-4.140357626965981974e-02
1.522637885176299777e-01,-1.195606754389833687e-01,-4.094033101205223346e-01,1.263123652156402932e-01,-2.961191537475955093e-01,3.220339285825170594e-01,4.866556716512457359e-02,-6.887412045808940717e-03,7.210787693596656944e-02,1.850463506269185363e-02
-5.266023775685851199e-02,-1.868840572062635819e-01,7.663074405041805405e-03,-1.587619801410353748e-01,-5.047120639083114702e-01,5.603029677900469574e-01,-3.593184819280485082e-02,1.077656034025155710e-02,1.208863880830375881e-01,3.267285268606683335e-01
-1.257128524871223840e-01,1.945075573898373544e-01,-5.373866327895256145e-02,5.259993841083328986e-02,3.383701542421862496e-01,-1.211358508907200288e-01,1.289187414009554111e-01,1.075309234410301434e-01,-1.770829845245543988e-01,-4.664692448508797051e-01
7.388674042604474745e-02,4.325424470332568661e-02,9.991220186035351669e-02,1.752874307599069370e-01,-1.126016099447622459e-01,-8.326023394102524677e-02,-2.256378519029750007e-01,4.855082128703352290e-02,2.369133563662104147e-01,-2.109976421552292938e-02
5.274197785191080991e-03,-8.628005308778106952e-02,-4.694336517248023921e-01,1.722458784395969611e-01,-4.861305774485600306e-01,7.625972207394297042e-01,1.261148687839517835e-01,-1.331253966525309806e-01,-1.114088312586785506e-01,2.411871895229536766e-01
4.500566348226429231e-02,-1.108931401442598969e-01,-2.331887619088894581e-02,3.719152241174259466e-01,-9.486294949147369704e-02,1.366923634998181980e-01,-7.902773341069925517e-02,-1.257031070827670793e-01,-4.001750519806167028e-01,1.817188159878906917e-01
9.847854646008284696e-02,1.588374690298943459e-01,3.810735317639209890e-02,-5.735483997540312684e-01,1.334913355390572043e-01,-8.494441577418770928e-02,1.528113024781592166e-01,5.275775251405871724e-02,2.453196417659701811e-01,9.681078906008111495e-02
-2.664770703574830812e-01,3.663669256739958413e-02,-8.003009149978335124e-02,7.349661393814201082e-02,-1.864721110794642089e-01,-8.870133733317560332e-02,-1.329927919195600938e-01,3.089007156121862524e-02,1.352580679865866553e-01,2.283638364633858997e-01
-7.428657938380225922e-02,-5.825491330798222844e-02,6.228634622653259623e-01,-4.145757138315762091e-01,-1.594043408188985655e-01,1.598409247434726399e-01,-3.295301406343186801e-01,3.256802557441589863e-01,-3.800836511925879679e-01,5.019383579908420767e-01
1.209415354376627318e-02,1.921807390417891448e-01,-2.230170452984778506e-01,-3.952716393334974043e-01,-2.795700198027532557e-01,8.167466832972762880e-01,4.666815163398391197e-02,-1.090926830730431646e-01,-4.123621253454834990e-01,3.359572450508586661e-01
2.198547951528527500e-01,3.065076904860905560e-02,2.152977087697130823e-02,-5.465609451311760347e-01,2.728525061087464301e-02,3.084707433691317568e-03,6.115296924151002352e-03,1.833082047609246312e-01,-2.992760357713299402e-01,2.208009693054162892e-01
3.912776597939927603e-01,1.146129082154779405e-01,-3.067191339087039711e-02,6.158043813633778257e-02,-2.015467280704440756e-01,-3.387092660675844469e-01,1.297555492401961386e-01,6.349321435596808616e-01,-6.510889817432029547e-01,1.060231847828989049e-01
-2.385301069201406221e-01,8.785123336882359746e-02,2.669498737290906809e-01,1.221042556138072360e-01,1.591478818578061921e-02,1.568420434159059906e-01,2.109606677063938229e-01,-7.142966308849270363e-02,9.903346590501805810e-04,-5.823941232522650280e-01
-6.319742102527792227e-02,-2.066037605655554055e-01,1.414524061325186932e-01,1.301115035844145895e-01,1.483678621160843814e-01,2.151023925645678958e-01,-2.727589932494294267e-01,-3.571524391496758710e-01,-1.202510018840475398e-02,1.306258823229258792e-01
4.298649617796389960e-02,3.883610666241751191e-02,-4.730354337529897313e-01,-3.186073639201585928e-01,5.739565098354384443e-01,2.712780341428673303e-01,1.570446897844167411e-01,1.708825068272499526e-01,4.029605516002970206e-02,-5.686224804315669346e-01
3.345614919405111298e-02,3.152400489853676713e-02,-3.459799822312126932e-02,3.843600397965812876e-01,-1.557937116663504207e-01,3.658838671523680086e-02,-5.566876371536702006e-01,3.004217891979081914e-02,1.866990862591910438e-01,1.244029629447314933e-01
-5.685852608819090548e-02,1.019987764955727766e-01,-1.430167608481892894e-02,3.950471470735985591e-01,-1.162030147077234565e-01,-5.072237641987691059e-02,-5.182185275304719285e-01,3.172600645595387570e-01,-8.302090840794176807e-02,-1.325938055110594815e-01
-2.574519644409278135e-02,-1.396056593698400683e-01,1.289382366859734286e-01,-3.344990922300630082e-02,4.283622750723882315e-03,-3.183471956718552653e-01,4.038431212279474103e-01,3.592318981373026077e-01,-1.645750466669375078e-01,-2.485711538019994005e-01
-2.337315536864796039e-01,-1.788797142128517592e-01,1.673270935970748163e-01,4.760426628767520651e-01,2.287827174874210445e-01,-7.954538986711018334e-02,-2.419566077915548397e-01,-1.777987894381035938e-01,1.480127864364071295e-02,-7.015189672869002503e-03
1.449443597058176769e-01,-8.941195887406373777e-02,-9.230488147128315668e-02,-8.897994001345285731e-02,3.171338530178632320e-01,-4.615428366461469395e-02,-9.508734484253567043e-02,-1.988925060180169735e-01,-1.857162107416357177e-01,2.846310239267841879e-01
-3.529589051987619408e-01,-2.228518085720627429e-01,-2.124394153794335049e-01,1.803891096144242534e-01,1.709773406578088129e-01,1.261883835791426101e-01,-1.712208783537000900e-01,2.553443984501313491e-01,3.222305896869773201e-01,2.914707777106930742e-01
2.330940189401282947e-02,-2.281994795556583078e-01,-3.528783108444256272e-02,3.025353939110115298e-01,-7.210949675392143432e-02,1.668327791134652793e-01,-2.400920884063286742e-01,-2.297576245072380507e-01,4.035566565482450185e-01,-2.023590274576728965e-01
-1.312473011115924126e-01,2.564559524838432025e-02,2.152839148702239136e-01,-4.254723217256736190e-01,-1.025015603644679058e-01,1.222496677285843242e-01,-6.696314679426042249e-02,-1.818242679776750081e-01,4.690465119014752826e-01,1.513858247886128161e-01
6.303832646092670522e-02,-1.034213829392574835e-01,9.053997549627328112e-02,-1.154573823955357681e-01,1.578989269385344674e-02,-2.313923404078216672e-01,-2.132672538411685137e-01,6.499006934915209366e-02,9.396931970602802331e-02,2.676652727931978504e-01
-4.754742907698184667e-02,2.441245267552108467e-01,7.052745447219215674e-03,-3.464109931239934825e-01,3.771161544926735637e-02,4.326715833352817175e-01,2.739508507477939614e-01,-4.667052705262110524e-02,2.466535317402857030e-01,-8.479745557453551852e-01
-3.071369381056284209e-01,-1.513162178743699682e-01,1.030548001919538159e-01,1.506623412850401356e-01,4.249489402807204302e-02,-1.261427697231989331e-01,-5.155505261373081183e-01,4.845812051601559867e-02,3.018800518473645500e-01,3.861764566398587228e-01
-2.066728227173738885e-01,2.706850043212799539e-01,1.859232066819019868e-01,5.098861924084008290e-01,5.141340571199650572e-02,-4.286927456316972362e-01,-1.996468015657606732e-01,2.048128784576528638e-01,-1.720565377239131055e-01,-1.558628784155655922e-01
-4.484597876243277825e-02,2.607824553125857037e-01,-1.747039478266727008e-01,9.801876375948338771e-02,6.247972102755075530e-02,-1.896509231134588802e-01,1.114366471654783530e-01,-3.775472902338680714e-02,-1.512671200133259009e-01,3.056681462569347738e-02
1.041690680604706459e-01,8.095977352985572750e-02,4.346065599176158201e-01,-2.265897357683543389e-01,9.818742592549356552e-02,-2.007781763093242355e-01,3.388687196732578788e-01,1.057819264305735335e-01,-3.299231665074620623e-01,-2.246041292692864122e-01
1.095056895489266713e-01,-2.443607378902757088e-01,-4.029391456093043833e-01,2.423833020721130604e-01,-1.178905146346005961e-01,1.282311769568121596e-01,-1.300545125053487183e-01,8.447067395113182567e-03,1.343908588347688671e-01,-1.008618115086602068e-02
-1.696947089283493693e-01,-1.590405296001746321e-02,-2.964774850927841543e-01,3.434820240542706404e-01,1.156924090010079814e-01,5.251712361539538632e-02,3.633194709959099988e-01,-2.677639609797992648e-01,-8.360116077284171499e-02,-7.528332897113504396e-02
2.999019484815733105e-01,-1.521398574784881275e-01,-3.299717260031679450e-02,5.111067029427764433e-03,-4.057891923351930052e-01,5.947954638650942982e-02,1.042070804892322594e-01,-1.535205586636302355e-01,9.846486453544996131e-02,1.108699530737778105e-01
2.632802597989421511e-01,-1.748628646965530165e-01,1.947765170725151429e-01,3.087846451399188230e-01,-1.840862577959533342e-01,2.078536098051278203e-01,2.588961180337141441e-02,-4.842911605655171314e-01,3.189552504550682288e-01,-9.691195627813274649e-02
1.653521655410882529e-01,-1.191929360724783421e-01,5.907301735555842148e-01,-8.255500000732511612e-02,-1.545516702213995119e-01,4.598063548343475637e-01,-2.420432150570307195e-01,-1.554388549419515875e-01,-5.643481560266669916e-01,-2.974681945402649682e-03
3.173896432716506455e-01,4.917999857912973977e-02,-1.161123830485735614e-01,-2.551788875700540249e-01,9.673371961843328648e-02,-1.204559206384797077e-01,-2.372798066582724186e-01,8.691014108301090002e-02,-7.037574839871869881e-02,2.476232647188892078e-01
-5.922600782100194416e-02,1.340778248940649280e-03,-1.416272662894590972e-02,-2.994757888265576207e-01,-9.113966465202901846e-04,-1.191740474265351180e-01,-1.433270886667643018e-01,-1.237044007820215091e-01,6.636362444579836650e-02,3.238603050261618654e-01
8.873722126493212292e-02,1.148042039568231421e-01,1.694554974364328170e-01,7.443778675720014171e-02,2.116990839722342199e-02,-6.686585176024152644e-02,6.659931244154197738e-02,1.520061842896558157e-01,-1.841004182408290113e-01,-3.977585225566793725e-01
4.613427531055046549e-01,7.044863345726802561e-02,5.165596237763618592e-02,-2.845589368733814073e-01,1.845703159375296776e-01,-1.620150022010682367e-01,1.068438920617039295e-01,4.680582719008655190e-02,-5.810353009868591823e-01,3.158717884032106737e-01
-3.128903316298268372e-02,7.275676340892976712e-02,-1.132159594627561161e-01,5.424124127745952872e-01,-4.847471723120124754e-01,6.309100696382219375e-01,-1.122920204942349232e-01,9.082138078355118634e-04,-5.515367481556816553e-01,1.069307550725631523e-01
2.214609798958210030e-01,-4.564412133112779046e-01,-1.041152185732011626e-01,3.765455246388286215e-01,-3.070407624005918601e-01,-1.452007875817788451e-01,2.545030816723402589e-01,-8.571899010319473933e-02,9.216971134691132050e-02,1.034266647656858357e-01
-1.512657116028331972e-01,-4.409220744005290515e-02,-1.335758760970149894e-01,-1.248770289636683406e-01,1.327811394524076039e-01,-1.424679517330103284e-01,4.515656460543365086e-02,9.739999092016266014e-02,1.093024762625018909e-01,1.515860953796377419e-01
-1.616695536641774011e-01,3.891676716461108798e-01,-2.059890045381176232e-02,-2.159943247116556664e-01,3.346720423923993937e-01,1.086252482098898527e-02,-1.214571766411402624e-02,-1.945547269624155629e-03,2.034950461405235222e-01,-3.345522336169194366e-01
1.708408115878804964e-02,-1.005281842394150221e-01,2.964542201421783638e-02,-1.771629972287999955e-01,8.935649369989352026e-03,7.479930663329520391e-02,3.898669081488342208e-02,-2.414770090007755388e-01,2.770298371605335319e-01,-3.765725538064473160e-02
-2.170884209677386989e-01,2.660805429590877846e-01,-3.562220021872308101e-02,-5.018361036982364916e-03,-4.010440808587801415e-02,-1.084930076523719367e-01,1.143709719804742314e-01,-3.120834159395911578e-01,1.577148068128233493e-01,3.859409736301315508e-02
1.248138525090751599e-01,-3.370714618771950000e-01,6.536639180144131478e-01,6.577516809747908921e-02,-4.112359055413076780e-01,-9.361084331115314405e-02,-3.165076980260966288e-01,3.101041608752395096e-01,-1.531991993152858056e-01,-6.225525690280266783e-02
-4.841516471656696907e-02,2.722964453585828837e-01,-1.711027648109988974e-01,5.692487009033136980e-01,-2.501494717092257458e-01,5.733587229407852703e-01,6.350678049298873196e-02,-4.733583613091101316e-01,-4.377476256315350200e-01,-1.859282727171387151e-01
-1.897263727892570251e-01,4.899347307012337505e-02,1.950546232896913090e-01,6.830407453136870810e-01,2.876174041414031324e-02,-4.905666755697080106e-01,-2.412075875860799357e-01,-2.860225728064035855e-01,1.589408015139855135e-02,1.775092087672242580e-01
-1.275720880165156501e-01,2.316576570897754470e-02,-7.499190307392272770e-02,1.542167022753456462e-01,-6.318754275278964938e-02,9.926335291539727101e-02,-1.326951606707200415e-01,-9.025161316095972608e-03,-1.083103148741875327e-01,5.082523876105545790e-01
1.330462256752624473e-01,-1.168049676938884805e-02,-1.094414601813728377e-01,2.466922039540281608e-01,3.190930226510305980e-03,-1.994237349875208412e-02,4.775280554861160293e-02,-2.137983952194451032e-01,2.843027727617680744e-01,-1.374137616309218102e-01
-3.189396029542117539e-01,1.878998386670115497e-02,-1.008635936502343677e-01,3.675495031123290901e-01,8.434675665851955328e-02,-1.411191836616862705e-01,-1.217479108623482631e-01,-1.672111618868940275e-01,4.096490627362581877e-02,2.438615767548165669e-01
2.054861988939065409e-01,1.380762588674019214e-02,2.759059544535021335e-01,-5.130867452852807403e-02,-6.667016574217369262e-01,-4.060564153934268124e-03,-5.891759368693771232e-02,-9.727477102201743941e-02,1.108201730510845195e-01,2.222865202944957208e-01
1.213889832410829650e-01,-5.386725152599009664e-02,-1.560449317649120413e-02,-1.860411273321910253e-01,3.879464123394116282e-02,1.802739902486295565e-01,-1.702666446141017365e-01,-2.042783666694319156e-01,4.192797000244712080e-02,1.580040371431372104e-01
-8.346933559280073078e-02,5.000262807066820601e-04,1.093137736313618824e-01,-3.141131117848729865e-02,2.250057565504952339e-01,-1.784340505185401382e-01,-1.378783469825758667e-01,7.268259861907133343e-03,1.251751476332510771e-01,-3.931217085930658467e-02
1.774334743678288029e-01,-2.526670004560878091e-01,-6.933134979094110473e-02,5.302796358583466291e-02,1.538992840236283188e-01,9.068390666047014548e-02,6.765708293232287895e-03,8.473277992156922137e-03,1.454992501745244471e-01,-7.554140041634198333e-02
1.005498164492465707e-01,1.495261081538142300e-01,4.609226478024556206e-01,1.394931052236825231e-01,-2.792975353319178122e-01,-2.185141443476037171e-01,-1.418451342891466349e-01,3.453802410216625929e-01,-3.709299820181709562e-01,-4.514898774079717514e-02
-1.223247691277997706e-01,-8.903777037722309523e-03,-2.275118550648374816e-01,-2.427350173417660850e-01,7.358470943298038580e-02,5.507329790851813733e-01,1.736663948854783590e-01,1.498403166105491124e-01,-3.483040546992036135e-02,-2.374376093429181878e-01
1.671036681007299352e-01,4.096324900567798188e-01,-4.262362147982004523e-02,-2.848879009661343664e-01,-1.028146896549523154e-01,-1.113905288607980743e-01,4.938222333475738440e-02,-2.476967398786463978e-02,1.984684941790537671e-02,9.414508356648286502e-02
5.841809386824631939e-02,-3.222217492023473073e-01,2.752247573469125963e-01,-1.198026586230063403e-02,7.750884293809677528e-02,-2.009896707596757759e-01,-1.235374140451245412e-01,1.852971785450952535e-01,1.512560875199576993e-01,-7.493179833612911844e-02
-5.686307122286601290e-01,2.745970546598905937e-01,1.179730711551255917e-01,1.364170565391875645e-01,-3.295165642761675451e-01,6.091813613918663217e-02,-1.086122475420164685e-01,1.616881327091517981e-02,2.222898484871010660e-01,1.225485975295981106e-01
-5.126717331606860800e-02,1.041708217613857984e-01,-1.771885477586536417e-01,-4.157956936028967682e-02,5.727323902916683362e-01,2.179337092467977244e-01,5.986247109596768562e-02,-2.001624218064862459e-02,-1.745472853103801347e-01,-4.552021256437878138e-01
1.649595387928517454e-01,-2.816540223660468634e-01,3.011766957949355613e-04,6.331224801327817175e-02,9.878620638588993252e-02,8.424984238480248688e-02,1.406589333986958124e-01,-4.075759188044071890e-01,2.001333543465574627e-01,-8.247451560405685833e-02
1.291486447122044412e-01,-2.599216733293759907e-01,-3.554413721841627183e-01,-2.009254124031034650e-01,-1.141967318040591761e-01,-6.838718011599942415e-02,1.635309083091356641e-01,-1.464488868361716600e-01,2.414618742852576994e-01,3.362837192628187477e-01
-1.449881671654054127e-01,2.108902404330491309e-01,2.356381895072699462e-01,-4.298541583170638614e-01,1.775128951194248350e-01,2.758359287655529068e-01,-6.610627860291169722e-02,-1.753974338072658012e-01,1.619932668163111267e-01,-4.206018029188925977e-01
8.233967293371984714e-03,1.309121345820913884e-01,4.150321868446338325e-02,4.852859197414000070e-02,6.312615423438919238e-02,-6.148975180717566186e-02,-5.625022037835282138e-03,3.975435047747670481e-02,-2.961221501259961308e-01,-1.066147511004677112e-01
2.090820918560899189e-01,1.562427604358323507e-01,-4.261453563901123620e-01,-1.988990608903033475e-01,3.051349225002215546e-02,2.413424970537693393e-02,8.834082233123502492e-02,2.581647470686175283e-01,-1.528241807839227084e-01,-5.805126067947466439e-02
2.468646286064577200e-01,-2.880053726054261909e-01,-1.237274458640475958e-02,4.281348800657399679e-03,-1.497995543190155932e-01,1.572921729132295901e-02,7.216732276334437979e-02,-3.950651803853861832e-01,4.590720092891480975e-01,-3.676208452519105080e-02
8.457317420968406274e-02,-2.898624272569487459e-02,-5.539353630350066227e-02,6.123777949253597641e-02,-4.255688254571565049e-02,-1.001678971664794748e-01,-3.512943199973514452e-02,-9.211347083413208570e-02,8.986611005453429279e-02,-2.082230899322825429e-02
-6.567662571123305051e-03,-2.078755922290217439e-01,4.045836097132136655e-01,-1.278937240398831110e-01,-1.533913585575252259e-01,-6.011327217633725267e-02,-8.545273929878281771e-02,4.221965565811055393e-02,2.130893699195872126e-01,-1.691947347870274973e-03
1.578395470076235721e-02,2.994137596187204653e-01,-3.375330732996635608e-02,-4.190137571870656275e-01,3.311469934821579808e-01,-1.884066619403632903e-01,-2.837657341114070003e-02,9.964062380916852146e-02,-2.369036862707872282e-01,-5.115403376219480186e-02
3.021362511158912079e-01,-1.032095335763603960e-02,4.379647427425684691e-01,3.706138230450903032e-03,1.522892146015499826e-01,-2.758631112008583242e-02,-1.160676840138076538e-02,2.217109574050006859e-01,-8.423364486078570579e-01,1.684183023059990791e-01
-1.245132923717761839e-02,2.220548935937795981e-02,-4.252150939154796250e-01,-1.337301853339591118e-01,2.559981723435638679e-01,3.128236453533283501e-01,-5.488571626178085500e-02,-3.985882800842944773e-01,4.214928445529234624e-01,1.344845695282701203e-01
1.371736362084989558e-01,-7.787795965782847059e-03,3.569461088491181489e-01,3.552905691144395139e-01,-9.675416033409481864e-01,-3.471705502722989833e-01,-1.372833526365282164e-01,5.427951372816041120e-01,3.230187847503210863e-01,-7.359700140917721511e-02
-1.006013785983110587e-01,1.945004721805132508e-01,-2.779492941013767329e-02,-1.103387893047029916e-01,-1.682566541595097442e-01,1.413175583101667354e-01,8.919541948017990773e-02,-5.430145380917497655e-02,-9.322258631897520353e-02,2.287347201665449747e-01
9.173056274593004156e-02,-1.625021152309259753e-01,8.716118332748620454e-03,-2.082486893804882944e-01,4.871762019226128504e-01,2.427514965012259607e-01,-3.746179849050121358e-02,-4.838116042548396001e-01,8.425576393263900510e-02,-2.468654863046703535e-02
-1.458959632467957124e-01,8.885607557177314930e-02,-3.213818903071222755e-01,4.687822701850818952e-01,8.904779290589602547e-02,-2.137682875372753644e-01,1.194820133778291688e-01,-5.768883316815231858e-03,1.840964475178372695e-01,-3.402650381043658689e-01
-1.072977026072979012e-01,3.954778472632380915e-01,1.634463965742774527e-01,4.454177642983470076e-02,-2.192339631110976905e-01,1.348950647096891775e-01,1.941166420570896167e-01,-4.564662766139778172e-01,8.730365253807621101e-03,8.168767695686316235e-03
5.721773412438823508e-02,-1.030658096833707710e-01,-1.753021599287302723e-01,-9.183908348085091655e-02,-3.850937286404267912e-01,5.850982178420788271e-01,9.730665390521660296e-02,1.789733992461201850e-01,-1.917365442068242609e-01,1.543716814590138375e-01
1.961028092648509913e-01,1.904375873009473696e-01,-9.710909145547068355e-02,-1.336533203675477066e-01,2.339289934466912413e-01,-2.201960670632475692e-01,-8.096518182018155874e-02,5.872782092838552820e-02,-1.536985641541150638e-01,4.182985213833027155e-02
-2.073739044832391687e-01,-2.669770430354250768e-01,-1.394219042010239051e-01,-1.126626070964354825e-01,6.809301897679119475e-02,1.913302677411659047e-01,9.648623764629696287e-02,2.110124077657634101e-01,3.653397707221281987e-01,4.010887016960267004e-02
5.457335855228649668e-02,-3.296649921516868753e-01,-8.719123219916734280e-02,1.836683298894150121e-02,-1.297831808554156252e-01,9.940758514836990634e-02,-2.431214414593108053e-02,5.542010154336596967e-02,3.069649161056847708e-01,2.464180616179669284e-02
-2.563259469913587441e-01,5.596965102695818928e-01,-2.216284255999853292e-01,-1.526144200583903210e-01,9.806958657469103113e-02,-3.173980656761899444e-01,-2.093820629211218254e-01,3.192029916853859201e-02,3.365341953630023308e-01,-7.451917415417345925e-02
1.111368536485402014e-01,3.666527329545385960e-01,-1.786716852457096161e-01,5.763357265049155048e-02,2.761397911013604989e-01,7.541655156251647618e-02,3.132315109818225030e-01,3.443817758357151787e-02,-6.838918743300826941e-01,-3.331372106002119526e-01
-1.200853854167013152e-01,-6.009130511280487419e-02,2.507957690947019147e-01,5.360437722797919413e-01,-1.937345187508688615e-01,-9.158071391114952498e-02,-2.717318752958623462e-01,-1.206711619481806441e-01,-1.676218822480944892e-01,2.419532811945370454e-01
-2.488587889899160910e-01,1.623677902057583111e-01,6.774173359238805370e-01,3.340598165290326049e-02,-3.300429163781406494e-01,2.652262106461231173e-01,-7.953021496086805364e-02,1.304249361760665415e-01,7.461969139450949640e-02,-1.004071651440383128e+00
-2.914009707033478058e-01,2.191271824713967031e-01,-3.495186397152952873e-01,-9.964363790044035440e-02,2.640007795317743100e-01,4.204287993167785988e-03,-8.799885682312399982e-02,-1.960442495553229858e-01,4.503099575141190081e-01,1.497932498905407417e-01
-3.333646485043020302e-01,6.493132643813510907e-02,2.126210668608722598e-01,1.861529792353132096e-01,2.424404174213020888e-02,1.191496933673284464e-01,-2.063165267426685934e-01,-1.264984712635731090e-01,3.004680751492027069e-01,1.841384592960570443e-01
1.426156670266958415e-01,-2.306320551931668739e-01,4.912159873823138123e-01,8.201997601482662048e-02,2.961347380750097291e-01,-4.672082056715075038e-01,-8.338642861177017473e-02,1.690251844264275063e-02,-1.703636115898954639e-01,1.551300151389903015e-01
9.033726533887972629e-03,-1.449914740079219500e-01,1.642165806845974352e-01,1.046610992730547668e-01,-1.584288001143400182e-01,3.771326874583214583e-01,-1.060008146575487226e-01,2.003120569999902456e-01,-3.064439519412603397e-01,-3.163541012767189797e-01
-3.253220393734747307e-02,-1.416536525073000541e-01,1.337203412375223277e-01,-3.606190797558915251e-01,7.848405025467805607e-02,-2.804765239995154480e-01,1.877587305850704769e-01,-3.429985091172054190e-01,2.219293160660053277e-01,3.784868670979810723e-01
7.810120697334764495e-02,2.133436023263095560e-01,-3.464326699504105544e-01,5.267889987961496545e-02,2.756478294790934425e-01,3.409617328027341604e-02,2.833803186972475019e-02,4.070384331774876824e-02,-2.163711984433648872e-01,-2.796955700254125446e-02
1.203609545733979047e-01,-4.804806859280801312e-01,-1.820601233424117005e-02,1.756461610267427975e-01,-6.165371473111941336e-02,-1.250066569501786795e-01,-2.294398913106698579e-01,2.392509051866130790e-02,-7.353456028754923324e-02,2.377482932916379077e-01
-7.475048294654373926e-02,2.728116150423418387e-02,-2.490044118474680213e-01,2.950884607955127636e-01,8.215142234100569762e-02,1.392073502288557751e-01,-2.801150924961227570e-02,4.235766736119094267e-01,-2.050248729995390318e-01,-2.690866701063571176e-01
-1.955272933802066626e-01,5.461519342238160130e-02,-2.396468732257914236e-01,-5.025703901867224072e-02,-3.202603228611259484e-02,2.656353356920534425e-01,2.305128924540645052e-01,-3.340759067602978583e-01,-1.078712585273310966e-02,1.793317430854496353e-01
5.400591164295049512e-02,1.477577105164444293e-01,-2.308549036912161956e-01,2.628285324954161006e-01,-6.362900593205969568e-02,8.442821970220965033e-02,-7.823423839724674700e-02,-1.770351239301591884e-01,4.362210390290420514e-02,-1.713785287051756935e-03
2.676638456414883738e-01,-5.384113849547334657e-02,-6.781692399314491748e-01,-2.049664894577797603e-02,5.038350854662033973e-02,-1.491599918226161128e-02,1.429811991247180170e-01,2.394656738566134091e-01,-2.048472591201281334e-01,1.447348526349429565e-01
-2.553007113213988655e-01,2.864805581782175342e-02,-1.869565659842418667e-02,-3.367581757334702774e-01,2.865910000316213013e-01,-4.397500967436416934e-03,3.814949504656907076e-01,-8.866686018645783540e-02,-4.557447181777794093e-02,-1.485576911376454701e-01
-2.684267002514098468e-03,2.721021253863953882e-01,-1.270410927812945234e-01,1.376792075741603005e-01,-9.914997271909424537e-02,3.272026621600414575e-01,-2.814350449429647849e-02,-2.191524185615483511e-01,-2.171459359534100020e-01,-1.223743558835668245e-02
9.639301720094181625e-02,-6.574371532730051426e-02,5.391638581923956230e-02,1.430687198637094204e-01,-1.943359684634183571e-01,-2.985562131922170903e-01,8.141297170290137664e-02,-8.016030226129806924e-02,9.419748506272201602e-03,2.672038030996057856e-01
-2.104907020286618802e-01,-2.841243664674535374e-01,5.490314776244768769e-02,-2.091497839901753086e-01,1.120444017703587508e-01,4.304522163510800942e-02,-8.034550674197538100e-02,4.546102943024399878e-01,-1.578985422770244895e-01,1.789256484500183209e-01
1.461067425089432048e-01,-3.805432556963335780e-05,1.214013976071994100e-01,-4.921280821949494122e-01,-3.212724184274811101e-01,6.538322503004211084e-02,2.733412472843351759e-01,1.214355949462117001e-01,1.365161713588381731e-01,-3.295073144830696910e-01
2.770145994112225285e-01,-4.713442959785754116e-01,-5.691192263516575700e-01,1.972184806934231538e-01,-1.405659176524053366e-01,3.863668428499418273e-01,3.219528718248794719e-01,8.149797531642292980e-02,-9.054507182715505753e-02,-6.233712306945939780e-03
-1.391637795892648466e-01,-3.324182549545726811e-02,1.422915260864789921e-01,2.964352390436505447e-01,-7.261457631857860806e-02,-1.243979554120217962e-01,1.575000501778783812e-01,-4.576508260426931374e-02,2.141643957003699639e-01,-6.726569693787866518e-04
2.898617204590606677e-01,8.688768832737741102e-03,1.770937200121283916e-01,2.480592478354650687e-01,-2.383876194664134307e-01,2.574965062227804191e-01,-1.291831844931564666e-01,2.785187880361535417e-01,-4.228112307414484961e-01,-2.336865486432231354e-01
1.495273643406143937e-01,2.176074417774429004e-01,1.244125118125593704e-01,-1.516186102196077912e-02,3.068725554427806923e-01,4.311912588958102255e-01,-1.134597835812551775e-01,-3.577660040454927470e-01,-6.930449470783461852e-01,2.184460675955058606e-01
3.647289656371769384e-01,4.560756543323720574e-02,1.258365533927415236e-01,-1.485011830866749816e-01,-9.383291910330571195e-02,-7.024661607377773176e-02,5.642721569071419419e-01,-2.109592807254062896e-01,2.908514611789401183e-01,-4.166383652451691177e-01
-3.704580923122994252e-01,3.105549326495339879e-01,-6.702470631516788124e-02,2.688548210581060971e-01,-2.362601597426202404e-01,-7.174798487330133479e-02,-6.135568133790333251e-02,-4.197849483833289708e-01,1.954234131941439134e-01,2.491429078291252097e-01
8.790441090709370103e-03,-1.342985596526117265e-01,2.322708839461783970e-01,-1.921587175618055254e-01,3.415194966314442221e-02,9.521463286596509867e-02,1.169046820222102295e-01,-3.435890979788722155e-01,6.152611776751452932e-02,1.312305394452342178e-01
-2.209029834227691641e-02,1.741210831470989956e-02,-3.166717357206683126e-01,2.290245562666022305e-01,-2.205952911456897092e-01,3.303821260431836770e-01,2.979622884645494740e-01,-4.766795782891550953e-02,1.106995565632213317e-02,-4.001961389702657357e-01
4.166512544021155895e-01,1.080388510269707641e-01,-8.589134149116532668e-02,-5.670170263342165506e-02,3.508403826625913074e-02,-6.252611576913222856e-03,7.346356711699783548e-02,1.524014074911600736e-01,-3.862521122505739313e-01,-4.894609305159806911e-02
1.526045437776420433e-01,-2.148463763179508657e-01,3.198287974555598101e-01,2.420124834683524129e-01,-4.923771235667457336e-01,3.098638240009320977e-01,-5.043505102706136167e-01,-1.816530678241704833e-01,4.940653550804008365e-02,1.964264538900828694e-01
3.232764125455144660e-02,1.527393542348012001e-01,1.354042576395601827e-01,-1.230240431157996334e-01,1.923784707492011414e-01,-7.662424235615226953e-02,9.846936150743136607e-02,3.853020745468541119e-01,-2.354369528298733416e-01,-1.111469757858365992e-01
-2.603787287221324687e-01,2.002830887971526752e-01,1.540272047397673039e-01,1.912959604615934728e-01,-1.805896378032744998e-01,2.438674665383923357e-01,-1.942021391090514582e-01,-1.942128172262506114e-01,-1.686843881420870689e-02,1.121692891075145027e-01
-3.593218225998645599e-02,-4.498066831552107597e-02,-4.037739536374022054e-01,-2.089137129435695017e-01,4.513945712776865071e-01,3.880871429493732393e-03,1.384211282843543500e-01,-2.538551516332765434e-01,-3.485402935206929204e-02,1.715660755697759610e-01
-4.619399810993723987e-01,2.798223141066979447e-01,2.011881738409580234e-01,4.082009522444965399e-01,-6.047632064600205054e-02,2.008449721082499195e-01,-1.162989594382402153e-01,5.177297610786508741e-01,8.821294751944852575e-02,-1.014691370563796102e+00
1.441585980950002045e-02,2.087663993924678829e-01,-4.012514784458241501e-01,-6.610313326795804745e-01,3.851826329403373328e-01,1.452916037500849300e-01,3.331529210772732341e-01,-1.127944884346378587e-02,1.595083068958810246e-01,-2.241619205887559474e-01
