3.510659960443091726e-02
5.410168409571979031e-02
-1.267571591803557437e-03
-1.933176315709476609e-02
-2.810526748235705682e-02
9.376791341476803376e-02
6.603998201099259453e-03
-9.378784863840279595e-02
-4.305122296879720922e-02
-3.595580447857928824e-02
-5.602421926720822787e-02
1.375390553998037391e-01
-9.559624936791551175e-02
4.372758893275564829e-02
4.720645761248917771e-02
-1.463220886243402630e-01
1.198566917525363817e-01
-1.621091079883523259e-02
-6.855807275599194728e-03
-4.995386019484917423e-02
6.407534937728560920e-02
-2.045583409164693570e-03
-4.114000005362681428e-02
-1.034459750973276519e-02
-1.095847538747691738e-02
-6.717112134923027000e-02
-3.232136622889064670e-02
4.934523596649921517e-02
9.324354109008919922e-03
-1.063167611831986603e-01
9.936011518443036566e-03
-4.702269585845768318e-02
1.121910004957813421e-02
5.531782683027461345e-02
-3.418327459119384348e-02
2.487681524349475565e-02
3.107580387556681256e-02
-5.897192297336199124e-02
-2.084304058183380701e-02
2.047452631476181020e-02
9.967835502768020162e-02
3.004382612957471124e-03
1.488157540595062278e-01
9.517337197683506389e-02
1.285704034487284431e-01
-3.924947816997299138e-02
-7.975772549173600068e-02
1.075256761406621214e-01
-6.086521376344457279e-02
8.434291215176668854e-02
1.888356987219103403e-02
-1.119364637796426559e-01
-1.337894040092506565e-01
1.209269153331953180e-02
5.649266874069482081e-02
-5.752135471748361095e-02
1.931414251453736700e-02
3.276703125934764954e-02
2.504628261403521721e-03
-5.358109473056645727e-02
6.143379390398186896e-02
5.780117704621302865e-02
6.725787943405890645e-02
-5.039350458962069818e-02
1.390353116338292894e-02
1.069472463429691905e-01
-8.546364862318235611e-02
3.636666669801967133e-03
1.937926450824772537e-02
2.633470565750495665e-02
-5.547613574674055414e-02
-9.981965622177885189e-02
-4.133555335262602964e-02
6.516857913269029356e-02
-4.681444315598785877e-02
6.205848244082662335e-02
4.372184396042080520e-03
5.498190125303078352e-02
-9.312899069144413289e-02
7.721055099444822101e-02
1.897165165800132336e-01
-1.275700513260117352e-01
1.484610881102998992e-01
-4.340156986885505830e-02
-4.846102106157023498e-02
6.938499118720085901e-02
-2.110036858082962874e-02
-1.971134891441652867e-02
8.045854196236280897e-02
1.100843263641984732e-01
6.540436046451508778e-02
2.274153590282099874e-02
1.159648014552951134e-01
-2.814190165858034692e-02
7.616845662633381364e-02
-6.582816566664645430e-02
7.831011978040834653e-02
-4.956209604372761174e-02
-8.116209307204164114e-02
6.014219148584785957e-02
-6.766741878054288728e-02
-9.572061400986767166e-02
3.303673445944837334e-02
-2.245169813227043329e-02
-1.106652058023461192e-02
4.885396119069990856e-02
1.044527860038062944e-01
2.624903982386211226e-02
-6.628362517560948408e-02
1.325579286489790010e-01
2.765123136237583254e-03
1.231978893046282442e-01
4.239055708295640101e-02
-3.952403041371372640e-03
1.144596159932685930e-01
2.691157240387255511e-02
1.684309535747781916e-01
1.371960108341826745e-01
2.154067487928864114e-02
-1.019206156817044767e-01
5.207254482888310637e-02
-4.549542305111111025e-03
2.055048638987896914e-02
6.247041819299477272e-03
5.796862610356435380e-02
-7.816414113720287354e-03
-8.219804037696251675e-02
-7.401286735304012099e-02
1.599114089416451001e-01
-3.256863261556008915e-02
1.409142989145294733e-01
-4.333608943244184053e-02
4.235539746253619287e-02
-1.810546099934151887e-01
-6.645678396662103860e-02
-7.332077165185048317e-02
8.642561584566917088e-02
-1.155378800542307960e-01
1.521386535802728666e-02
7.456952340429828796e-02
8.169805448365173584e-02
-3.829798184273760370e-02
-2.624738717493705492e-02
5.479138011583845752e-02
7.096838865630773763e-02
3.249552711317256481e-02
8.329021728660529478e-02
1.321416156145806958e-02
-2.626218527877714412e-02
-1.440117721448337940e-01
-3.958663045998557679e-03
8.364917955983142139e-02
-2.471992887202102696e-02
2.252470038566539018e-02
4.554114869423009013e-03
-5.724343526972543172e-02
-3.792031139213494079e-02
6.154005563587364863e-02
-6.598583429641144416e-02
3.971783533241678155e-02
-6.601824664987714086e-02
2.674349971564258244e-01
9.176695358995709539e-02
7.578521775031345220e-02
1.598253034599972922e-01
-2.791416187340043775e-03
-3.877678430860291309e-03
2.144776484395644403e-02
-8.312225486570296029e-02
-4.040574817603165281e-02
2.637372930267431470e-02
5.379443510084547936e-02
-8.720724490078900215e-03
-5.371592522997802044e-02
1.874046122495847885e-02
1.017476167853859775e-01
1.157537692917450511e-01
3.526908900648465569e-03
-4.006968736999264036e-02
-3.936779723732573844e-02
-1.220371224170871752e-02
-2.342016522080489146e-02
3.991700955400850903e-02
3.821330194915083939e-02
-7.735868481850883974e-05
2.943778753496036418e-02
1.926410554830858823e-01
2.101126384355639365e-02
-2.914780452979713263e-02
4.215342342895374295e-02
-5.475483140183391717e-02
-5.836905905790019250e-02
-3.087594205932963493e-02
-2.449605135912619192e-02
-2.193449208739200323e-02
-2.074438447153442375e-02
-2.096098567628088688e-02
-4.667014425464135856e-03
3.288699846580946801e-02
2.351292982847993582e-02
2.593007972396806082e-02
-1.493289520527256165e-01
1.785219776647810896e-01
-5.872339616972082482e-02
-5.308759728400842814e-02
-2.149460357768971739e-03
-1.825764133286851554e-02
6.345299346253035350e-03
1.329190087728186753e-03
8.688354401289863013e-03
-1.602862170258586433e-02
1.033282173133139720e-01
9.673002039482199443e-02
-1.389230288779613742e-01
3.672248450943635650e-03
5.540730657473404847e-02
1.376840912636191905e-01
2.152876154017744920e-03
8.068342527574018375e-03
1.966352585275197434e-02
-6.290824696406630001e-02
5.370636479300337079e-02
2.187643828440994503e-02
6.749243853756606293e-02
1.098222536332259386e-01
-3.695220924559496165e-03
-2.489552259284907171e-02
1.201123460716586704e-02
1.804081858953567596e-01
1.098363571794006843e-01
-2.755296174032354981e-02
2.143422865063342869e-02
4.019513576587935982e-02
-1.766127961623767048e-02
-6.724685622953111008e-02
5.198283781321066943e-02
5.844325430026987150e-02
1.399245767349273362e-01
-9.813403682605381997e-03
-5.314479206511885795e-02
-1.475012212143413451e-03
-4.641173391688184491e-02
-2.603731657596740356e-02
-1.260526599843705270e-02
1.379874078584723551e-01
1.485882236026972794e-02
8.128052908951766131e-02
1.613419962048298628e-02
1.445570090293934670e-02
-5.673968624004520518e-03
2.538994802533333095e-01
3.485985319019178214e-02
6.040911486665086422e-04
-6.247837505415707038e-02
2.776106066665815636e-03
1.247124365638554652e-02
