-1.842807237916343210e-01,-4.220066967855534007e-02,1.687156657333915843e-01,1.343891030421572874e-01,-1.895101243192696683e-01,-7.641294448108590376e-02,2.160825447354901008e-01,-2.619133224510256652e-01,3.748911256715450890e-02,1.016834917642624875e-01
2.531387239427816405e-01,-1.953430224472146037e-01,1.216068523150432984e-01,2.572819966727225849e-02,6.132853368458337368e-02,1.282909280479776482e-01,-8.561258943954946909e-02,-1.345686908979629726e-01,1.349080558290751686e-01,-7.172892631678610964e-02
-5.223680556109928930e-02,-1.551873999673725191e-01,-5.221485364013880859e-02,-8.614067641447602230e-02,-1.457619626930380941e-01,-1.765792016985684530e-03,-1.164260442966846831e-01,2.468053869153566393e-01,-7.740320565178243628e-02,-1.247580920901995571e-01
-2.316070666826935132e-01,-2.588216293225954756e-02,9.158428687274514784e-03,1.277479214717840428e-01,1.742653619713792901e-01,2.069145099655159137e-01,-1.263201419431574657e-01,-1.021426767787276674e-01,-1.541614961920609594e-01,4.829813600221925796e-02
-9.829833937177076889e-03,-1.609429249337508694e-01,9.016472478552968461e-02,6.270259871967980014e-02,-1.282997767194798411e-01,-4.070756727613853571e-02,1.068497222316233120e-01,-9.287023468626275091e-02,1.209836784987168012e-01,-1.772854092305460594e-01
-1.056168504686513937e-01,1.873848849218143486e-01,-1.795557230329216103e-01,3.522367130203974406e-01,-2.965624628552708253e-01,2.613312185461965850e-02,-1.912959564139865565e-01,3.672321662178896357e-02,-1.815279088388197654e-02,8.956100907478926898e-02
1.328598944427502627e-02,1.048660253978395962e-01,-3.005164804744927393e-02,1.293610391717885111e-01,-5.848303407379445984e-02,2.697329729981252644e-01,-2.394029801209414388e-01,-8.391708588783322598e-02,-6.451753607756030573e-02,-1.502482750321957605e-01
9.923568860934034452e-02,-6.780829113287460685e-02,1.433332655842253223e-01,6.609724917999371119e-02,7.536752743516263175e-02,5.411766114996713339e-02,4.001509700614566678e-02,-1.386215179924010221e-01,-2.289036730037112000e-01,1.709223726397457455e-01
8.425407571325492506e-02,6.479976890620189889e-02,-6.251620077875676140e-02,-1.869338962520782077e-02,6.445009724405194925e-04,-4.407330339424189725e-02,1.693607749800720708e-01,-1.811381956039890828e-01,-6.479047498025796749e-03,-9.266160962762479136e-02
1.143890707744159435e-01,-1.123777666565987932e-01,-2.351312175517633954e-02,1.779159428082342786e-01,2.447493878548793744e-01,-6.748326856275244090e-02,2.432418504280942084e-03,-1.262354531263778501e-01,-4.159867183212657971e-02,-1.488162729762119128e-02
-4.640797229237789145e-02,-6.013994316322009148e-02,-7.997183191097385901e-02,-3.352103865434261643e-01,3.120939443853429363e-01,-1.261612847238482993e-01,-3.625363259293586382e-01,-1.978739191025191968e-01,2.602031834977309721e-01,2.563724608693483398e-01
-3.024662158078693097e-01,3.645133473417451198e-01,-8.293142212901270056e-04,-4.270011141431565016e-02,1.458635584919784345e-01,-1.162694025388568836e-01,-2.752918812449941521e-01,-3.169942215834474497e-02,1.764755523220219169e-01,1.166422782324795793e-01
-1.081695719315572263e-01,2.788965303741611224e-02,1.296557808280250357e-01,-1.360283953025666348e-01,-6.840879164971175319e-02,-4.091258042703083825e-02,-1.332276640908929555e-01,-3.339498668861025366e-02,1.755738478308135619e-01,1.580201622579494869e-01
-2.858994213013856325e-02,1.307772959009211589e-01,2.058100693880698939e-01,-3.437122017481148428e-01,-6.729422527737285997e-02,1.167172594087299495e-02,2.323597844850651128e-01,-1.874808567221758222e-03,3.840558753668715103e-02,-2.446572518267665641e-01
-5.456314936778595276e-02,-1.988701450845988816e-01,-2.340042745860684281e-01,-1.360796241035339138e-01,1.314170491075780378e-01,2.731582935968100423e-01,-1.261455550367443154e-02,-5.729937504938875659e-02,2.283152559258564696e-01,6.677225901417180309e-02
-1.027333926564767547e-01,-4.314087367758474151e-02,8.418614296790899454e-02,2.841133861700744778e-01,-3.393493302780704046e-01,3.583773288508667054e-01,-3.295618050560693013e-01,-1.540719911152193811e-01,-1.265531273656958066e-03,2.239489525682755722e-01
2.182532316135658568e-01,-3.517927349844270773e-02,-1.779890212793227844e-01,-4.168162969959053610e-02,-4.354203499917413955e-01,2.383475034046022012e-01,-4.111052356587854145e-02,2.559760160854185340e-02,2.024090203347454417e-03,1.302273184562500741e-01
-1.077687805613140870e-01,1.237245362053372988e-01,2.758295577073434646e-01,-5.153364684398088064e-02,1.108053496960946793e-01,-5.771177960054210687e-02,1.817484197040610330e-02,6.702562852133532589e-02,-1.473394524438397246e-01,-3.118894291221657178e-01
1.264460454487304764e-01,-6.607354754446546907e-02,-2.728538292515923502e-01,1.471951168638551376e-02,-1.989755981622384762e-01,3.545295139457753097e-01,1.186581205762523711e-01,-1.372757344423836401e-01,-1.161941768499149541e-01,-8.596784812936129894e-02
-5.105878847415188521e-02,2.088673537062859520e-01,-1.382698297268095955e-01,1.296716495192488938e-01,1.785886174779824642e-01,-1.132042508535630321e-01,-2.166102437874744824e-01,8.025682295643354891e-02,1.300223704242226830e-01,-8.085013266378174301e-02
-1.959149372218271790e-02,5.151307748393799124e-02,-9.280822106365613569e-03,-1.534339643120327390e-01,1.283133411802183099e-01,1.085218976179477407e-01,-1.307535535996415255e-01,1.739602330568940924e-01,-1.930172645218123650e-01,5.869242945789854282e-02
-2.137373265954778945e-01,-1.261537337528934322e-01,-7.607911453090700216e-02,-8.023713777658278076e-03,2.143605795962072735e-01,-2.180801301733458764e-01,-9.830339295873427585e-02,2.688266803202609689e-01,7.222423967325559968e-02,3.692876716225802491e-01
-1.934530617285957210e-01,-1.434217224764999521e-01,3.051052169512497025e-01,3.331848866608146942e-01,-1.761519184419620479e-02,-1.225686591110630996e-01,-1.491269489841322293e-01,9.672886831152188725e-02,-5.702075761204609267e-02,-1.686489284453035198e-01
3.530436242110344958e-02,-5.638557756697076817e-02,-2.959327096349472289e-02,2.013823812791321333e-01,-1.719778271952049076e-01,2.488911988803158282e-01,-1.798870845463109436e-01,-1.598313420284349640e-01,2.317143693132252269e-01,-7.146033186508772561e-02
3.755337128923436629e-01,-2.576555983976124287e-01,-9.380653760480288372e-02,-2.179984420051978566e-01,9.226157076160788895e-02,-1.768967804484330719e-01,-1.338357637024538138e-01,1.484970039539550424e-01,2.432093681024537490e-01,1.602774625013104470e-01
-2.495775232860043824e-01,-9.446269453101767410e-02,4.004135937340076445e-01,1.257197007514138445e-02,1.423495212789234465e-01,4.345697325476497591e-02,3.249115779907354312e-03,-1.853013979944029277e-01,7.470419311595030004e-03,2.472831781367651124e-02
-1.436956713358644999e-01,4.666890548327908006e-02,1.499058786382364561e-01,2.389153514670142864e-01,-3.329215479636301461e-02,-1.314378417830424327e-02,-6.082796087876876645e-02,-1.822256717648061686e-02,1.524651247685545295e-02,-1.058733746783761392e-01
-5.220496848994339301e-01,9.277623945562302188e-02,-4.754800272069334421e-02,3.573561132502676707e-01,2.212905301312025411e-02,2.431004934130867046e-01,-3.279431169221522224e-01,-6.239909631216755681e-01,3.724434812859544475e-01,1.447947247544358051e-01
2.417652537948497826e-01,1.003117691447780041e-01,-1.249393359410547605e-01,-1.825048814946030745e-02,1.207617662344618731e-01,1.003737771347646551e-02,3.631117751783940334e-02,2.553545699517698608e-01,-4.130364174078787753e-02,-3.351809409299122966e-01
-1.466652163233702899e-01,-1.222473421737100760e-02,1.267802460530312314e-01,2.547298019427394200e-01,-4.999520122013828560e-02,-2.079396931966898121e-01,-1.832400112813633852e-01,2.599963450527222886e-01,-2.450181565006958120e-02,-1.040193466084381596e-01
-7.366354841469814618e-02,6.770600507320929939e-02,5.209930001453656756e-02,1.747879433445512498e-01,1.054108685106376758e-01,-6.255684282518200745e-02,2.645644453440171850e-01,-3.700821683648840982e-02,-1.183975734701099430e-01,-2.357717468917597259e-01
1.280578626752748236e-02,-9.058425574690967541e-02,-2.500567813838169284e-01,9.523936298942385636e-02,6.748179855033019370e-02,1.360132520395046507e-02,1.835594468621531694e-01,1.303366545363800755e-01,-2.379327507109139928e-02,-8.286009384827572322e-02
-4.021403159574083591e-02,1.367277795395504258e-01,-5.254420268518379504e-03,5.536051714586901623e-02,-4.886561569856254922e-02,6.739580360720756613e-02,-1.312956384507734386e-01,4.750579385597158283e-02,3.776477555692823312e-02,-2.850746040545071303e-02
-1.370197258042911148e-01,2.305781891779607184e-01,5.367924396327138359e-01,-2.205498770237215300e-01,-9.305284476488295820e-02,-9.838231124945445716e-03,9.001850590023237342e-02,1.947651062925425114e-01,-9.774654647160282636e-03,-4.236536487896407910e-01
2.021588901629196855e-02,-8.437588686785370273e-02,-1.731939747200554047e-01,-1.248689384388102647e-01,-6.237084921079325689e-02,2.025182603658156888e-01,6.871141869997952900e-02,-6.953848082575841971e-02,1.769916459128963171e-01,-1.168177876174039120e-01
5.366064138570123454e-05,-5.089618055179678802e-02,1.661001642543582513e-01,1.344332671763399101e-01,6.860748939657877743e-02,-1.928988059307224640e-02,1.438755243786816844e-02,3.037583229789427297e-01,-1.802114314624373437e-01,1.247968742402040254e-01
2.708375334680149238e-01,3.197674124575462795e-02,2.548637634705804011e-02,-8.229200052898818021e-03,-3.970844316111448169e-01,1.138149239899392817e-01,-2.570637561053820339e-02,-1.794378670838711332e-01,7.585849418450281434e-02,-9.268882242869487531e-02
5.036598398445539526e-02,-2.269321127378910730e-01,5.517297574258090732e-03,-2.637268976898080042e-02,1.681255921836537770e-01,-1.964137192886294403e-01,4.111777290375593918e-01,-4.667383409925896509e-01,2.630064062540938830e-01,9.893003776679562544e-02
2.034358515024528302e-01,-1.426596473482104888e-01,1.059827901950319839e-01,2.293114142763847188e-02,-3.068627713520155620e-01,5.401434408616596627e-01,5.216383260576649972e-02,-1.590522405814313034e-01,-2.219214998929880389e-01,1.421519531160108096e-01
-8.404113683093956955e-02,-1.069928567576846901e-01,2.595814522145434636e-02,8.684060091440302942e-02,1.009534378069564531e-01,8.950794634163297681e-02,2.497626321408223660e-02,-2.410634633779383529e-01,2.306438973912143808e-01,2.730523410328255032e-02
1.256886083038678825e-01,1.198390963647223001e-01,-1.003752516179599180e-01,-1.806426200960426637e-02,1.706278111023999677e-01,-2.663901899753360128e-02,-3.974055602113113483e-02,1.968011907598417043e-01,-1.494599316644460163e-01,7.370463401814106308e-02
1.662197140215910529e-01,-5.058381641826205366e-02,4.946881268110363272e-02,-2.769545280672979226e-01,1.130384765063158492e-01,1.232112235036216946e-01,2.498863873891275095e-02,-1.963639524434760697e-01,2.338359619899474384e-01,-7.856557260722538127e-02
7.145443846625587625e-02,-8.886155304189015391e-02,-4.513812655236498078e-02,-3.037194265300071847e-02,-1.191252137580113557e-02,2.117471687485714404e-01,4.479423575009754410e-01,2.772349250981419599e-01,-1.617228802663650544e-01,-4.766603822618499242e-01
-1.272522571171574857e-02,-3.571112912027900321e-02,1.776847091869264150e-01,9.431945888994029692e-02,-3.334636670820427529e-02,-4.260356992493231215e-02,8.024356137749449891e-02,8.662469803408628932e-02,-3.458848100048287910e-01,2.401790026650562834e-02
6.908804765816135840e-02,-2.921449741885965429e-02,7.040385108258409574e-02,-3.465521641891981530e-01,1.358430695582666659e-01,2.223285670650066714e-01,9.050488438951830028e-02,-4.189483637182288278e-02,-2.140753523428257088e-02,-8.025749169009223360e-02
7.985088029223837147e-02,-2.635290106989469916e-02,-3.949340858418649847e-02,2.049039126813653189e-01,1.603886478111415242e-02,-8.441119910218805242e-03,-1.104050595069119428e-01,-4.935150764904024795e-02,2.055738083232961921e-01,5.704727613190561236e-02
1.332234474020144721e-01,1.250908650604185268e-01,5.827380466195465972e-03,1.076084937211966991e-01,-1.705785489075148376e-01,-3.516909564215339734e-01,-2.966368794513494708e-02,-1.447324145540498236e-02,5.671819483198432127e-02,3.331749479235235345e-01
-1.069097172992472394e-01,4.073869165184351021e-02,1.656617170952829621e-01,-2.718882878852996732e-01,-2.471549728507343724e-01,9.599384454675005673e-02,1.225884497536968848e-01,-1.889858545313607141e-01,1.663940968416124100e-01,2.090786062449446689e-02
-2.003754751112119259e-01,-2.215331936344981101e-01,-5.025162209163732546e-02,1.829153359218450570e-01,8.824942414594572071e-02,8.277294315552538584e-02,-1.211812641714365459e-02,-4.909431599352024472e-02,2.174055115124245707e-01,-3.929781127071241970e-02
-6.423660435525926915e-02,-1.893428086607799529e-02,1.496493562698048008e-01,1.159829805108383016e-01,-2.057837154041387492e-02,1.274660373380132605e-01,-7.230913903065099013e-02,1.002144585840329533e-01,-2.641680230606368585e-01,1.271495170518625872e-01
3.494949041223890940e-02,-1.174406205829010424e-01,4.572910837268419348e-02,-4.978924008551258856e-02,-5.239436366193285510e-02,-8.896206230659193387e-03,-2.716904220667116232e-01,2.423940708931907884e-01,1.245191027639262343e-01,2.409389677911322192e-02
3.189416321880318705e-02,-1.867252678991932965e-02,-3.281395098724879666e-01,4.952000790761370425e-02,7.507947928536146120e-02,9.087014353907625630e-02,-4.964760848753893563e-02,-1.895741637611336461e-01,1.696876805620141648e-01,1.366997820667535668e-01
2.139307557077356481e-02,-5.098491413405607103e-02,-2.656271939109924526e-02,-1.047459357001078589e-01,-4.748160231286548127e-02,2.260468126175013692e-02,-8.444893177547421748e-02,1.430095967074979935e-01,-5.364486823236869900e-02,2.227779440367460770e-02
-1.269620486052384090e-01,1.593782077909872488e-02,1.955709747597423609e-01,-2.037827925286934683e-01,6.460991340410986161e-02,2.498909716460467334e-01,4.099671999289983965e-02,-1.135087790351769488e-01,-1.652215944789207913e-01,-4.238937072323373939e-02
7.025882507185986572e-03,2.217645884433152026e-01,-1.346334278454455746e-01,-2.012616322648636824e-01,-1.904469383070985788e-01,2.387565323951341689e-01,7.182357767026179007e-02,1.460052272028277698e-01,-2.570272986318171693e-01,-6.321844166133319849e-03
-2.325436123693582977e-02,2.435103791348955105e-01,7.354642031860945083e-03,-7.100797853876007933e-03,3.310369841638071131e-01,-1.811927301785572486e-01,-5.479822490415692249e-02,-2.527129402331937391e-01,6.656469728600765412e-02,9.304441715707661986e-02
-7.743104238000765582e-02,-3.118660528235588369e-01,-3.100967482225207017e-01,-4.958786160573792207e-02,5.840979210796724136e-02,-9.563692838920939687e-02,-1.200076700500202348e-01,2.773938991865460002e-01,1.646974565972678384e-01,1.394628817897487494e-01
-1.990525779411569107e-01,2.148712035323442349e-01,1.907406642059542856e-01,1.674215650680604961e-02,8.237247872326218523e-02,-4.220742218444509253e-01,-2.018067409126999279e-01,1.736148065520539407e-01,1.182452417392462068e-01,2.470515160512477548e-01
5.689740422109481471e-02,-4.767028802887809946e-02,-1.502459916557228881e-01,-4.334978750642547868e-02,2.390382424422144991e-01,1.963005531065180331e-01,5.563995064400035356e-02,-9.474436820525507230e-02,-1.191318469268130564e-01,-1.744880898199868136e-01
2.383606020508980960e-01,-2.579582594705699949e-01,1.010678654233692353e-01,1.640676701381332467e-02,-1.037466772254060522e-03,-3.036572731090643740e-01,-9.464346219207372957e-02,1.658923177102296920e-01,1.237500081127227147e-01,1.558550285617300579e-01
-4.837379487290182495e-02,1.676350509035083314e-01,-3.225213612759147419e-01,9.371173933590461191e-02,3.163909745722337519e-02,-5.572565939954184089e-02,9.040290244587942392e-02,-1.866601237244814859e-01,-9.442482833427308375e-02,-3.454049485513357304e-02
1.996714515438756110e-01,2.306420299500649418e-01,-2.579634134356979525e-01,-3.606973177865103741e-01,-2.816893812132095776e-01,1.594521639994610218e-01,2.440243675080146779e-01,-5.572332274929022583e-02,6.026823924486351264e-02,5.786787472853077013e-02
1.699372378896997215e-01,-1.700515882647262444e-01,4.289432949457303718e-03,-1.322436736903946086e-01,-9.524791526499035155e-02,6.771583382349538605e-02,5.021418798201898737e-01,5.969065736832778607e-02,1.068090911859191500e-01,-6.399108493196430103e-02
6.935565265389857792e-02,6.079628945661206402e-02,8.638810212261288646e-02,5.488914870916915094e-03,1.068118218669031477e-01,-1.885160241837776918e-01,1.865429503092980446e-01,-5.196494237493474305e-02,-6.540167570369240929e-03,-1.108349221340441532e-01
-4.817503816843986958e-02,1.180560017632566530e-02,1.087203432837039185e-01,1.553081195466708420e-01,-1.431344411507796677e-01,3.555301576184367179e-02,-6.732811299427447771e-02,2.579684588739886708e-01,-1.329146927423318914e-01,1.044287661228872344e-01
6.493542839151402596e-03,1.160864177376024764e-01,1.656286386014378387e-01,-1.363710347869042938e-01,1.753990286503286436e-02,-4.459301907343349303e-01,-1.606367577196876339e-01,3.606377932429292166e-01,-1.305504372575665706e-01,4.112945842454505258e-02
-3.220212617435315450e-02,2.741635901248062543e-02,1.553620869000283122e-01,3.981520003148885101e-01,-1.620604149997706064e-02,-1.270300541688684226e-01,-2.631805162602061654e-01,1.063278411296447457e-01,1.002253665038334990e-01,-1.287869147766257209e-02
-6.013551267611511042e-02,2.223697685711806260e-02,2.487306224478207789e-02,-1.064530295257946207e-01,4.023261894742855005e-02,5.355050882942634372e-02,-9.067752874981900579e-02,-7.183163321605935681e-02,3.624110226593309225e-02,-1.821488562208684603e-01
-7.007484863842296241e-02,3.215384373118082562e-02,1.134680742114226037e-01,-8.063853863253292453e-02,-2.391565393564165642e-02,3.354990980083883551e-02,1.325645915959679788e-01,-3.938493836232798140e-02,7.767515397137300659e-02,-4.288620941693154637e-02
-2.704899776001974954e-01,-3.108505981464517939e-02,2.260299776260223659e-01,2.751134046836844482e-01,-3.388517313591602464e-01,2.037804628044093957e-01,-4.236569295629766807e-01,3.374892841492242446e-01,-1.211853376894411879e-05,-1.673356332646146749e-01
5.401516073110661925e-02,5.669736838801246043e-02,-1.723822745247678423e-01,1.585929671494224272e-02,-8.061217574324246182e-02,-5.031614580578267631e-02,6.509929399648374526e-02,2.431336923451354187e-02,-5.399559546529102833e-02,-3.077403599178065233e-02
3.448689997353948655e-02,-8.230477591560129980e-02,-2.225189276617913631e-02,-2.814838191971027678e-02,-1.407577377197505586e-01,4.230878091264334180e-03,-5.527915081222584213e-04,-2.121882381913884133e-02,5.756526298069910424e-02,4.776509190692145197e-03
2.009743251950234788e-01,-2.032216073683339869e-02,4.998969305682857134e-01,7.304526854514299672e-02,-3.906092580659600300e-01,-6.611070750297301513e-02,-1.831152625930251299e-01,-7.508052053115393809e-02,2.311199195175699383e-01,-3.164460784913425972e-01
-3.262002752720386672e-02,-5.545174001867299307e-02,1.210307277840195692e-02,-5.095801746047836506e-02,5.850793879648964746e-02,1.841705464994249086e-02,2.919821056026752557e-02,9.261928019053874972e-02,-3.662683797044782863e-01,2.061784345816899955e-01
1.335339839796638173e-01,-6.228031009036404803e-02,4.177234670763926329e-03,1.905086837477242556e-01,4.402110913865964203e-02,6.714340028490002610e-02,7.592738191512948820e-02,-3.459142829329071162e-02,-1.144242855521949813e-02,-4.096880009860911498e-01
-2.209250941676824398e-01,-5.826067670607093518e-02,-1.249060166960922619e-01,1.581164807060898847e-01,1.961601165928678614e-01,7.322621031020870586e-02,-2.043820921515517031e-01,-1.991764870535617238e-02,9.741296502250676448e-02,6.345428521470906566e-03
-1.468037691839095549e-01,-1.469790176007730043e-01,2.434361041119343094e-01,8.858468280945934470e-02,2.056582128293320821e-01,-1.613562217743917393e-01,2.133963201642332663e-01,-3.475271067281650028e-01,1.537295512122885399e-01,1.150507963482300458e-02
-1.896405074869879082e-01,3.221643189860818879e-01,-1.879325802214548702e-01,-3.128989768348602180e-02,2.320049717461111771e-01,1.813615014412726101e-01,-1.172606113923410076e-01,-4.489155407232875428e-02,-3.391959479787132192e-02,7.224428484808520512e-02
9.417996085975550991e-02,6.504344966033398512e-02,-5.459141388965422781e-01,-2.659035291395484557e-01,-1.520239980423555015e-01,3.049110625919630446e-01,1.571735083147884349e-01,-5.899383103192729072e-02,-1.512810129343490906e-01,2.926998218403277230e-01
-3.300949764940274700e-01,-1.181499710434657791e-01,-1.840489672775054153e-01,1.985446510548033727e-01,2.245458406694132436e-01,4.622890137331294169e-01,-1.872424419106148985e-01,-2.709076009638156091e-01,1.481843312464930229e-01,9.292081329799604938e-02
-4.837203419912543267e-02,5.461463145545570989e-03,-4.430562857793735737e-02,-2.359060461878457471e-01,4.850658429797012894e-01,3.173926840027360696e-01,-9.729810014862490253e-02,-1.243058653687594273e-01,1.974530965552905304e-01,-1.149659834900856326e-01
2.776752157444553268e-02,8.493634130281502159e-02,-1.924583511035365402e-01,1.180198662929277283e-02,-8.675018625158384400e-02,6.244950745066835812e-02,1.716731141686221596e-02,5.495202273439930146e-02,1.448472569313675462e-01,7.424512814438487263e-02
-5.041512876092831691e-02,1.487715020430965471e-02,1.682744831783701267e-01,9.426354384943454179e-02,-2.968093946150324736e-01,-6.392704540654862988e-02,4.965431012059456223e-02,1.181993171201578124e-01,-2.031281280825668611e-01,2.421749142932316246e-01
-1.386479783829583888e-02,-1.165159487040363373e-01,7.341625504591672846e-02,-1.619495070879923559e-01,2.160031717514772354e-01,-4.003364684002772567e-01,8.011696852818535330e-02,1.278782392059192585e-01,4.074548685695991018e-02,1.579820426587481286e-01
-4.975076324753079093e-02,-1.755957714810350845e-02,1.089810801816335217e-01,-8.328471597311372723e-03,-3.432887989300775766e-02,4.799997514850980890e-02,6.531611100589515551e-02,6.411214041825619159e-02,7.589807194136771740e-02,1.085655805080231427e-02
3.899858388312136409e-02,6.973798057493851843e-02,5.877602477409168968e-02,-4.828658210942261136e-02,1.733741442602438620e-01,1.074481257992010025e-01,1.800262466957961160e-01,-3.844713760497490140e-01,2.419786172525495160e-01,-2.907195992976747967e-02
7.110277577334467303e-02,-2.230411151373480338e-01,3.222612285821636613e-01,-3.373880365064286374e-02,-2.881537747028368318e-02,1.339280970664119275e-01,4.173279432122813382e-01,-1.217401080122285095e-01,-5.398018542274300030e-02,-6.596086686409474709e-01
-1.273543710380541094e-01,-1.182782196367210825e-01,-2.032174564016937454e-02,-7.941650268169761495e-02,-9.497037741896198482e-02,5.115143143938814807e-02,2.093713285958780923e-01,-5.154455968189013138e-02,2.260406199395098847e-01,7.863096262102801937e-02
-1.554080510401668058e-01,1.049580788134259063e-01,1.817359890331451400e-01,-3.860791918528000966e-01,1.432399882009640357e-01,-6.703715750746179480e-02,4.633974744011573610e-02,1.315327356318627197e-03,1.550460353416069081e-01,3.312466007340064775e-04
-3.286642827416444423e-01,2.883117390953829351e-01,3.773124377439875110e-02,1.559901346510642328e-01,-1.042484009081729446e-01,-2.042801984693176295e-03,-6.961620887571431937e-02,-2.900118959351079551e-01,2.560715166515694641e-01,-1.213059591083488903e-01
1.076641615098799104e-01,-1.018453559906121741e-01,-4.656610991879652460e-03,1.327362660478704180e-02,-4.891158236301676454e-02,-1.061573332875081072e-01,4.839777431685898107e-02,5.360324005340083922e-03,-6.257009263826504575e-02,1.736109547351839463e-02
1.030447732336480932e-01,-5.641939849496309389e-02,4.392278665111526426e-02,-1.604349304604534010e-01,6.389152410518936231e-02,-6.706752440503742363e-02,1.790569702011890474e-02,-1.213840824576997990e-01,8.506253370394670221e-02,1.046030629438750824e-02
-6.450799606651291818e-02,2.908732465799332978e-01,-3.755559514085482498e-01,-2.500926650912709270e-01,1.478905632562108607e-01,1.503340459441600101e-02,-4.948906984953026222e-02,1.548351192485861727e-01,-4.038502009748984878e-01,7.523700316044928949e-02
2.591717524404868467e-01,-3.515090088386609024e-02,7.229711559797806497e-02,-1.085363552890472455e-01,-2.083545336919282176e-01,8.694990303086758132e-02,7.714678496443236333e-02,-1.213425852633443491e-01,3.916030113724588285e-02,1.718321871204663703e-02
3.504679840824110985e-03,1.086192962749268215e-01,3.363161573061962395e-02,-2.765203212182556491e-01,5.303509415075328276e-02,-2.257556379530047397e-01,3.968906953587181957e-02,2.003457796426512116e-01,1.771864624289313517e-01,-6.780162843034671927e-02
-4.729056936306789971e-02,1.962386252760343064e-01,-5.800110548605890565e-02,-5.841214200270953422e-02,4.475293459091158471e-02,-5.366474050793241385e-02,3.779576261400909715e-02,1.195211826995941778e-01,-6.814870054032570734e-02,3.209578879121782052e-02
-5.040985731796934028e-04,-1.760803215810613498e-01,1.000299197563011971e-01,-1.163321165190213252e-01,-5.326273012247263045e-02,1.263876262275710760e-01,1.258245406380629761e-01,-4.908716806686262701e-02,4.776228308772869496e-02,-1.849238873372191228e-01
-5.763133692712645029e-02,-3.176535677191288931e-02,3.207095736742832104e-02,4.068699556698011921e-02,-3.012256294366522091e-03,8.918936877797647989e-02,3.050474177924796318e-02,7.056235353129584886e-02,4.345425222925108216e-02,1.770708964705899544e-02
5.288315482171013909e-02,7.160618228924552076e-02,1.252224245771198508e-01,1.743188963789598367e-01,-4.186808283097706584e-02,-4.458045285549384618e-01,-1.161845628826592702e-01,3.579896638979775288e-03,-2.471136607283576925e-01,2.265408004561259014e-01
-1.175893613799299242e-01,-1.054232879040631482e-01,5.071523217710459386e-02,2.849564585442660586e-02,-2.836420934390918025e-01,9.145298354108241656e-02,-1.084737293108229278e-01,-5.173938301277981183e-02,5.720311440333981576e-03,2.158790293663059301e-01
-7.616282289560530327e-02,9.774750297594141102e-02,2.219014733662189320e-01,-2.728533630003446633e-02,1.107542010470927846e-01,-2.008420405732543046e-01,2.832463046366142101e-01,-9.830013538578656618e-02,-2.202737586607933506e-01,-6.322335559836497754e-02
-3.076380545728001764e-02,-1.772946118118274850e-01,-4.970182584721083430e-02,2.947319313600911261e-01,-4.534189680479600720e-02,-8.759129155455508409e-02,-3.219891412540432096e-01,1.715393718592927441e-01,2.102996174169974308e-01,2.040472159636271265e-01
2.929214204343526529e-01,-3.030184366241209931e-02,1.107898356027550713e-01,-1.247679632607311961e-01,1.591741919160409025e-01,-3.860125968358086440e-02,-7.402179920613044528e-02,-1.073836544945146187e-01,-7.969426342626195758e-02,-3.751456521593019011e-01
-9.001196485996721536e-03,-6.335767974083673926e-02,1.616117123985529869e-01,-7.641948395923839343e-02,1.894970488822980692e-02,1.017218272488252390e-01,1.303540438181036154e-01,2.754441898516830564e-02,1.284220222534426109e-02,3.895782701016194116e-02
-7.953661290170883913e-02,7.054414620223255217e-02,4.440307452549407397e-01,-2.449705180714591493e-02,-1.037159547181227270e-01,7.729391005097570322e-02,1.545482233876931122e-02,-2.992064400654470199e-02,1.206743682614883906e-01,-2.119036240957548056e-01
-8.387708654052548896e-02,1.782246345088903949e-01,-2.330327800267103788e-01,1.278231883487571385e-01,3.101238140632534557e-01,-3.829249826334205076e-01,-8.758249490281179439e-02,1.413979215149678559e-02,-3.399455467023854149e-01,4.125827028101918814e-01
3.158147173269923447e-01,-1.656214096838088123e-01,3.918338729750867611e-01,-1.987215181900840733e-01,-3.066950818347196073e-01,3.080170415941078099e-01,-1.346739402884069292e-01,4.429534577987395694e-02,-3.896583464793484854e-03,-5.143336064346490932e-01
-9.008008496995027758e-02,-1.806124763900707197e-01,-3.592181997573508454e-03,-2.308922340792060254e-02,1.557633828183642988e-01,-4.646952497805768162e-02,-4.845221409585354078e-02,7.644373787176778068e-02,9.675359358514076802e-02,-2.027608545560514175e-01
4.274448152258056993e-03,2.849368514357743807e-05,-1.709731337271621909e-01,-6.249638612096960338e-02,7.107708037082226260e-02,-2.890875235670641637e-03,2.501932346526777179e-02,-1.880945151949673863e-02,-2.724089601019736434e-02,4.992559906170199874e-02
-2.116298946597442165e-01,-1.975125291466277300e-01,-1.164397848323947271e-01,1.577456001060297767e-03,3.239725874159203878e-01,6.430269147517009287e-02,-4.173366820884489431e-02,1.946527375653147596e-01,-1.288997148252077861e-02,1.816525513239785616e-01
2.907120890089504028e-01,-5.893241904466708925e-02,-5.670594017473611081e-02,1.413169892520524107e-01,1.993123242214976665e-01,-2.476523360755706338e-01,-5.752794956535792203e-02,-7.515227150489824093e-02,-1.374132367329894133e-01,5.603886728674668111e-02
-1.068208471424357403e-01,1.727782708732211459e-01,1.027461678587409249e-01,-8.059634183612414404e-02,9.666226231795854718e-02,-4.257413535499803697e-02,-1.358408079618158570e-01,5.617236594050702136e-02,-9.068354758486356360e-02,-1.466256413763677435e-01
-9.116535840213606245e-02,-1.063544219820445197e-01,-3.227331677303252877e-01,-2.434445271052324278e-01,9.625018742833053864e-02,-1.617222966886119884e-01,-1.068177945430944381e-01,7.376488519489556028e-02,6.332837830628530729e-02,2.903043482568592459e-01
1.336773202641802077e-02,-5.225826916528173924e-03,2.000248965284192604e-01,8.132590951570897730e-02,-2.014030793672214881e-01,9.224595200286195285e-02,-1.688464157124187348e-01,-5.016482952434684478e-02,-2.524456140046281785e-02,-1.459812554091605152e-01
-1.512658758713546214e-02,-1.598103658006188865e-01,3.434021719196799632e-02,2.747389114480274785e-01,1.916132696801990110e-01,1.266414323688858923e-01,-1.311656250284096992e-01,-7.871113061971818370e-02,-1.665001922626158370e-01,1.431193211904559226e-01
7.478762644201981946e-02,-6.985781218221362443e-02,7.899346517731596976e-03,-5.235289929330743178e-03,-9.193816771602289495e-02,-4.287154524029015285e-02,3.759297311904448869e-03,2.333309294700381537e-02,3.191387956709219507e-04,-3.925824803290538928e-02
-3.377941830075921192e-01,3.903265587937890801e-01,-1.801746619055859602e-02,2.344373683997244273e-01,-1.548411014813216580e-01,9.839073778582556329e-02,1.788281168320883241e-01,-3.209824809503553783e-02,1.204102432019777957e-01,-5.931973595420001466e-01
3.807269992976616141e-02,-3.999042446812205165e-02,3.672907029339980145e-01,-2.841652672050218667e-02,2.678495354707933762e-01,4.331660996927637342e-02,-1.110472281748744044e-01,1.041708467377157471e-01,-3.550606585248697877e-01,1.202272819037824292e-01
-9.731213699417717855e-02,9.563346114372257845e-02,2.595899405858201892e-01,3.349617987284852355e-02,-7.678548818717163826e-02,-2.082215978222877739e-01,1.349087886031337669e-01,3.531263330837912107e-01,-1.672731251802090646e-01,-1.474274079140669158e-01
5.697244441937288073e-02,-1.349738766128140699e-01,5.755459007993297266e-02,6.025655968692560788e-02,-3.851309711875768871e-01,1.475480681929546567e-01,-1.533503746527922207e-01,2.470523186536858762e-01,-7.696784667744855854e-03,2.057841365893200991e-01
3.239329708040680073e-02,2.185544632276701371e-01,5.471155910292070136e-03,-8.554754031249546531e-02,-7.815038285996457612e-02,-7.746557728682983146e-02,-1.522788936842230934e-01,-3.218683733989920193e-02,-1.520598246570656065e-01,1.669590835180325139e-01
3.187400502421313120e-01,-5.069469788518912029e-02,-1.710448599186972507e-01,-4.372579220846580794e-01,5.373674817271473225e-02,-3.245406936511240764e-02,2.252475782070458843e-01,3.337147799556466898e-02,-9.348867957559342523e-02,1.116049180828866394e-01
1.944312335702714362e-02,1.032660802309570830e-01,1.959444850528918938e-02,-1.577333695821518944e-01,-3.671323782881692754e-02,7.659918158313876180e-02,-1.281593332987625289e-01,-1.083124492137505362e-01,1.169229777212557470e-01,2.802263020299560203e-01
-1.211118334707143307e-01,2.083592369397196109e-01,-7.613824678608249741e-02,3.248231341438819753e-01,3.841846969236055453e-02,8.048831247021626112e-02,8.962618257534199495e-02,-1.347886494062596752e-01,-4.375074701520207388e-01,-8.076656451365558931e-02
-1.676832833290337332e-01,-6.793999491082515496e-02,1.058067674058578850e-01,-2.437512690608525656e-01,-1.336164496098057042e-01,1.355399488505990846e-01,-9.172227163640804537e-02,1.488128540398685196e-01,-1.420093640097466747e-01,4.700331822767749024e-02
-6.969345886668150414e-02,-3.135218427752323178e-02,5.376642301712430266e-02,-1.426799396208817960e-02,6.100849943329705871e-02,3.721286627525329741e-03,-1.841993788374473792e-02,4.416232795030516217e-03,-7.967770435589685563e-02,-1.444769596241576859e-01
1.691836438750698168e-01,-1.778082020072223879e-01,1.686087245581996408e-01,2.462776886771909368e-01,-1.400882852310788851e-01,7.099062278171748563e-02,-2.591957960402278133e-02,-1.069042684387069148e-01,-8.195509267388188801e-02,9.136914584478711410e-02
1.677233686938597035e-01,-6.574845077614049904e-02,1.979485741304786439e-01,2.960692745630926215e-01,-3.742249153939302686e-01,1.292058950935228712e-01,-3.198683380063191417e-01,-6.102333407956917616e-02,5.884157798351207641e-02,-1.466090386649262500e-01
4.963403279476483188e-02,1.377999217407688548e-01,9.710315031646400696e-02,1.196097924947963353e-01,1.173528071615355106e-01,3.173267861937645318e-02,-1.233930741410745185e-01,1.951404438131071062e-01,-3.507118547761243210e-01,-2.204454229608838745e-01
5.488501745324717018e-02,-3.985211166285458628e-02,-2.007158261884741390e-01,4.915911809109625025e-02,1.618297670457062298e-01,5.063598681846251219e-03,8.675772537784004479e-02,2.953899785962685876e-01,-1.264679560941744663e-01,-6.812716100221848092e-02
1.356540346810386488e-01,2.199169661919260499e-02,-2.403169593258742132e-01,-6.205076983207748198e-02,2.210866360182239809e-01,-2.982835607722405386e-02,-1.670754413288332851e-01,3.204051849191205115e-01,-9.278166951157680586e-02,1.050267778519178713e-01
1.826639901141117184e-01,-2.589504434408242406e-01,-1.716894015232808823e-01,-7.390657688142912574e-02,-1.431413990148385218e-01,-1.168686390431049466e-01,-1.530927429560103026e-01,2.813357788585701402e-01,6.166420914014596882e-02,1.712858732977865228e-01
-3.958257684664601150e-02,5.345153759207520866e-02,6.779320281065367299e-03,2.476155838725887723e-02,-1.316160165008948835e-01,2.733432904882091702e-02,1.492148433366358162e-01,-1.529772025406550551e-01,1.909440250935604821e-01,-1.286503033793171269e-01
3.809144284172339967e-01,-1.278932125687693988e-01,3.729262682472467283e-01,1.131405586155741173e-03,-8.775391310960961588e-02,-3.839257945662959970e-01,1.242128486625583422e-01,-5.526031513552730201e-02,-8.273559021090777510e-02,1.761061836913187240e-01
-1.699606828275196102e-01,-1.819639484455724820e-01,3.768145021826951185e-02,-4.636381590601245523e-02,5.267132187114376141e-02,-1.623327384601911533e-02,-1.509687581859708305e-01,-2.534699245922799604e-01,5.738153957765391305e-02,1.502536185601759944e-01
-8.597830117946451967e-03,-2.855637913620490131e-01,-1.315653297915504727e-01,-6.285760604308056332e-02,-6.654579545642144711e-02,1.400394959270756801e-01,2.281986848691172631e-01,-6.162311100220171922e-02,1.361684847001417009e-01,1.638974057841152687e-01
7.801981080940836866e-02,-1.049016303208215595e-01,1.991928569071062527e-01,-2.287717087300158991e-01,2.167212072752389973e-01,-1.583340283625824796e-01,8.388957739607595665e-02,-2.669133380946758782e-01,-1.839794136547207859e-01,3.236089894998815941e-01
2.156840489040009589e-03,-8.707353443967169593e-02,1.633085812866916509e-01,1.007654927512080523e-01,5.302285501494144460e-02,-3.238765433857237336e-02,1.488472697017315383e-01,-2.234648505642410077e-02,1.864315345938084845e-01,-2.481444765222021731e-01
-2.891383219007773175e-01,3.941874151312449448e-01,2.219365048076984287e-02,3.320289790198777680e-01,9.433031664397989458e-02,-2.490331242530109956e-01,-1.239301462694565731e-01,-6.300412809111015366e-02,-1.227172898144903157e-01,4.074804676045383316e-03
-3.793631874476154076e-02,9.334749987886807598e-02,5.769474924381952363e-02,-1.473828822350404036e-02,1.704567522749634578e-01,6.081096161759138446e-03,1.545352172891519514e-02,-1.389708343731905008e-02,-8.016101213160350958e-02,-2.672654142037794028e-02
-2.557615946492846626e-01,-1.678486086018135884e-02,1.227549035605860761e-01,-2.170627018862480717e-01,1.577420217207055608e-01,2.952180748193840576e-01,-9.865042173144697446e-02,3.531495815962720081e-02,3.056494575956267279e-01,-3.740681021764342695e-01
-5.273193342928580996e-02,2.538760220604329917e-02,-2.406705748601945249e-01,-1.826458557655358805e-01,1.625162779611587227e-01,2.379705934639364528e-01,-2.410957727534541670e-02,-9.813682869080307940e-04,5.392145409217904278e-02,2.008638196926266217e-01
5.304706345723412403e-02,1.263468975201877398e-01,6.543134379207943621e-03,-3.407469299940434765e-02,-8.348828611890003054e-03,-1.235511861763389230e-01,2.199648459243315479e-02,-5.805169122923170555e-02,4.597345695673100974e-02,1.430285178947837410e-01
-5.608319298993877378e-02,-2.065516223502350535e-01,3.012475471332597132e-02,2.640900819060262306e-01,-1.887106935377297068e-01,1.486249966132395794e-01,-3.192590401731356664e-01,2.202286936157823727e-01,-1.074539476751937839e-01,3.397324233635581978e-03
-2.467366102165402808e-01,-1.374726941141538317e-01,7.557935997928344127e-03,1.974080064189368267e-01,-1.182667179130144075e-01,-1.103311371469363755e-01,1.433493445059246807e-01,7.799803371178413991e-02,3.091775251330435362e-02,4.250446376795548320e-02
2.716349756723092645e-01,-1.806860451045545074e-02,-3.950895418222270528e-01,2.792384918121939008e-01,1.741642978747646453e-01,8.923615509367030518e-02,1.083893796715320115e-02,2.433773391651763152e-01,-2.795305900882121275e-01,-3.037704068015208425e-01
5.699337858077790225e-02,-1.934969409797414608e-01,-2.410585838910983270e-01,2.276875595575296729e-01,2.304905440155044505e-02,1.400745872664732328e-01,1.330713206609070720e-01,-7.500178442410607160e-02,-3.252817565899653873e-01,1.310215556107827140e-01
-1.951471685975497694e-02,-2.545276973777865770e-01,-7.140535549943874405e-02,5.461985478258335469e-02,1.427636362845715878e-01,1.982619145588636889e-01,-1.801116891668961273e-01,8.284918997344205283e-02,2.514068614670064705e-02,1.129588636683863563e-02
-1.430384311243907691e-01,-1.275087027872731371e-01,7.046786211877638373e-02,-4.420186794694690863e-02,-2.352040038457667848e-01,1.416735844484052764e-01,1.016574113700978027e-01,7.635716662433029989e-02,3.468287693266931815e-02,-6.289206915967651863e-03
-2.475375284047530780e-02,1.398206617249852790e-01,-2.145082554172093869e-01,-2.290469279935266889e-01,1.443072626041518591e-01,1.783906759435664388e-02,3.959290499939423225e-02,1.674107446289721246e-01,-1.097737747696786864e-01,-1.565950049257124402e-02
6.499799003871337133e-02,2.346263275233144985e-01,-3.030148040889099059e-01,-3.298796257566058987e-01,-2.124189132898727794e-01,4.149877631377786313e-01,-1.984942246977788524e-02,-1.654462514637135839e-01,1.529077488686737818e-01,1.489585206612943358e-01
-1.634241746383410243e-01,3.210603172635261293e-01,3.405746162223145523e-01,-5.899891321590573778e-02,-3.648098413206377760e-02,-1.667451664494423169e-01,-2.956025820965603179e-01,4.606831032784096669e-01,-2.778968164937307139e-01,-2.818541327012056841e-01
-1.778270458877780624e-01,9.936807221534203760e-02,-6.133374301438386522e-02,1.942000911919440354e-01,-7.086711653944856304e-02,9.589525983061154835e-03,-2.068884104612549180e-02,-3.500278974452170622e-01,1.079327255179722833e-01,-2.932866709797875629e-02
-7.593077522141226943e-02,-6.296204239682048898e-02,2.695686006597848849e-01,3.025238325238382431e-01,-1.964860772375761067e-01,3.401640556138944560e-01,-4.387233270593913770e-01,-8.514718066657603335e-02,-2.824535622523696721e-01,-1.938429078287433049e-01
6.733740135655374992e-02,-8.569733942208739366e-03,-1.503911742785929984e-01,-1.602717357606049109e-01,-1.483279099601167265e-02,1.580104504021386802e-01,6.558939786644979453e-02,-4.267549066951582815e-02,-8.371798676238415005e-02,-1.609974472953926844e-02
-1.198315427042271619e-01,-1.900123329248513612e-02,8.838461178909308436e-02,1.892835720125202459e-01,-1.673313252248141703e-02,-1.312264844211473158e-01,-2.633708278145065473e-01,1.491652036964025369e-03,2.321868283393049015e-01,-5.230806884736541318e-02
1.008275356718500715e-01,-2.804538039837812802e-01,8.354997143659537162e-02,2.850849863116381444e-01,-2.387494946388109621e-02,-1.800219654316898843e-01,2.582450437354700742e-02,1.273855975947515706e-01,1.706629440822270971e-01,5.464211725439975520e-02
-2.415300444655317513e-02,-3.703348276821688545e-02,1.221412331855213501e-01,-3.014885731942259506e-01,2.124195622807913408e-01,-2.624812774230753654e-01,-1.547121978258282626e-01,2.363513212669735575e-01,-1.718084730165034824e-01,4.461358175909987261e-02
-7.288176126781384379e-02,-1.311246982618389234e-01,4.588600718572673903e-02,-6.882981135515116311e-02,4.959387249841387679e-02,8.362838591878966887e-02,6.545229263568090594e-02,6.875475985595190520e-02,2.087631481844725301e-01,-1.492162513311397209e-01
7.239653384001489000e-02,1.134711175598188682e-01,-3.306574558397033098e-02,-1.859485745915193389e-01,1.807617951181018645e-01,-1.208689373289102177e-02,-1.016586774052725684e-01,-5.576191222080642551e-02,-1.850888043861130539e-01,2.101691695520606917e-01
-1.167465291841547209e-01,-2.537673838627499401e-01,-8.581414741900648957e-02,1.501271326340589962e-01,-5.922764494215218556e-02,2.759639298601591628e-01,-7.952142574374213013e-02,1.116843029644554314e-01,-1.277539036515408510e-01,-4.064472381552961672e-02
-4.136064082526894059e-02,-1.356135397782310681e-01,2.737157120040538683e-01,-1.783997792108751312e-01,4.018617859261689462e-01,-7.750267002830734699e-03,5.009455730236395815e-02,2.370937510376589230e-01,-8.335883585719660038e-01,5.736909905685745603e-02
1.076440705545229221e-01,3.312357873384949580e-02,-4.143105120051067125e-01,-1.004953625546718549e-01,4.640199277320052051e-02,5.516393355653870928e-02,1.220258508362944416e-01,8.276220251936740324e-02,-6.647336576892409754e-02,-4.234207589882797024e-02
5.793787908383641466e-02,-3.037246953884164061e-02,6.020113110372213999e-02,-1.655633362091765148e-01,1.784868371620703942e-01,-1.759731949336270640e-01,6.856019626113908638e-02,2.021066975829486634e-01,-2.993174930336431894e-01,1.353503985309222335e-01
-6.968069752411222562e-02,8.637803759398669790e-02,-3.847519684925796990e-01,-3.102198272798330492e-01,1.421557224834311961e-01,1.880845772604032295e-01,2.473596288142068389e-01,-1.661598467084509090e-01,-2.711683574220663182e-02,1.993148149305021266e-01
1.477051098610601947e-03,1.070217730332855832e-01,4.393230819265868392e-02,-1.125991032183785295e-01,2.317425245997305761e-01,-4.581459084990548991e-01,1.608955115983467798e-01,-1.194875063721027586e-01,-9.022030581649984060e-02,1.089307760091695054e-01
2.059690406719259514e-01,-3.038866667412365441e-01,5.139463442503118262e-01,1.325950788677231207e-01,-2.006869049752713074e-01,-6.894232151684678844e-02,-1.906395367998653390e-01,1.296391903210350471e-01,-7.394892657484126997e-02,-1.575861502684649529e-01
-2.434945174264663004e-01,1.094035085491157355e-01,1.212981691147433649e-01,8.838602046819017677e-02,-1.528073143099229203e-01,2.609006879034937373e-02,-1.398061205297400078e-01,1.500854002276104937e-01,1.803524170760072987e-01,-2.000519667914237298e-01
2.891801823209882646e-02,-5.463141811328834502e-02,-7.419635505428874567e-02,-2.974880170641126462e-02,-1.204660689644736493e-01,2.243135199606403340e-01,1.174075146110055701e-01,5.884665204511616010e-02,-5.277694004975112818e-02,-4.646206124552190037e-02
-1.462237829052076277e-01,7.294230583487489039e-02,5.262925518698518407e-02,2.083436954485147485e-01,9.321893110042411834e-02,-3.027978690732845979e-01,1.138950057520125292e-01,8.869799835293301626e-02,6.086726170199366348e-02,-1.202620037600042879e-01
-1.119671037139799291e-01,-1.191345048914693450e-01,-1.661687091150223505e-01,1.023097472147889014e-01,2.920284549371029645e-02,6.997846292828664716e-02,-2.139121062687185382e-01,2.605419353770526206e-03,-6.532577358921916322e-02,1.406806451011552439e-01
-1.026336051387265191e-01,1.882936918925944281e-01,1.007743526737945872e-01,2.502019846740281134e-02,5.782449172668439191e-02,-1.357819977736578476e-01,-8.491920762374875753e-02,3.093834534328427921e-01,-2.220121672053477491e-01,-1.450826439034880178e-01
-1.334438132059338755e-01,1.157300339888374212e-02,1.421279084499461713e-02,-7.615937510685366965e-03,-2.607321088961377098e-02,7.102990167891781725e-02,8.248126189597006219e-03,-2.402008594683033571e-01,1.669931947971685371e-01,-2.805345102357852116e-02
8.909379290949993521e-03,1.207091322583824997e-02,1.864154664927985539e-01,2.348652128430194982e-02,-3.216127950244240252e-01,7.360818708418286581e-03,-1.162079879366892804e-01,1.858805629708733254e-01,-4.093030705814412751e-02,-1.553201382645958729e-02
-1.415000075736334018e-01,8.896664713262671109e-02,-9.344731836449986229e-02,-1.738007063218680592e-01,1.890231422861350652e-01,-2.783310407816238508e-01,-6.480883531919909291e-02,4.564158733984629429e-02,7.534576199371462168e-02,3.395025003352671877e-01
1.118074232214377045e-02,1.267819330177966108e-01,-1.191892523842406765e-01,-1.521484251267744281e-01,3.455928520969732687e-01,-8.780239095861697152e-02,-3.081196622665447957e-02,1.328578667657629997e-01,-1.116995407077240460e-02,-2.578620603553553603e-01
-9.074344881099688509e-02,1.794268114283992799e-01,-5.455436365302478441e-01,1.292201804165490353e-01,2.282907740388130935e-01,1.404142820912399059e-01,-7.162108220564067373e-02,-3.971603894576376283e-03,1.073989517313369418e-02,9.942051618981620487e-02
-1.065294690404982800e-02,-3.424819749195959911e-02,-2.187754930837185474e-01,4.706544836917913449e-02,7.266888923667997116e-03,2.459793332342235031e-02,3.585909933826927215e-02,-2.922502274501223227e-02,-5.782023269109328421e-03,-6.821580134800787898e-02
2.859253133820642556e-02,1.624923073842956533e-01,6.010977618701195124e-02,-1.894114693735491350e-01,-1.531599485419056772e-01,-2.431226461149274543e-01,5.774911151028906675e-02,-4.742409605574125081e-02,1.524903106374811967e-01,-9.928254377125519947e-02
-7.429874717788476080e-02,-3.321989455133292357e-02,5.628664677805730182e-02,-1.987900854827663946e-02,8.724544965345412684e-02,-3.083610946545618445e-02,-7.132869353952327185e-02,-8.397123771164713424e-02,8.764386684836215913e-02,3.825245466941661066e-02
-4.831791009637188827e-02,1.284846455592466019e-01,-5.232535401446058304e-02,-1.872847583987659326e-01,-1.148529217170948802e-01,-4.734813827257245561e-02,2.202414768880260887e-01,-3.579275400560891912e-02,2.226120314336743899e-01,-2.261668110429901901e-01
7.300691833303867007e-02,-4.823343467867329676e-02,-1.186400834636146123e-01,-7.636703291302258945e-02,4.724917958179877808e-02,5.844545653565700466e-02,-9.958425024514484802e-02,2.273654129455189576e-01,-1.718376410206880756e-01,1.001639041616051579e-02
-1.817938239159910263e-01,-7.937428148396771799e-02,7.822274388974412296e-02,9.438588620513387040e-02,1.800722383459566200e-01,1.288848500531715180e-01,1.240451378412030237e-01,-5.624400710600529693e-03,-1.468485313589193986e-01,-4.754684400209571553e-03
-1.417939262753266094e-01,-2.033999713478307769e-01,1.436640098629991813e-01,-3.591821367992833469e-01,4.726089987123907599e-01,2.293720929317733526e-01,1.789602110173412197e-01,1.734521764963267709e-02,-1.030477426976718486e-01,-8.814770547321013061e-02
5.398366187872652433e-02,9.188839730412706741e-02,1.586895407212984138e-02,-9.734624959434157176e-02,-1.062434512267546594e-01,6.533115479407804183e-02,1.721800148319288237e-01,-1.383101238698924151e-01,2.077374848704408583e-01,1.149506147023047903e-01
8.296140702690021906e-02,-1.040187481056424265e-02,1.589912551954788811e-01,-2.191680719136482880e-01,-1.249985725808604349e-02,-1.424620526943524701e-01,4.116074035428263916e-02,6.700800170764184549e-02,2.340468178361014562e-01,-1.866673675014979550e-01
-9.069170302291774954e-02,-2.952421011882673807e-01,-1.243129759742857970e-01,-1.431128970809441014e-01,1.423156007609482077e-01,5.162987165831658398e-01,-3.565879143910063998e-01,2.377878539229413835e-01,-4.978583503284852302e-02,-8.745052013223654497e-02
2.562028190000640790e-02,4.811364930079201768e-02,5.405138550967394928e-02,2.143980998923305514e-01,-6.246490919944935188e-02,-9.909938739446084999e-02,-1.493997644847514794e-01,5.702901620493947693e-02,1.283732226975071167e-01,-2.038006850513891799e-01
-1.322648869523289361e-01,5.548945050285276209e-02,-1.167966768447383369e-01,-1.127513816985773187e-01,3.959998841380742429e-01,-1.100501423678340168e-01,6.596438480933751458e-02,2.814763639172181489e-02,2.099209085544377351e-01,-4.011679396777532713e-01
4.744514633155205718e-02,7.650793603312187885e-02,-1.918266809214305146e-01,6.033535165788835031e-02,-7.242434791414094353e-02,2.881750671428317534e-01,2.617760572771899996e-01,-1.754926970560467259e-01,-3.449570196438534464e-01,5.115038604906351621e-02
4.394135709005046464e-01,-2.025468699892866153e-01,2.002067532315581488e-01,1.278517778320199805e-01,-3.421580586770872068e-01,-1.256729441472082820e-01,-1.859283541115395455e-01,1.108213928369692070e-01,-1.330580537647055028e-01,-4.289733458207827671e-02
-1.482405101729389885e-01,-7.396158861913605664e-02,9.252074238000419781e-02,9.094320154586223517e-03,-1.543710492860516925e-01,1.924331108108965627e-01,-7.726909815096208445e-02,2.549783596639279559e-01,-5.624558094183419732e-02,-1.863841273906207130e-01
-6.849418192980270825e-02,-9.985167121154557568e-02,1.975619749940293879e-01,-7.817479150759714399e-04,8.642666185201325346e-02,9.624790594760205750e-03,-6.397915942830216529e-02,2.169012940264258837e-02,6.928566202360560145e-02,1.672898439839646534e-01
7.055898920907169650e-03,-5.556876370891016687e-02,-8.320462469094349126e-03,2.245446994478181024e-01,-2.418699404781695927e-01,5.508361253176310424e-01,4.497269525004276430e-02,-1.745684282238417762e-01,-3.224764151243831867e-01,1.286281180986878665e-02
-3.389273379454731810e-02,1.143539662874599599e-01,-9.159058521124584240e-02,-2.482877055701882552e-01,-5.910857762245557735e-03,7.662737078239126309e-02,6.999702260930086356e-04,1.925714724609387807e-01,-4.818328529184402742e-02,-1.030947550993273620e-01
1.347688317784042911e-01,-9.776001046343954504e-02,1.050718439204263548e-02,1.675581124899123975e-01,-1.285183867970055849e-01,9.031920983026398009e-02,3.173238154263152144e-01,-2.259464144377782424e-01,-8.959509576469086578e-02,-3.055602058388914855e-01
6.634728305126678938e-02,1.356157093478795872e-01,-8.220222488237767522e-02,1.438813991576995133e-01,1.022761391804205972e-01,-3.061247585894785184e-01,4.233121997251407254e-02,5.872778928532617487e-02,-4.434052105589860598e-02,-6.168473008523311235e-02
-1.260260686131695340e-01,-1.368970246132763524e-01,-2.994299113910232069e-01,4.244367346556167098e-01,-3.652337900338203242e-02,1.376215911840162481e-02,-2.674458513642388180e-01,1.107791873468898583e-02,1.701497730443427558e-01,2.615356228318066467e-01
1.848566441742963140e-01,1.389241400161639328e-01,-1.798329182941173915e-02,-9.160405867645965428e-02,4.394508705246134850e-02,-1.822075492731783930e-01,2.121193490762098011e-01,-2.061762912302501916e-01,-2.846439277157676306e-01,1.487272912368254041e-01
-7.185787964296636021e-02,-5.097092441346828123e-02,2.766949738237228784e-01,-1.159952471973851040e-01,-1.156912540834778846e-01,-7.333524087761339461e-02,-1.969953571919656476e-01,1.217851335806400953e-01,1.625828917745679447e-01,-1.202481956521051637e-01
5.263871408083125279e-03,-1.224412970145410257e-01,2.543394169812310812e-01,5.660552996608041176e-02,-2.721243389036385185e-01,1.940557714693608993e-01,-1.386733311896042875e-01,2.375015520310085892e-01,-6.441925763397811366e-02,-8.061645216986751405e-02
1.395866563584048370e-01,-1.699079738752204694e-01,-1.060847821674812952e-01,3.371766364351110878e-01,-3.318608406265953492e-02,1.763498026609764541e-02,-2.810885822412357293e-01,2.694763356681691494e-02,1.405885494450199447e-01,1.213558521345263902e-01
5.981010678142726494e-02,2.390948942582348802e-01,4.660934371361485917e-02,-1.176489492028042622e-01,-3.090673322049018387e-02,1.491193345319287433e-01,-2.697572836009310415e-01,2.746667375362155106e-01,-3.957919852620405687e-01,7.386231178313974743e-02
-5.417217714833364589e-02,1.485983211283865013e-01,1.094843136590990668e-01,2.356206068228159090e-01,-2.606307773055918098e-01,-1.334051203886525705e-01,-7.979337123315737024e-02,1.832380189295484685e-01,-1.883585494744457745e-01,-6.697900920025018356e-02
3.520993201588904498e-01,-2.655088845953739729e-01,-2.283732687217771562e-01,-3.525476949275311613e-03,-6.306613256856270777e-02,1.644880938694647798e-01,7.616137109001752670e-02,-2.129284337050746934e-01,-1.709070552565409434e-02,6.343426621739302329e-02
-1.333201864022963423e-01,-2.247966598325305473e-02,-1.102712172402173230e-01,9.896401706721238978e-02,8.133161777500247380e-02,-1.287509774395993456e-01,-1.880835907566376086e-01,1.491040591610718995e-02,7.064110338386171695e-02,2.523288108971102339e-01
-2.970005400790284161e-02,-8.637575568917750524e-02,6.765115784419528655e-02,-1.111436230153957649e-01,-2.210821958719636215e-01,3.713480766567510694e-01,4.245835251476084635e-03,-1.369320664067389393e-01,-6.259607108943342213e-02,-5.857498298986184987e-02
3.513316859236990247e-02,-2.603467374190752970e-02,1.397342839582887963e-01,-4.010728701626077586e-02,2.703749214395813685e-02,-2.716087293151421556e-02,1.137149940815492845e-02,-2.592216245289380994e-01,2.559051093324648529e-01,-1.651006937079483317e-01
3.754715193058581757e-02,-1.608218614972889149e-01,6.263401485063678498e-02,5.320059212257120113e-02,2.130537429642644868e-03,3.118330994070051335e-02,1.158826605006764293e-01,-4.197603904903824019e-03,-9.504245054154930594e-02,-1.511084393837639483e-01
-1.140041427118499706e-01,-3.426772354182891500e-02,1.306869345572882722e-02,-3.474653298288042924e-01,-5.173887814828138920e-02,3.167319982652488930e-01,7.772059746949316894e-02,-2.291194993524110768e-01,3.664851065553114129e-01,-3.550617231254431239e-02
1.574482109988066258e-01,-4.494466817577558518e-03,2.015435664914151381e-01,-1.720656823267285862e-01,1.445053935040887805e-01,3.599804540464531920e-03,1.329619049082357007e-01,1.327228235480987784e-01,-3.325307721486018275e-01,-1.699945685298497877e-01
-4.663370576194713485e-02,1.885188106708497457e-01,1.735102702677814857e-01,-8.358686673624603214e-02,-1.619282677166292428e-01,-1.431366589192490102e-01,4.042198744671791216e-02,-1.003304535067413156e-01,-1.674979027369061790e-01,-1.859265767958826268e-02
-2.020194244676385906e-02,1.096453537361256059e-01,-1.101519603654268348e-01,1.962636223815160119e-01,3.514308291926053485e-02,1.549981353867121159e-01,-2.788107901323172086e-02,3.836141694616997978e-03,-2.469467993812484718e-01,-3.006735365348541245e-01
8.132533395043542446e-02,-1.750271761104504539e-02,2.107500390694048431e-01,-4.978031734123659902e-02,9.196694664954008225e-02,-1.074646865043812766e-01,-7.262796180231630150e-02,-1.955922549973385938e-01,-7.272567825942134745e-02,2.281921339217355404e-01
1.248908934551955369e-01,1.889672704651302049e-01,1.572847502132026232e-01,1.039597107449905800e-01,-3.095989109082823362e-02,4.069740275242945127e-01,-2.843609213887873799e-01,-1.029847318725405358e-01,-4.104496816561879480e-01,1.188213005464824890e-02
-2.254919629673822826e-02,2.366602019021175063e-01,8.892036151087145956e-02,-1.143732456591330521e-01,-1.475290478447273054e-02,-2.998566480018943770e-02,1.150583216782083695e-01,-4.233871844180719241e-02,-2.093759280579815807e-01,-1.431531675842546113e-02
1.253064212202342591e-02,-7.897112122730512440e-02,-5.997724960497152064e-02,3.926926338546686546e-02,-1.797405060728134718e-01,2.425841483531702425e-01,-2.388352617414039175e-02,9.956217316939976192e-02,-3.334992703914935186e-02,-9.972616808397007093e-02
-1.092707088018455008e-01,-1.375285074064184175e-02,5.940352048353224508e-03,-2.022694980189397307e-01,2.642699278676849048e-03,2.767736329702398246e-01,1.024999467350490440e-01,2.371798910800287236e-02,-4.879659551967306663e-02,-4.189725636244034240e-02
2.065831723019327382e-01,6.450776005397297619e-02,6.836594269273892077e-02,-5.869600034090245722e-02,7.599904814109553763e-02,-2.864320307944909771e-01,-2.796633804880688939e-02,7.918005625371447864e-03,-1.028012535272367634e-01,5.471275694575910425e-02
-1.293943732478788911e-01,2.034389332691685925e-01,9.684184881049240357e-02,7.732533932995899750e-02,-2.001199007398798135e-01,-2.666550637042695571e-01,-2.978623706613959810e-01,-5.344998643504687147e-02,1.330866437907977096e-01,7.093416188082883600e-02
8.539057010695161321e-02,-1.433045072987491064e-01,-6.248671937101469426e-02,-2.884010240539346820e-02,1.276828028999454911e-02,-1.630191064300432202e-01,2.943610135768352509e-01,-2.154446028064190277e-01,1.237318981871063511e-01,-8.903665796610096828e-02
1.077099360695110350e-02,7.216799974797485917e-02,2.487094107317622538e-01,-1.721207373059157331e-01,4.152874181401904063e-02,2.567207723568169439e-02,-1.389117952377778298e-01,-1.169176741183185209e-01,-6.629896728602198246e-03,-7.283221660876512682e-02
-6.270173776578982783e-02,1.437973435803756306e-02,-2.295435643796776282e-01,-1.867855294333632121e-01,-1.694109839858652655e-01,4.471432189075674746e-01,-5.611180894239837375e-02,7.118752393494517938e-02,-1.937360730767723471e-01,3.310524233110189729e-01
2.892627166045714793e-01,1.797634973448542298e-02,-1.794760118121256909e-01,3.587255725499249349e-03,-2.009439898084493248e-01,1.426583028500970907e-01,-2.483526715714771613e-02,-2.537540511143929201e-02,2.292041958194213636e-01,2.196922224603329796e-02
5.318897477953042630e-02,-9.417248038579954794e-02,1.142530474273674018e-01,5.291210570310711167e-03,-1.313060048459085416e-01,2.929102034119632769e-01,-5.736802217851456887e-02,6.111526191203187075e-02,-1.195293558774537107e-01,2.632804040202305421e-02
-1.765750097728435719e-01,-1.382785028011273010e-01,4.285034954251720762e-02,2.053563208039101973e-01,8.701607251611233329e-02,1.887012263470766449e-01,6.246981773445432068e-02,-9.995167900557908047e-02,4.188957478007516305e-02,-1.500063282819962332e-02
-7.107759073631950142e-02,1.588558413396005953e-01,-2.120461391957030040e-01,3.624582599563705432e-03,1.160651902876716490e-02,2.551018955382853837e-01,3.676747305942567462e-02,5.490673769396679782e-02,-9.098581739656755318e-02,-1.853036173824748334e-01
-1.805325851533253756e-01,1.943267333358986715e-01,4.782168513716484326e-01,-1.917450841278236368e-02,-7.103741667281326944e-02,-2.164348597186419587e-01,6.056605108397011134e-02,4.028640637780120937e-01,1.080968932945449226e-02,-3.236615031234744699e-01
-9.313965778415654595e-02,2.964617803499334237e-01,9.343806084072797669e-02,6.501978049322883202e-02,-6.809734086384955365e-02,1.936309829612307687e-01,-2.082284069042775188e-01,2.389585113790922144e-01,-1.647930727890640767e-01,-2.113246226199497202e-01
-3.998754423566940053e-02,1.193248357456093561e-01,-3.174580627599185578e-01,2.988118738709838462e-01,8.435162815632325783e-02,2.292263098745631333e-01,-1.386844275849782038e-01,-4.234091031686034179e-01,-3.569252419108180918e-01,2.053350375462494326e-01
-3.064224593510489481e-01,2.304086085273503864e-02,-5.113170062102501134e-02,-1.165943135326143604e-01,-2.210851774740855979e-02,1.465052323043953275e-01,1.117362704286114644e-01,-1.380563730927696076e-01,1.403109474207866192e-01,1.419515819004731061e-02
-1.082990241967733830e-01,5.016966042431248579e-02,-1.035329735037274906e-01,1.950937688655199620e-01,3.629340601581064474e-02,-9.892120531344837653e-02,3.029956136811276513e-02,9.343143840541792700e-02,6.618406529899707735e-02,-1.055806765863941555e-03
2.090938876760251031e-01,-1.728466046049497995e-01,-1.311595904391348391e-02,1.336995427683480842e-01,1.778307560625212724e-01,1.698277376506082403e-01,-1.045296874940796483e-01,-3.019483311487720922e-03,1.708853262625233127e-01,-2.322020965555957606e-01
3.028487301725410127e-03,3.054596021213699109e-01,1.660302108193226767e-01,2.873463319454864218e-01,1.482491969019447131e-01,-2.607211547052978307e-01,-1.063985574221363445e-01,-8.733205776116140240e-02,-1.964007167148426325e-01,-2.405630811302751082e-01
6.917607527617423979e-02,6.303088762559440339e-02,4.712372009548279617e-02,-5.109160599042150003e-02,-1.179952177016978659e-01,5.176204547089811869e-02,-8.173085470150241727e-03,1.982202040023871292e-02,7.341358431359766568e-02,-1.543843033390201319e-02
-1.251421372843357915e-01,5.339391663300941948e-01,-1.018973636876812916e-01,-1.392471149512805040e-01,1.353983830973461977e-01,-3.219776779540810541e-01,-7.834160470189524203e-03,-5.371916361355706659e-03,-3.037546980570484112e-01,-5.102348847520652569e-02
-1.923331984821847473e-01,2.473119718143363122e-01,-1.320937410806740930e-01,-1.831985417274277772e-01,1.133818981331217654e-02,-6.728579135559344115e-02,1.718346501758483136e-01,1.294896567284182509e-01,6.882469141903169163e-02,2.826423262576761158e-02
6.439339004261629418e-02,7.679147895083210384e-02,-1.121990125073348693e-01,-2.459191550295881934e-01,-3.241061298666874646e-01,1.741294074909370826e-01,-7.339734828243527076e-02,-1.137740649023699785e-01,1.055593032795980463e-01,3.926166952700989587e-01
9.418824910489637103e-02,1.012693060679951823e-01,1.988774780043047474e-01,3.624610349129656073e-02,2.537682608354789159e-03,7.185739197608907725e-02,-1.683409151869061093e-01,-1.295076148879656386e-01,-9.500126931484453169e-03,-1.263685409465800658e-01
-1.775655610876765989e-01,-8.209143039133449948e-02,1.918327634508697477e-01,4.284198857343680944e-02,-5.237976474770227736e-02,1.097210646295681269e-01,-2.523373941455457903e-01,2.397041819215733061e-01,7.140412912550200830e-02,2.689079767540811794e-01
-1.548563177969168869e-01,-2.738014422238459547e-02,4.144950179892321201e-02,-4.117459228473601546e-02,3.266963047401441611e-02,3.047445121418243530e-01,1.579577484780007868e-01,-1.477291919982107737e-01,-3.153473138869788972e-02,6.514905734565168416e-02
-2.623577835535703673e-01,-1.148846923997524777e-01,-3.188775785996458140e-02,7.372075534389846418e-02,2.828448383235593888e-01,3.898224199547072055e-02,-8.314888452849208966e-02,8.531449314300137976e-02,-4.131544419748662406e-02,1.790813541903208961e-01
-9.427696821088546453e-02,-1.017608661844992927e-02,3.656002692050703412e-02,-1.345047631797670895e-01,1.368250328268434679e-01,7.565540969906288382e-02,1.863954052345387705e-02,-1.883643991161577241e-02,-7.240402724133268055e-03,-3.139627690348228278e-02
3.453422010422069893e-02,1.071490020061436343e-01,2.069528246231024382e-01,1.315074151344455128e-02,-1.457499292240078403e-01,-2.465050826459020891e-03,1.137253122457575899e-01,8.467280523045489504e-03,7.097438382742754515e-02,-1.419862981130103619e-01
-2.273101219206510870e-01,4.414443337423026859e-02,3.506145313222473747e-02,1.075174602200722751e-01,2.847791583810002081e-01,8.079437329424039860e-02,-1.725215944982927962e-01,1.113444389584994226e-01,-2.376783443408300722e-01,-2.398329320458641306e-02
1.119250283018267678e-01,5.436938828397227391e-02,1.330757010499098725e-01,-1.303439288336292190e-01,8.941103534497173155e-02,-1.722302412694360629e-01,7.801462495829908361e-02,-5.882645269571930985e-02,-3.594345824739660772e-02,1.220481379313192033e-01
-3.873379897223235696e-02,-2.416623866372122342e-02,3.469655830907125704e-01,1.347923126251674049e-02,-3.463832543528490571e-01,3.108790720972813282e-01,2.238391228021351376e-01,-1.715388754742524779e-01,-4.116089351702227339e-01,-2.009420606054058978e-01
9.097406629805647460e-02,-1.136868008298817651e-01,5.393638900305156025e-02,9.802078837367161901e-02,7.312044452611274337e-02,1.797119097855952030e-01,1.409875394695742912e-01,2.076044450254268536e-01,-1.738002714676950833e-01,-2.530471067551149922e-01
3.366743033453729883e-02,-2.016283312789624860e-01,1.133913121846871624e-01,-6.872534109017376658e-02,1.361107661124934809e-01,-6.889821304027024529e-02,-2.003416722697645702e-01,3.899543724696754032e-01,-2.926960912142512194e-01,3.439462287927507189e-01
-3.535337055498888326e-02,3.790243458433275453e-02,1.274158953501498270e-01,-4.512251408891091581e-02,7.086088307833333932e-02,-7.711361947097453151e-02,-5.185791944829145489e-02,1.496649632769135596e-01,-1.396392824552216416e-01,-1.100639856851172299e-01
-1.411410474614320232e-01,-2.489340020861113834e-02,-2.807210377080786023e-01,1.987576519713720943e-02,1.339528727412669061e-02,2.502159303859037287e-01,-2.022684688001885889e-01,4.227141715656967391e-01,1.637483491779940237e-01,1.369982451866521844e-01
-1.481845556803789155e-01,1.459153400849834137e-01,-1.724975280847708403e-02,3.964365492499320465e-01,2.912477183333972430e-02,-4.031973209859315288e-01,1.347386255846026171e-01,1.055113249336768755e-01,-3.200189589899252729e-01,-2.567309220561232452e-01
-5.923094214296302333e-03,3.970740406174571441e-02,-3.049078077722703894e-01,9.896545802187793617e-02,1.526001610617647442e-01,5.575386712045910659e-02,-7.094905451118445339e-02,-2.632877161143213837e-02,8.366238260298038132e-02,-4.910119420936599061e-02
-1.914640194582759303e-01,8.836246204461162268e-02,1.475224059683828692e-01,1.314536379405797373e-01,-1.729010241468720566e-01,-3.336187693835993007e-01,-7.996550367771516898e-02,2.379302065422968515e-01,6.488307618164991519e-02,1.165847521434170697e-01
-3.543953430037727510e-03,1.268234180725055782e-01,-8.848496461555952278e-03,3.924638696991753634e-02,3.668353492517934522e-01,-1.950849078093418176e-01,-9.397891971699580405e-02,5.862277991884124601e-02,2.746988140529747074e-02,-6.184302346816463597e-02
-7.638551558493923352e-03,2.164767914528694381e-01,-1.802976561077707096e-01,-1.167068176045626404e-01,1.171666677412654123e-01,-8.205323626122300318e-02,-9.102473761468762858e-02,1.004654962376896193e-01,-9.799013246068423097e-03,-6.279110363614090473e-02
