1.017878979237234749e-01,-2.599928586191783964e-02,-2.131897367902701734e-01,7.310251370794396131e-02,3.129028040659886239e-02,-1.123975235528397038e-01,-7.133738592703471604e-02,1.777350546494844696e-01,2.134172246178716453e-02,-8.902960205203459820e-02
-1.724554468241147956e-02,3.967529789699195675e-01,-2.669922611006173008e-01,-6.007173326604560160e-01,2.701712355480634375e-01,-5.576086101652107108e-02,-1.331524964875443195e-01,-7.523065323052427478e-02,-8.384630469937427721e-02,2.972852548060212485e-01
-6.745913012447925239e-02,-1.994831214138026998e-01,-1.605938460714101679e-01,3.194615119290493410e-02,2.669129885352473641e-01,3.321137174643284395e-01,-1.615716132846699016e-01,-1.518615954996990480e-01,1.039510113717766193e-02,-1.489136663450826500e-02
-1.988231463441692826e-01,4.810025689013363026e-01,2.896956106645999784e-01,6.653909486125658690e-02,3.435510638117610094e-02,6.422064110951311577e-02,2.292838214073207592e-01,-1.810389520700122767e-01,-6.980084671358645076e-01,1.598334451018965791e-02
-8.073170243250547828e-02,-1.725091140967768555e-01,-2.653994178354360245e-01,-3.695031395690607234e-01,2.056114462005775301e-01,2.372465248965869022e-01,-4.251166498688830481e-02,3.415495729958751593e-03,4.663262976833026929e-01,-7.770000376108623930e-02
2.747996223408998295e-01,-1.454113342852375312e-01,-7.463740957539720389e-02,-1.370093655139766609e-01,2.313844651537146357e-01,5.492143567649591107e-01,2.111723099294552930e-01,-1.321083426629084678e-01,-6.433022323514232532e-01,-4.472567067329176471e-02
2.611363366627996938e-02,-9.593745323966398897e-02,-5.069916332101897030e-03,-8.714287658821830151e-02,-3.597941300487105670e-02,1.556187047166597386e-02,3.437464498670969593e-02,7.047357728875076888e-02,-2.454873090476403924e-02,-7.310230462845934696e-02
2.074574697216731434e-02,7.232977286630647151e-02,-2.456475300945392404e-01,-4.760494207997537780e-02,1.113604802467618726e-01,-1.432408346640795527e-01,4.863626960654034159e-02,1.654467522084906717e-01,1.455437423037564404e-01,8.150951032132998375e-02
3.689670017863780904e-01,-2.703911576456238808e-01,-7.949793478658880030e-03,-5.915376669293673784e-01,-4.697248873921818779e-01,4.953270939059455369e-01,-2.492866944760162295e-01,4.264049566899462684e-01,8.669259543365523055e-03,4.539337886836060099e-01
1.444178912772406953e-01,3.973449460019809129e-03,-7.026104238263312096e-01,-1.550611452405948887e-01,2.405169636856211712e-01,4.528525521514925600e-02,2.928801182744755760e-01,-9.318056119501735846e-02,5.483237736535602480e-02,1.592663251494286225e-01
-6.444324986071016392e-02,-6.307119622635720679e-02,1.509603510103804114e-01,-6.078848978590116470e-02,2.960908296852727273e-01,9.742848626411662605e-02,5.883210219857478579e-02,5.261598917278284548e-02,-2.606019756551283123e-02,-3.120579043777567119e-01
-1.119278202244665954e-01,-1.325909278387610579e-01,2.369877523779331252e-01,-4.860741903911163647e-02,-1.758470967277388219e-01,-3.607390390120812640e-01,3.537856171378834236e-01,2.304315047547492168e-01,-3.210500001907556217e-02,1.141623180092294770e-01
7.846296230949842410e-02,-8.383420603387392936e-03,6.764927123316651081e-02,-6.380742162460138756e-02,3.222912272857940130e-01,9.762513382702170395e-02,4.240529879885510667e-01,9.369542629420350710e-02,-4.169154659366130500e-01,-1.339434914490769957e-01
2.583907614956746368e-01,3.590087553454969771e-01,9.923374577905752503e-02,-7.144354050038929926e-03,1.969341191098665511e-01,-8.746442885403370171e-02,2.258598313239194855e-01,3.981876218036312087e-01,-9.587093045860605178e-01,-1.993180017506440416e-01
5.141581071303423511e-02,-1.277639162794377281e-01,-9.154659484040555961e-01,8.379927246399959673e-02,3.031362497822567281e-01,-2.080374872019971622e-01,-1.473650817166815945e-03,4.463359413787710839e-01,-9.519106894065949842e-02,2.704484179749829798e-01
3.243122033735303805e-02,-4.899742505419127370e-02,-9.834517874711844188e-02,-3.055666091338931842e-02,2.922514647985904324e-01,-2.750827090302541619e-02,4.801762941339242363e-02,-5.045889027735510346e-02,-2.424355850601113693e-01,4.531229604237538983e-02
4.814910582359861746e-02,-3.784397843103856629e-02,-3.917419893918566015e-02,-5.098307302436246025e-02,-1.562933122135157574e-02,-1.851851522775960213e-02,1.764365048477593845e-01,7.575068517693131498e-02,-1.453573189784260755e-01,-5.047972303157079177e-02
1.659259845797622923e-01,6.861676462846159896e-02,2.281438736595129413e-01,-5.293630308559876124e-02,1.350775442957749539e-01,3.295705422071531498e-01,1.379901768362157000e-01,-8.635171010015793569e-02,-8.714444965806645849e-01,-1.066813075211741901e-01
-1.460835829076277508e-02,3.415614215357677397e-01,-1.052195124246922270e-01,-3.212818748117216572e-01,1.005728849429721010e-02,2.191945707183085845e-01,-6.365513619509365062e-02,9.675517289170566804e-02,-2.150421006708265470e-01,7.721375074596190102e-02
4.282733910543818495e-02,1.640785758398541905e-01,-4.082189277712385267e-01,4.485120594339668532e-02,9.401505076401873995e-02,-1.138432840030121768e-01,4.230435806688644385e-01,3.309685487784379959e-02,-2.799729251283885612e-01,-5.970074107990644419e-02
1.155046449616538157e-01,-4.661421955168779108e-02,-3.345993079748038612e-01,8.840122009562896566e-02,-8.412627217696529852e-03,2.893829366812042392e-01,5.138713463115159863e-01,-1.740689534673034444e-01,-2.964282250270763308e-01,-1.126527817048594282e-01
6.952322397283888789e-02,8.017180090753601995e-02,-1.161915317054355162e-01,1.970570448419357024e-01,1.125432209398604944e-01,-2.649363328628869252e-01,2.572695897492406347e-01,3.293103358228466337e-02,1.063557383656616590e-03,-1.737967672074281489e-01
-2.323830932491162959e-01,3.874605133741529372e-01,-6.610531090396468135e-02,-1.603094458839351977e-01,3.389912510786390332e-01,-2.681931252522538056e-01,-2.259762241832141139e-01,-3.682120650941834300e-02,-1.391819654471575241e-01,-3.051108291454494859e-02
-1.772831527852042066e-01,-4.097705256105221849e-02,-4.135435056851055613e-01,-1.948764506739909981e-03,1.061169972745529544e-01,9.563434237540345551e-02,5.584301227516828003e-01,1.320716025875475208e-01,-1.201245553273379424e-01,-1.100196921914356057e-01
6.174360162692309889e-02,-1.491415689881850082e-01,-2.477795505762366360e-02,-1.514826444155204510e-01,-1.454169497930806465e-01,-5.031656996289696378e-03,3.374119054634594495e-02,-1.882544960950928992e-01,4.672898485607576147e-01,5.348666689390581264e-02
1.086812370874602751e-02,2.874002410913633482e-02,1.320755318113998322e-01,-1.930410889434437324e-02,-3.961292310674799366e-02,3.352699071187402458e-02,-5.511627799649505138e-02,-1.207547181247157868e-02,8.097773342645153694e-02,1.100416868303119716e-01
2.490614888369858115e-01,8.910968090356108373e-02,8.751396328784134815e-02,4.582046823624729565e-02,4.893388210067759619e-02,-3.051116880220318128e-01,-6.200712091818075949e-02,6.000680612388122753e-02,-1.332345248494531675e-01,5.099317718855336801e-02
4.248814343857514886e-01,-4.547345092551551005e-02,-2.671677097704057147e-01,-6.192694947546808354e-02,1.236754575999861883e-01,-3.792980564924067211e-01,2.828556270366040445e-02,2.151404291748201802e-02,-4.149035496948657448e-02,9.515689624361753363e-02
2.560477829847613435e-02,3.918172403776463281e-02,-9.956175285364846084e-02,1.000574086509910948e-02,1.684078687257831164e-01,6.638455766693689142e-02,-3.542059901742325434e-02,1.139285013574039135e-01,-2.959020358801414119e-01,-4.430345455096860313e-02
-3.967812149431371171e-02,3.595317950118333272e-02,6.950155518539739841e-02,6.284790554776807647e-02,1.446693621109721162e-01,5.366321371565312831e-02,-7.557624394608468410e-02,-6.793804228630810627e-02,-8.517813707673084489e-02,2.030804119694794574e-01
4.323142167274014042e-02,-7.833364781585283598e-02,1.831009506379651375e-01,-3.028894856834928387e-02,1.049812096597496636e-01,1.403422177587194120e-01,-9.715212414851578937e-02,1.074173708314865167e-01,-1.124681742340602614e-01,-4.363695181504836235e-02
1.063079552300631586e-01,-1.717291317779260917e-01,-1.514723158444158668e-01,4.857562198170681800e-01,-2.780734467771051044e-01,-4.529211321378987659e-02,-2.906272927438895426e-01,6.079628405506731781e-02,1.186769271720383989e-01,2.993287146015182199e-01
3.235476796601398641e-01,-1.032450881752864091e-01,3.517790192263837712e-01,1.290092539010189165e-01,2.159063528201543292e-01,-1.248412167675702483e-01,-1.687722986504973377e-01,-3.745149675174731796e-02,-3.328009783045998704e-01,-4.856420911857757539e-02
2.254240834476214095e-01,-1.944521473457333505e-01,-3.006526108599291147e-01,3.400101352965945178e-01,3.051530031520785502e-02,-4.541722689455846007e-01,-1.881057536181342527e-01,3.430938554961876497e-01,-7.171186062317511795e-03,-3.297301899144883947e-02
-1.406134639180826179e-03,-1.365433668421874858e-01,5.343928186885381626e-01,8.085615104328720826e-02,-2.829233559255687203e-01,1.241636808742723336e-01,-1.401669346239196312e-01,7.323136468167726343e-02,1.842106924922942146e-01,-5.401842105879609557e-01
-7.126252061493705547e-02,-3.047056695969348472e-01,-8.991625523515163199e-01,3.108617053773802055e-02,3.873660415004080426e-01,-5.445451700047667654e-01,2.950999895851533772e-01,7.152793618957149491e-01,-2.315866602694889309e-01,3.040553425013148292e-01
-1.171930802055978771e-01,1.147242506822595542e-01,-1.576958147056851112e-01,2.037518496612827079e-01,-4.869278841571710731e-02,-6.890110125892236377e-03,1.016629762204953047e-01,1.188414062860442162e-02,-2.085528779369351382e-02,-2.549842904070037108e-01
3.090688177110400559e-01,-7.323605686108297305e-03,-6.204327186750583367e-01,7.547646001491613299e-02,-8.812354068277104824e-02,-1.403192457957978534e-01,1.493550166799865186e-01,5.355735078601537857e-01,-6.239053498544352983e-02,-1.096021990852668986e-02
-6.952689901122439953e-02,-3.534819493218250772e-03,-4.197323794235710559e-01,7.346967598676798494e-02,2.332254168757256219e-01,6.704961429875058720e-02,3.595687780460251615e-01,5.004154220428787270e-02,-2.204774989055469092e-01,3.135664225538450228e-02
2.490961837260478179e-02,8.730032164292061969e-02,8.562625892048630200e-03,-5.774164199768746369e-02,-8.259224462124022115e-02,1.610069771292324536e-02,1.532432731883801025e-01,1.641784290826066306e-02,1.021382046076624167e-01,1.538672470615710074e-02
1.323275139845627724e-01,3.480011494530513283e-02,-1.702320152252808638e-01,-1.694895303529117070e-03,-3.158978069082823970e-02,4.673156096878484760e-03,-5.047073618580599774e-02,3.538670470380561595e-02,-7.340815995404216532e-02,-5.470077338887338603e-02
6.939404506952528973e-02,-1.481027032131254917e-01,1.577441433997851805e-01,6.208253150168724366e-02,9.164474451480252026e-02,2.422736078299297102e-01,-1.497648564568012652e-01,-3.912982021419695450e-02,-5.928192991007397161e-02,-8.712742672655617027e-02
4.478543290049672582e-02,-5.727339051890351779e-02,3.671784596727215022e-01,-8.955340905139257124e-02,3.453824467422861311e-02,-2.346605639806073063e-01,9.740728643782066432e-02,2.966222045083408143e-01,-1.124800684285632429e-01,-2.964917714149655770e-01
1.828828100726911099e-01,-2.461169506269396748e-02,-1.959325152292729633e-01,-3.297476638500850266e-01,-7.833270980885423396e-02,1.876180654384749374e-02,8.918583134276703017e-02,3.654171944391127469e-01,1.081024490471874655e-01,-2.074885008404509235e-01
-1.063751309397667072e-01,1.446038606755175107e-02,-2.611227627991640210e-01,-2.004254002689875511e-02,3.752608910740814485e-01,1.610674067202692503e-02,-1.624938521698012298e-02,-1.113442649732706985e-01,-2.198420195996523829e-01,2.703084490870963363e-01
4.085968118012711647e-02,6.682851052030136518e-02,1.406201838107249335e-03,1.358367497247793022e-02,4.206765770791904419e-02,3.598872725988833815e-02,6.793368830837816230e-02,-3.340138979350663895e-02,-7.750137684448057951e-02,-5.138329891030137681e-02
6.701096078263564515e-02,3.181228341598265064e-01,3.401720977313314048e-03,-7.722739263552133582e-02,1.035512843737963623e-01,3.882824991264104408e-01,1.676773470216361694e-01,-9.009000096314254830e-03,-6.192702162703095370e-01,-1.256095572808244194e-02
1.814645681384135512e-01,1.292773155779590732e-01,-2.951162552700574079e-02,-2.610680308651201417e-02,6.729524919208626499e-02,-3.588289228880886528e-01,-1.937621073972283503e-01,7.232476299874320003e-02,-4.383177789207761688e-01,9.255660376554460111e-02
9.495268735115521691e-03,1.847186087988781367e-01,-2.861433489217839465e-01,-1.857121089866774211e-01,-1.278715828120918600e-02,1.123622177092525529e-02,2.927041622813466581e-01,9.708272615687089935e-02,1.445710249295464600e-01,-1.194117101655185059e-02
-3.158278605037748155e-02,6.335155729577840455e-02,3.261484880886917903e-01,2.497788911756212704e-01,-1.867691965656525510e-01,-1.458735293548325540e-01,-1.392968141673461835e-01,-4.850723401823934383e-02,1.287906466805054662e-01,-2.034576040679828279e-01
1.550978882877837306e-01,4.804586034807772910e-02,7.296855255245872363e-02,1.647119091818085301e-01,7.594983096756491303e-02,-1.048699237723374339e-01,1.046320675867300626e-01,-1.099291166509950950e-02,-2.820430746198454020e-01,3.577031809845323401e-02
-5.898544857416128384e-02,-8.820585067690444973e-04,-2.089020624090084099e-01,1.002627014268219485e-01,6.568687767929502763e-02,1.740341921188582885e-01,3.186861268054599905e-02,-2.795564440497923589e-02,5.168748852673416688e-02,-9.785549785053697380e-02
-2.906893104012487142e-02,-7.905559121038985282e-02,1.472917444310933022e-01,-2.227363835544097885e-03,2.448121524322946774e-01,-6.847812818371831756e-02,8.128214719033348412e-02,-2.189011872092296307e-01,-6.219003793856113516e-03,1.008559091221807730e-02
-1.533469137817701500e-01,-4.788109782192258301e-02,5.377048666754131664e-03,-2.770810714489541169e-03,-1.149255185916167599e-01,-1.739007551004431024e-02,-3.602419851967457454e-02,-8.176732169634159941e-02,1.387865290111067185e-01,4.354096451757416553e-02
4.659802484639654074e-01,1.288184586579571023e-01,-1.200911761043917059e+00,2.744645697546715599e-02,3.470858325993662064e-01,-2.262716052230949737e-01,2.298995133478763664e-01,7.124251125153685527e-01,-6.107855882145294402e-01,-8.706755497368580399e-03
1.907705125533004642e-01,-2.141031858846571823e-02,-7.033668108625602822e-02,1.452185151955566467e-01,-2.414256242434686117e-01,2.205388392379755702e-01,-4.351476506546735762e-02,-3.324171084300772423e-03,-5.508810599218898901e-02,-1.360382940180761835e-01
9.238761732185263656e-03,-1.688631024910528834e-03,-1.924590506274055091e-01,-7.639610307452665561e-02,5.201644305344721442e-02,2.596517720745247781e-02,4.783987094592039024e-02,1.538225150178996470e-01,-1.232035286547202013e-01,4.039884264028346245e-02
1.140444470559880824e-02,4.307539891762676015e-02,-1.972614575799631551e-02,1.121872627428615599e-01,-2.967870832899868749e-01,3.078643133675297849e-01,-1.628121436996781135e-01,9.125433906750524127e-02,-4.401351757917739554e-02,-1.009790226735232839e-02
-6.897196240190093044e-03,1.786737718009328013e-01,-4.294688652230808090e-01,-2.277120180774971220e-02,-3.005246085411021964e-02,-1.374680060443211616e-01,1.292452512614328253e-01,2.373343012437006128e-01,-1.383375658924391738e-01,4.744161779249977950e-02
5.700501808956638661e-02,-8.474998541165747190e-02,1.253782055767760639e-01,-2.195705313269302045e-02,3.097677302990600387e-02,-2.490896496103733870e-03,-2.651518809322843742e-02,1.180986276590050565e-01,-1.064492512215060027e-01,-9.041575520935239696e-02
1.339190622636286798e-01,1.378117499462297724e-01,-1.709617808669466887e-01,-7.114128421934162727e-02,3.210510243728579849e-01,1.297016596787478049e-01,9.219193350939547393e-02,8.360899300529302247e-02,-2.231910411142854767e-01,-6.465159535529545025e-03
-1.876402748277740395e-01,-1.596884288033776078e-01,-1.506284715790256745e-01,1.772751544803634685e-02,3.708361545964746764e-01,1.622854997836600532e-01,-2.871578613624197751e-01,-2.285284292329185230e-01,-6.789894255735026696e-02,7.590614503951487180e-01
5.660783973320672458e-02,-1.494455224807938153e-02,-4.886821182625835508e-02,1.378809106356770897e-01,4.543888799457146410e-02,-1.928674683708811108e-02,-5.980625188126862876e-03,-3.568921868953206771e-03,1.608531522936283015e-02,-1.766482966665442467e-01
-2.190018249289688024e-03,-8.688668832018557608e-02,7.457169183978930305e-02,7.477902297809037313e-02,1.348512432597224380e-03,1.963940331308483278e-01,-4.659937946111285950e-02,4.257470209242674580e-03,-4.207513843245024032e-02,-1.126881840997382700e-01
2.059658834949500972e-01,1.080416686976121976e-01,4.425571273080854129e-02,-5.303676643255755743e-04,1.097246595616675896e-01,-8.603048294154473641e-02,-6.725363860926984738e-02,-7.809123404490653057e-03,-1.712932405394586993e-02,-8.375289907301386449e-02
1.462220996054891253e-01,1.166544346772625668e-01,-5.240894038463596027e-01,-1.357377463884897606e-01,-1.028071782763226444e-01,-4.006905582063967353e-02,6.060486174352955890e-01,-5.321060221067589607e-02,3.072326802969129259e-02,-1.098421816521615441e-01
3.232447077165736538e-01,3.011845811156219632e-01,-1.448167316913400171e-01,-8.036676148750407367e-02,4.474919712447208292e-02,2.865014790815512830e-03,1.820431740243509677e-01,9.723896563998488118e-02,-5.822346032366836344e-01,5.934314677641851221e-02
1.611424752911807812e-01,-6.674392212182805872e-02,-6.440629988224759461e-02,-1.291948019588534946e-01,4.234961780964714706e-02,-3.826191711635475168e-02,-1.037882106634001877e-01,2.363217945594188740e-01,-1.967829930476391320e-01,7.657484305910705613e-02
-2.300589593663692617e-02,8.689629243174305795e-02,-5.036369562125211224e-02,6.836976148000702656e-03,-1.006540901326402615e-01,-8.284100035978256282e-02,2.977665236842259588e-01,3.806463028164749213e-02,-1.729484651634986825e-01,-2.475856780219061817e-02
4.982669356620857137e-02,2.226908888568665881e-02,-5.799820334139318273e-02,-1.805564867913227525e-02,-9.922577626288354644e-03,1.015279558140352312e-01,1.374162759600657813e-01,5.069250511110091201e-02,-5.130561670627110937e-02,1.401721809082961123e-01
2.673269004869162080e-01,-2.074400901894300209e-01,-3.825694116836544922e-02,1.704759747790337565e-01,-2.576005548259669986e-01,-5.783913136212603945e-02,-1.263537281673659252e-01,2.004413818573563266e-01,3.968194493600766398e-02,5.476167043955303820e-02
-1.507516923627362504e-01,4.199775661284277373e-01,8.908908135392272498e-02,2.691437099374762165e-01,-3.093161201296687479e-01,1.253786224355536993e-01,-4.042559623576961331e-02,-1.125828662466316077e-01,1.289238365060726456e-02,-3.033419379017530115e-01
2.785854400122107499e-01,2.101525484690891232e-01,-6.346464056050189484e-01,-2.377627336357413523e-01,1.612290227026394462e-01,-2.255628652854081706e-01,4.256728913776068879e-01,-1.177581861993455027e-02,-1.921642492855323847e-01,2.045063714465829852e-01
5.914264741890919858e-02,3.780386192450784222e-01,-7.481345527840195242e-01,1.666165429070742138e-02,8.886212560244929892e-02,-5.206740826830080077e-02,1.342995111182199719e-01,3.540200361619833674e-02,-8.248035681346155279e-02,-1.533533087057195772e-02
-7.111719109109754244e-02,3.167254328561315835e-01,1.360243594581776044e-02,-3.058410815068943189e-01,3.956458553717875914e-01,-8.389107654324280336e-03,-1.406494328259807192e-01,-1.206292392271620662e-01,-2.222873017672870877e-01,2.544028064383179744e-01
-1.428277626540415401e-02,7.504597702920344504e-02,-1.929064163540832322e-01,1.975972818390650254e-01,-7.064488509621573431e-02,-2.252745794161357673e-01,1.623944465213417732e-01,5.496446023195470515e-02,2.899575055820482472e-01,-4.344964205887759112e-01
-6.376061757348378163e-03,3.173294748957716099e-02,4.445129580828807714e-02,8.990557239555149738e-02,1.955481774186946381e-02,-1.929222366894415078e-02,-4.042372638882951036e-02,6.636993067259347456e-02,4.355512434897460677e-02,-1.006624424800731110e-01
5.724015136543984805e-02,5.602781284708185233e-02,-2.615994647517546484e-02,8.525963646915833694e-02,8.728015331451063202e-03,-8.316817921553018578e-03,-7.056974000592615426e-02,8.167312058798206764e-02,-1.683947254538288238e-02,-4.509227422159940019e-02
1.274934596946751542e-01,-9.217567050601034595e-02,-2.445467663755147500e-02,1.572411019091425888e-01,4.832137488338210385e-02,-1.129563200120834061e-02,1.394562777373099804e-01,9.605166676516270485e-02,-4.798326651343230026e-02,-1.600866121523403587e-02
4.733352293654676246e-01,-1.066463399244265697e-01,-1.759938386507596542e-01,-3.519652202146142383e-01,1.846102303507755546e-02,5.249960003292240308e-03,3.036003557257198684e-02,-2.678189608704302227e-01,-1.138801546463348753e-02,2.909212249572217801e-01
-7.950603874150381778e-02,8.522852532163086026e-02,3.505834246546076782e-01,3.613513589390664194e-02,-2.776144254403363765e-01,2.078830283530595791e-01,-1.437599403420102562e-01,1.533665881107802442e-01,-1.201938517425866632e-01,-1.914083182045663301e-01
-8.531142482969083368e-03,-7.548125740006528424e-03,2.182119054152830556e-02,-1.797128949541437759e-01,4.646822404308244975e-02,1.863081780167265972e-02,-3.553719846925516151e-02,2.081371021933537679e-01,3.022540829035358020e-02,-3.442637831816065808e-02
-2.362572038908651584e-01,4.117349875419373251e-01,5.137339683074775704e-02,-5.150579441069274012e-01,1.210400869618000891e-01,5.373017562628890076e-02,5.873816085710081153e-02,-2.837558589125421804e-01,9.351181748066404731e-02,-6.581179186752274257e-02
-3.009999856290574566e-02,1.548019173087385007e-02,-9.025259002735211422e-02,-5.966913075687409196e-02,-5.220542998862628958e-02,1.786143191234432492e-01,-7.072339680091593861e-02,-8.141544451627984180e-02,1.069619841558639914e-02,1.727558229444164928e-02
1.188327323649514128e-01,3.254724058184049057e-02,-6.995297118719532303e-01,1.270575714493603001e-02,-1.187794665608837147e-01,2.692061590784582403e-01,2.990089044201170443e-02,1.654134627194066010e-01,-6.243462210770649862e-02,-1.320483679620392675e-02
2.149600177931495493e-01,-1.752221657973918739e-02,1.899348956756039541e-01,-1.306667766926266072e-01,3.848433028078687146e-01,4.337591934305243813e-01,3.076637931072128129e-01,1.490572522450019644e-01,-1.138897249881189566e+00,-3.935513727238435511e-01
-1.033536758334985678e-01,-1.529599447499437326e-01,8.464044114599239554e-02,-5.068926227658480943e-02,1.979247691483591309e-01,-6.080359405553155405e-02,-5.777594379715621925e-02,2.283385155636205588e-01,-2.768133037766697946e-01,3.343491901168316877e-02
-1.190197061131756245e-01,1.054078421057398803e-02,-1.474045925469192053e-01,-1.470897557311059587e-03,6.217638596982477672e-01,5.797301822737522814e-01,-5.114896446547114589e-02,-1.421481514379121236e-01,-5.068266119896382982e-01,-1.510004733374666619e-01
-5.672966168242132845e-02,-1.636710893828011160e-01,2.652475757681347496e-02,1.964445770521824619e-01,1.579877104193850856e-01,-8.243502592228749148e-02,-9.530771287873729403e-02,-2.134409333334721937e-01,5.279134764980861205e-02,4.197058778251799294e-01
2.683701280799224986e-02,1.223422505188433013e-01,4.496027498495260288e-01,-5.073439330892590138e-02,-2.235962249221016759e-02,-1.396802890403362196e-01,-8.834202744656095840e-02,-2.614053265300332260e-02,-3.297665757323612334e-01,-1.221950026095261210e-01
-2.774437509483075257e-02,1.937612605169361790e-01,5.754125052065280771e-02,1.029451236584667806e-01,6.177315231696700604e-02,-2.163709091539680884e-01,1.430976330190008271e-02,8.294304293932990013e-02,1.415734367861744558e-01,-2.965562338535554510e-01
1.882191741762144488e-01,-7.338864077057738466e-02,-8.078870587271262671e-02,8.310028371676086989e-02,-2.487470895424810369e-01,1.625764346530753079e-01,3.786935609685585513e-01,-1.929393404408331902e-01,-1.372733916625443196e-01,-6.621613758128797045e-02
5.381000142311018197e-02,-1.262421492260963063e-01,3.009823342410055114e-01,2.688176228653591515e-01,9.102461124741692555e-02,-2.805412115011983176e-01,-2.384265404866877380e-01,1.283188364310937080e-01,3.209775443925046157e-02,-6.842998109536305162e-02
1.952348447098527784e-01,1.192583116369751034e-01,-1.992654887068654734e-01,-2.942057490226742122e-01,-1.075887582024403349e-01,1.621240044321435869e-01,3.603872612654274166e-02,7.224763504889833432e-02,-7.846690100882007524e-03,1.997654875596313051e-01
5.799764600809152737e-02,5.608437150979118935e-03,-7.997229112239441495e-03,1.463766223881141082e-01,9.160176904049617541e-02,1.508274047708474397e-01,-2.343971662021572880e-02,1.388748070702173765e-01,-5.520572036034875341e-01,1.743016739861084630e-01
4.850527467779301022e-02,-2.567258241643897154e-01,-1.714053488977930473e-01,1.528849298528705408e-02,2.526792444859389808e-01,3.373061939901594863e-02,3.960759777666359449e-01,-3.377132645829611368e-02,-3.666335658148065502e-01,-2.112756449347023835e-01
-5.910213213226381823e-01,-1.161750205572205930e-01,3.773631710807482387e-01,2.211514488388979793e-01,8.606176473756603496e-02,5.233871506376160943e-01,-2.560729701110328604e-01,-9.797344295841126094e-02,-1.675561372553760085e-03,8.842170396753852579e-02
1.755271211170377210e-01,1.466084512609194812e-02,-1.072072851763152951e-01,-3.055966100637600574e-02,9.132754812379860476e-02,3.009892339483848794e-02,3.014810402250629462e-01,1.656348563081766478e-01,-3.411063154201746106e-01,-2.089037975663058100e-01
3.010223496223613515e-01,1.246000016675275629e-01,-1.487412425458614906e-01,-2.577245358264429465e-01,-5.504040679185346480e-02,1.989634017486328621e-01,1.131288767141869350e-01,-4.552679254295440708e-02,2.397485839257130786e-03,8.616390117630454148e-02
-9.985056418345304718e-02,1.145309746678040141e-02,-1.681058566578926272e-01,-6.427481506973362069e-02,6.937652541617556241e-03,1.002410121829743206e-01,1.516708907453935273e-01,4.310021341736487710e-02,-3.600748469518274403e-02,2.804929106724423846e-03
8.778940240716157084e-02,1.891745475347438310e-01,-5.709960850401414323e-01,1.510035571144050306e-02,3.033678379272074510e-01,2.354215018653963570e-02,-1.372967507334739989e-01,1.036803043958255538e-01,-1.965915467627542546e-01,2.054981831144868099e-01
1.835247527303510429e-01,-1.194397038340208606e-01,-1.132518476033159416e-01,2.372834436877289954e-02,1.236456901407609332e-01,-2.271184564728921385e-01,1.068578843787924143e-01,2.349157579965541198e-01,-2.726139543486628680e-01,-3.687174857587470489e-02
-2.639937362127540987e-02,-8.699689886735213762e-02,-2.183615242397813627e-01,-3.944077497299013080e-02,-9.992527177921521619e-02,2.056710843773498776e-01,2.553451510767580368e-01,-1.533610903369181030e-02,-1.306835984967059106e-01,-3.735412436611306591e-02
3.607426354862069973e-01,4.346008398877330287e-02,-7.242117507471512727e-01,1.154476557025521793e-01,3.823392395838215441e-02,-1.671669715356720876e-01,4.349241090538365495e-01,-6.520334868943183926e-02,-3.956567824974160930e-01,2.112095731343140714e-01
-8.182851283280766219e-02,9.940022225307858922e-03,-8.855051010500415709e-03,-3.951266299676326442e-03,9.371004680761525762e-02,8.899657334887164928e-03,2.672638305009340017e-03,6.948517737763620916e-02,5.678333481884515616e-02,1.086336440232482797e-01
3.050097131956603508e-02,1.200932775781571038e-01,-8.193244316468956123e-02,-2.913105242093713687e-02,-1.307803429445071955e-02,2.464076236597631531e-02,9.657295670408852506e-02,-7.297887207833904898e-03,9.803527632825580207e-02,-1.580001532002605139e-02
-9.806443652629652508e-02,-2.199324633320155764e-01,1.287991017471572797e-01,-3.511203165259293990e-02,-6.996802706956728457e-02,-1.684778429377451203e-01,-5.483133809519542129e-02,2.895070924484966640e-02,-5.930777572655046570e-02,3.380356532988328944e-01
-2.646870369715653704e-02,-7.857503415698460780e-02,-3.806451474576816318e-01,-4.558622137088053639e-01,2.991013614643204810e-01,-8.873048427455168183e-03,2.381335357242679862e-01,9.900871498688584849e-02,1.751394219021158438e-01,5.332157471901849410e-02
1.016724006296786526e-01,6.560472578408216293e-02,-2.787631137103273038e-01,8.422147014304323664e-02,1.217754300691857999e-01,1.734291109552786869e-01,8.648144544493188701e-02,1.616158840017108689e-01,-2.598744285526030096e-01,1.759056562808289370e-02
2.445690394679521928e-01,-1.197435581825116446e-01,-9.292212257309043211e-02,1.052045880799136884e-01,3.817514918820554826e-01,2.593203614156869841e-01,7.674596703863058658e-03,-1.158010449687422658e-02,-6.120558886270733856e-01,7.006987664247856483e-04
-3.185905968017499479e-01,4.038587972613823518e-01,-6.422252961212891742e-02,1.499906840623183302e-01,-5.826250638335152277e-02,1.933094063127277773e-01,-3.657443132215945081e-01,-2.985538182370584548e-01,2.791494371621814352e-01,-7.714025064684267019e-02
1.255839879988975005e-01,8.320160068174753398e-02,-2.885164280448401231e-01,1.807610004436840945e-01,-1.466941971867298522e-01,-1.394020494673031685e-01,1.822377381727006973e-01,1.221399790044081640e-01,-1.009759834208984602e-01,-1.356343005322938888e-01
-1.315673677486995097e-01,2.335636733479285604e-02,-2.577220479360290972e-01,-1.091702904998988477e-01,1.151847574348017073e-01,1.513977707208606915e-01,-4.674134945151975362e-01,2.938463501417591384e-01,-8.082656306651314626e-02,-7.698071081474607003e-02
-6.472937820335727087e-03,-2.636701327465642772e-02,-6.547229029589581029e-02,3.724458616663142707e-02,-9.847960090156981927e-02,2.746475954939654462e-01,5.456765036089025050e-02,-1.126410190862612293e-01,-1.975205145014367614e-01,8.599861866786985554e-02
-1.206009908900251976e-01,4.858856663484091842e-01,2.255581221156043384e-02,3.615168962916930351e-01,-1.304479958743816059e-01,-5.723855999491679614e-02,-2.755322074199292870e-01,4.827792423694903662e-02,1.793893293024710622e-01,-1.131889141913361430e-01
-2.071435411251894634e-02,-1.203632230663188307e-01,3.679672327165838669e-02,1.484021925261832381e-02,-5.831480864268992481e-02,-5.608449961870323741e-02,5.175369840189845971e-02,-9.567515096514626893e-02,-7.355669579256356172e-02,8.976396612259876506e-02
6.500711622784845212e-02,1.747788581010222553e-01,-1.838300622423853781e-01,7.445076046030680260e-03,7.372105608508219832e-02,-1.722997812549435515e-01,5.119623446262716593e-02,1.153062879103266825e-01,1.994290799934209657e-01,1.183785700315216627e-01
3.458863980628933132e-02,8.641267008891985457e-03,-1.772078474061012932e-01,9.795151907482942122e-02,-7.583290214082476222e-02,9.156408519815553704e-02,-1.786888047367405502e-03,7.582957187998849713e-02,-1.156826435341222065e-01,-7.118705551541075309e-03
-2.299024844771746234e-01,2.445925211605255445e-01,2.151270952319564445e-02,1.864851813193033059e-01,2.308420502331006430e-01,-1.246109653427381891e-01,-1.778074836562563293e-02,2.640627328879623092e-02,-2.018045356015013281e-01,1.197866926815376043e-01
7.421381538054334925e-02,-2.287665050004193124e-01,-2.071700711637976811e-01,-3.713567550736774359e-01,-3.897486635217849854e-02,4.204070349442999843e-01,5.343361839120861628e-02,1.852831827298033474e-01,1.308665600807195316e-03,-5.428255903926691196e-03
7.216065722456124765e-02,1.109601294302380581e-01,7.584103918361463637e-02,-3.574851762633755176e-02,4.914237484837473136e-01,-4.109354968094999783e-02,5.907984039398234827e-02,-8.073050381450409818e-02,-6.637758526620898269e-01,-2.169465179677273203e-01
-4.844981645142432819e-02,2.373822643410342798e-02,2.343865873633313446e-01,-1.070439795433573565e-01,4.620087586944750524e-01,-2.729182232005668007e-01,-3.076241391301198780e-01,3.974133983709789986e-01,-7.648402764426235345e-01,-1.356483717350953633e-01
1.757718719102464022e-01,1.281221439319518152e-01,-4.050482238867549323e-01,1.982228454452930055e-01,-8.108765485533744877e-02,-1.389762418934893107e-01,4.962441351337332912e-02,2.171473960756680616e-02,3.164616338284562125e-02,-9.000831835930267477e-02
1.499179823828397096e-01,2.065282965896681200e-01,4.702237906435124404e-01,-1.086085527616169610e-01,6.403191088506852979e-02,-2.588927000856401737e-03,2.598608671062682118e-01,1.749560656609128531e-02,-9.043638509057115860e-01,-2.569668634295240728e-01
-3.891967413419770982e-02,6.333365277392007942e-01,5.203050072217320354e-02,-1.099066472888728663e-01,-1.400390187366567785e-01,-1.438365423087712702e-01,-2.559993312050100334e-02,1.881033974309757884e-01,-3.345352985439744020e-01,-1.811975257030049302e-01
7.647926486251084566e-02,-4.238673200658259477e-01,4.897463380942179700e-01,9.887476250331135585e-02,5.635274499804384524e-03,-2.911124510055131398e-01,-7.255789360114760222e-02,-2.521111725721466579e-01,7.615039092120121089e-02,2.856840250111603585e-01
-1.052126774462433800e-01,-2.603984086182692947e-01,1.619059260002619072e-01,-9.734297037903656691e-02,1.011135860414861740e-02,1.209045597453460297e-01,-1.637553529835279464e-01,3.977115569106456916e-01,1.673370027982209324e-02,-2.403341433542691974e-01
-3.258532355060140412e-02,-3.130765209849271230e-02,-1.216815226049746020e-02,7.611733124536894379e-02,-7.069243230328069172e-02,7.310320510839222845e-03,-1.284254906039695165e-01,3.242908995607726719e-02,2.827027597427304167e-02,2.257750992002535428e-01
-1.251617760961149517e-01,5.370254881154808840e-02,4.439047966278547586e-02,-4.877036956472634993e-02,-5.524876991471183718e-02,-2.545830600949253522e-02,8.546097917218958839e-02,3.272108921043474505e-01,-7.874956935737845165e-02,3.477033072193806001e-02
-8.536461084158730728e-02,-1.752306308837369656e-03,1.190065582297148289e-01,-1.100049809038395332e-01,-2.955640517609524690e-02,2.744987631090485269e-01,6.578008672380898647e-02,1.659356732354609343e-01,-2.947580286356842882e-01,-1.847152559551634710e-01
-5.203975551402758443e-02,-6.610224482583399938e-03,-7.214042823140730254e-02,6.974660570077946542e-02,8.294500575943190845e-02,-1.520174671864994997e-01,-3.628375635944694477e-02,2.772091123477647412e-01,4.297239739610310069e-03,-2.920821200121251904e-01
-4.836021384747351409e-02,1.773655510012132897e-01,1.491035268651549339e-01,-1.468609490967416331e-01,-8.748135037617979504e-02,-2.054802868871992150e-01,2.036673213672587635e-01,2.193268625987015441e-01,-4.092380655343994533e-01,-7.162847632968520617e-02
5.617980871782627533e-02,-7.083597974742102121e-02,1.558965159732514927e-01,1.116130266281436662e-01,-6.903329796096759410e-03,2.843177034363117178e-04,-3.028926206406957200e-01,1.397266475386103601e-01,2.091190762822046564e-02,-8.032813605848471150e-02
6.618072523840787258e-02,6.731533954501647821e-02,1.225243172672276781e-01,7.604901122962909321e-02,-2.073393741930696157e-02,4.586034912235181088e-02,-5.598911520315227180e-02,1.174633093612748383e-02,-5.548743151280648850e-02,-3.986309709079950692e-02
4.700490001552421471e-01,5.592272617095843737e-03,8.543800401458527538e-02,-2.009610116156508586e-01,1.589403087186020691e-01,2.971053394024802258e-02,7.878679123310143584e-02,-2.845488343144824891e-02,-6.986286091147130284e-01,-1.333595222203510788e-01
-1.021874832947507750e-01,-1.286089845059108783e-01,2.273780908822946659e-02,3.011694114532232902e-01,-1.609878792135001069e-01,-1.093403246440244614e-01,-1.051910059735421260e-01,2.351416131183083069e-01,-8.028913317097528812e-02,9.264603626241374457e-02
2.818837760114106805e-01,-1.549313873639087402e-01,-4.447153165683942477e-01,9.966572119305135147e-02,9.185487337587991408e-02,-1.146428910456359224e-01,6.955121674315929425e-01,-1.771571977303547096e-01,-3.505424330507061481e-01,1.279519774111574359e-01
-1.977335470335898557e-02,1.668274115146568815e-01,-3.291194476144934655e-01,2.332561841751425169e-01,-5.484414903802063007e-02,-7.010043681619203271e-02,5.751991616131232193e-02,2.865088605878364780e-01,-1.197643275702312826e-01,2.785722896204353982e-01
-7.207996399252901074e-03,-5.751212800064882391e-02,-9.142319713715112151e-02,-3.348301950829190438e-02,1.409118721749244296e-01,2.221353556358305059e-01,6.625175708658341545e-02,2.499386359986908446e-01,-2.194034869906316687e-02,-1.060823752596845165e-01
7.417710577621070001e-02,-1.929879654671788070e-01,6.358863458709763938e-02,6.053906504986337339e-02,-2.579395742041603601e-01,3.363711106617675028e-01,-2.117017976735386525e-02,1.317578501386283338e-02,9.762794480385297846e-02,-1.238243411392190851e-01
1.308721955735456417e-02,1.280894242904719038e-02,-1.175039215380184049e-01,6.539445459717857165e-03,8.703271688232136483e-02,-5.050700912104146532e-03,8.217459344215012618e-02,7.381249690032104516e-02,-8.006135791222093734e-02,2.069007864172262359e-02
-5.226844449373956730e-02,1.394563974587640330e-02,-1.230057235805394750e-01,-5.221134747590917835e-02,-1.446635188119254345e-01,-1.842531562677966195e-01,4.373555610869962057e-02,6.210126087755683810e-02,-3.919018579054062840e-02,-1.624324160891372701e-02
-2.132667234825882385e-01,1.705425333836357582e-01,3.146181952413290017e-01,-5.346207062513124580e-02,1.428944134225298285e-02,-3.243112324431907112e-01,2.712250238057541951e-01,2.612229503107423301e-01,1.341091625138456367e-01,-1.330659236638336296e-01
-2.730694901033530603e-02,3.062075019367191397e-01,-1.073113220279862778e+00,-2.117279644891577606e-01,1.584492334665909830e-01,1.689221135935224938e-01,5.242808275721605460e-01,-2.697056560647507206e-01,-2.088588389826033787e-01,2.549042510225796865e-01
-1.466392647215427995e-02,7.452063528769047041e-02,-8.341779156163851849e-02,2.482035100884797882e-02,-1.542700011697232393e-02,-4.363242198092883578e-02,6.286938470236802523e-02,-1.374922540559325723e-02,1.722776850152909350e-02,8.521727597261884168e-02
3.284528387913757119e-01,-3.253418013315922258e-02,3.520873793102224925e-02,4.032207789634341399e-02,-7.342665177033591561e-02,2.684511454862013036e-01,2.954261922316895328e-01,-1.812786176268665894e-01,-4.363118688538481504e-01,-2.602735593753264243e-01
5.305627957623474389e-01,-2.920709556246032790e-01,-2.726933075593414735e-03,8.612595917785796640e-02,6.521071435248307346e-02,1.854044453655249655e-02,-3.122869269591107069e-02,6.843922672250944694e-02,-3.473009475125604095e-01,-1.911128691923839606e-01
-9.081365052987280806e-02,-4.018764253893775118e-02,1.851792674969661434e-02,2.163124985722534310e-01,-8.949085623481131679e-02,4.378420570351339303e-02,-3.885880847251241277e-02,-6.276624039915003339e-02,-7.426576433069755068e-02,1.411839492169157106e-01
-4.043464619830169221e-02,-9.115702873125065830e-02,-1.408787928628659619e-02,1.169472598774112110e-01,4.209134894428030738e-02,-4.991617264904050361e-02,7.009023251614361627e-02,3.676945986348227613e-02,-2.657797488249440954e-01,5.041863693841745070e-02
1.807091262491171413e-01,9.164490195939369033e-02,-4.700949401259760935e-02,-3.524590198839409189e-02,-2.009871115952182111e-02,4.054494848874528462e-02,1.850093635275188997e-01,8.634412450953470042e-03,-5.447166499934279482e-01,1.639161204418053538e-03
-1.190635655774736623e-01,-7.872222449527106758e-02,-1.727739791697884553e-01,-1.281690031629084334e-02,-1.812181076406542413e-02,2.198981284845231976e-01,2.135540251471783890e-01,2.379093510609767703e-01,8.726803277915041665e-03,-1.005059069353326229e-01
1.570948771407950362e-01,1.342459482490373501e-01,1.393438691618099634e-01,-3.880589758338883616e-02,-6.024296927192906992e-02,2.317451486666616545e-01,1.507379556655945585e-01,6.326178835184728677e-02,-4.260435531450184055e-01,-2.539576999267502133e-01
-1.874448069504696945e-01,-2.924904583863340013e-02,-2.310912303958764513e-01,3.145183412680354618e-01,-3.711381097406476481e-01,5.796589027422790474e-01,-2.306041672541492005e-01,-1.551929575688867913e-01,2.442901401889784607e-01,-1.699250226894043203e-02
7.131362981370588383e-02,-9.170087735309238874e-02,-1.377634944481538268e-02,-1.070008988838349051e-01,-1.759109496258849104e-01,1.591936936522944102e-01,1.205214570289726284e-01,1.520189165192685488e-01,-5.053306747240711161e-01,-6.421579467487092963e-02
1.444439356825936202e-04,-3.718948503184175275e-02,1.402870236449029959e-02,1.755821527853654686e-04,-8.954893602064854796e-02,7.312321255991321121e-03,-8.577558477526053826e-02,-1.127318024881927006e-01,-8.601363833723590924e-02,1.387221420807379854e-02
3.519396697730717283e-02,-4.810481432488619702e-02,-3.989025717310394903e-01,-1.858657463286587097e-01,2.101261239155892135e-01,-7.249571332580880163e-03,5.244755975723786046e-01,-2.106201435384415233e-02,1.127329436723478739e-01,-1.398831809189491626e-01
1.640639907354528582e-01,1.350206549144133787e-02,-9.664050841303983841e-02,-5.470088465917085502e-02,2.192070239517753816e-01,1.607827741124631671e-01,2.426444537426404591e-02,6.115616041175062079e-02,-5.647438806227980113e-01,-2.317797357230894362e-01
-2.654564507838339665e-02,1.058621838549948652e-01,-6.490855348930537616e-01,-1.096875617079251936e-01,9.924700478673328941e-02,-4.491953845830352898e-02,2.189510021861520717e-01,-3.352694630414897181e-02,3.871811578011076505e-02,4.094263164534946986e-01
7.846446719938589276e-02,-5.160515706390008533e-02,-1.864313510709051909e-03,7.741266451851380737e-02,-1.036727242188127396e-01,-9.116010975170009412e-02,-5.579086430373714905e-02,-7.240330677121951941e-02,1.109515660215448646e-01,-1.471696048588805664e-02
3.287710472659122890e-02,-1.611509919441952710e-01,1.917067965421482556e-01,-1.185480381105728093e-01,-2.374784312980304790e-02,1.053525445149469941e-01,-8.078992517698992126e-02,-4.635510819695119050e-02,-2.262769871582027137e-01,3.442043559257011442e-01
2.490639530839220128e-01,5.357393059290506757e-03,4.646338711846921821e-01,8.492507127531317979e-02,-1.184488803186250772e-01,-4.740748418101094208e-02,1.625452772355016201e-02,-1.789294690902610008e-01,-3.409791856210235284e-01,-1.126411364775017909e-01
6.540880333762802978e-01,-6.802383780864285079e-03,-7.524792133069554412e-01,6.829004189166118510e-02,4.911162303564108045e-03,-1.320402358683221145e-01,1.969419212469065428e-01,1.818214858628862396e-01,-4.099032335879027045e-01,1.362118953753346517e-01
-8.287658683787210712e-02,-1.659270382750858419e-01,-7.849899324877582241e-02,2.867978646871024440e-01,1.552770644785614329e-02,2.434770521148307276e-01,-1.570671990504099169e-01,-2.708444447499516738e-01,3.135486239448031370e-02,1.406083460494332027e-01
-5.262605063743442009e-03,-8.839930576452145750e-02,2.263644008118959050e-01,-1.973516614262928182e-02,1.153854252736998508e-02,-2.362919189357911426e-02,1.541830677664948746e-01,-4.399958424414341512e-02,-3.558165145927462414e-02,6.198641655192700835e-03
1.030810500823257508e-01,-2.201304798393891732e-02,4.717767350990207942e-01,6.445598274940853370e-03,2.352237683270234359e-01,-1.945445422179308825e-01,5.068964399077813959e-02,-2.225094486138567140e-01,-5.108526195580025409e-01,-1.145306947973342426e-01
2.074247143139376637e-01,-9.383432838337224524e-02,-5.686627590428598999e-01,2.900884321906863628e-01,1.929732258079228449e-02,2.973738909067790148e-01,2.779879173781041879e-01,1.568074475016672520e-01,-2.499660682973025849e-01,-1.290631087990474768e-01
-1.006818716836446470e-01,-9.236337561174971789e-02,1.751628891714525071e-01,-1.230509317409978209e-01,2.833749704539296338e-02,-3.416737408525831743e-01,-1.464852711129034646e-01,4.380810541636851463e-01,-3.607094219419303971e-01,2.884353591665830829e-01
-1.513917366231889161e-01,1.144688501022847749e-01,-2.300594158198389916e-01,4.519319440080887124e-02,-2.452262539949566153e-02,-1.003427035521592750e-02,3.625148904543685768e-01,-2.202609245699043566e-02,-1.429689872173392218e-01,-5.115581775484729504e-02
-9.974510973087140353e-02,5.259179312074295787e-01,1.687797978235364427e-01,-3.274090815118749220e-01,4.009428206386197319e-02,1.471434425511511934e-01,4.694728017608559845e-02,3.899800212270377875e-01,-4.912399735113861521e-01,-2.025594444840187747e-01
-1.417231103901755995e-02,2.538146609228261741e-01,2.694117570799554051e-01,4.540003736143868179e-02,1.807163386280204523e-02,3.403076431695961079e-01,5.599962873271319141e-01,-1.862212834035503473e-01,-6.560543307922068745e-01,-2.035911846721096818e-01
2.445659312905914262e-01,2.927181796723050955e-02,1.483996041890079387e-01,3.316635609440779509e-02,1.701656896254602480e-01,-1.264324615778928407e-01,2.075817806343878760e-02,-9.933138982591123434e-02,-3.534720814127847999e-01,-1.242605753869132773e-01
-2.373799432791899588e-02,-6.825433485996990068e-02,8.819952896652624719e-02,-5.806864733731805645e-02,-7.866174393191279965e-03,3.140454872271314923e-01,2.846619076316492247e-02,-4.502201922377252474e-02,-1.001175810376730146e-01,-1.727002467023113774e-01
2.891418874915753848e-02,-5.173621500539617342e-03,-9.729842332551995321e-02,8.453959583886799800e-02,7.643224019351076148e-02,5.011466658318396855e-02,8.448692983538128032e-02,-9.030113665849726079e-02,-2.329332302290492984e-01,1.111807939590213762e-01
2.058782915891430587e-01,-1.566054610969755123e-01,1.641020714485854626e-01,-4.307222208503289074e-02,6.059700265270179936e-02,-1.455155590536423571e-01,1.848829027785892087e-01,5.288135892906464103e-02,-5.669631562832113669e-01,-3.849218608230135091e-02
-7.763868690697323105e-02,-1.055962558828593134e-01,2.609171445945935794e-02,5.304032552119018751e-02,5.376522564892736306e-02,-2.030200614752230692e-03,8.123932939316237667e-02,-1.309267924836412800e-01,5.729393947651528068e-02,8.687900259084500518e-03
-6.574076124968165902e-02,1.670236236668464491e-01,-7.414549330226705148e-01,6.066911133312990340e-02,2.225483691772281447e-01,-1.077879275955244270e-01,1.086571783334154030e-02,4.797480813309301095e-01,1.517514282081335042e-01,-1.445520338221396583e-01
8.812369999914132501e-02,2.230948761898357557e-02,2.069366466611039790e-01,-6.408961031228382899e-02,6.003713680566694633e-01,1.560680801052799771e-01,3.939108288339901454e-01,-9.543526869471620488e-02,-7.609429422661803111e-01,-4.501724489796785633e-01
2.051178139400742506e-01,1.195157859439167219e-01,-8.038053089217862546e-01,-1.759170212686357315e-01,1.452209820463209178e-01,1.654702753485913502e-01,2.232323815610672557e-01,1.543496549854353472e-01,-1.143035112398992255e-02,8.880314984315404447e-02
1.320000233460984045e-03,-5.421847237668650510e-02,-1.304908665777549694e-02,1.040972597169849967e-01,1.312086744650515502e-01,-8.203597401257645139e-03,-1.869525120754439718e-01,1.115031670508511222e-02,-1.535183693346510924e-03,-1.252878684643554119e-01
4.681486366826251300e-02,2.598310325617387284e-01,4.419498350877489323e-01,-1.946392018867853513e-01,-7.250126538756183729e-03,1.801664352996186491e-01,1.454871063354309067e-02,-1.992864455312512439e-01,-8.634420470004613435e-01,1.202423273186646255e-02
-1.756847922311171595e-01,2.322490196475996468e-03,1.347572182081240022e-01,1.031067546009626357e-01,-4.513714593409624554e-01,9.874794099601276465e-02,-8.540285611093893781e-02,3.754509332969735436e-01,8.580280163775057256e-02,2.481468383052833418e-02
5.852676465615500728e-02,8.785125576841497710e-03,-5.773983493645552063e-04,7.846582651871686354e-02,-1.005058228831686995e-01,-1.024028025578204576e-02,-4.597939295004827703e-02,1.433479933939341422e-01,-4.111291509486756507e-02,-2.820669777212180818e-01
4.047957694324959277e-02,2.255155580349599981e-02,-2.197344081554190864e-02,-2.183615685386920691e-01,-6.720076271625727293e-02,-2.379762707796637383e-03,-2.392688650062486586e-02,7.795089504367833100e-02,1.923722670482982955e-01,-5.641702036167910855e-02
2.577508609237722306e-02,-3.489391676936785119e-02,-6.825312713649207830e-02,-1.286168382827572280e-02,9.677306443603865549e-02,3.312256358669404127e-02,4.043395955077304371e-02,3.277678403994586931e-02,-1.217037230015667881e-01,1.408063772852507362e-02
5.206734140304766778e-02,5.295936361860716091e-02,-1.642598181156720571e-01,1.528093188907775624e-01,6.618435343503757673e-02,-2.562816721370354545e-01,1.957541046221752679e-01,7.870112542232560182e-02,-3.307565906261155653e-01,2.166615031322076113e-01
6.465877529532512158e-01,-1.723797355860792191e-01,2.309943608582629981e-01,-1.024293990612721722e-01,-1.573806539330189491e-01,1.626875255418173127e-01,1.988791857059559742e-01,9.240591706028276897e-02,-1.084853483881841552e+00,-7.295327250899366622e-02
1.287423272400650409e-01,8.966481930941194722e-02,-9.067036094910350119e-01,2.148282475036818462e-01,3.224898753889449687e-01,-3.828555998849742653e-02,2.130402959690228804e-01,7.568450272570448334e-02,-1.330471800081631795e-01,1.915629841505850917e-01
-8.914543844953203358e-03,-1.196974237262209556e-01,-2.576909617910589159e-02,-5.658459829233949967e-03,1.083291645457933050e-01,-5.275880675122771035e-02,3.593292145317193275e-03,-6.880077487430154293e-02,2.370496565767126473e-01,2.764054422804335109e-01
-8.020079695431979461e-02,7.169914054765207101e-02,1.425867437544189043e-01,-3.341936252432322479e-02,-1.376679607731156989e-02,4.500669091018204802e-03,1.320779335560627321e-01,6.813471724734192214e-02,-6.100623534299084993e-02,3.387759937670297566e-02
-3.393112057982897167e-01,4.472544643115012875e-01,-4.665544019819036770e-01,6.224420566371104968e-01,-2.961394046010628056e-01,-1.074269613186989575e-01,-4.030669027250562142e-02,2.805145551664489645e-01,-1.573666369794219366e-01,3.078826163024846463e-01
-2.446624222145303909e-02,-5.746325702601125934e-02,-2.905707069057533731e-02,-1.220444768378971812e-01,5.084652394327870972e-01,1.085423618159318676e-01,1.871806904177180653e-01,-1.483467199157318672e-01,-2.344242579762966516e-01,-4.200875734946948326e-01
2.827955216121488813e-01,1.725852387202821830e-02,-7.013067259328269465e-01,1.258408001014522382e-01,6.933231531366834677e-02,-1.254172166238562980e-01,3.423491940290354085e-01,-1.032968474190112604e-02,-1.613884559314184564e-01,5.939382420818001274e-02
1.039508538674687732e-01,-3.795046357494819000e-02,-3.012259155224986107e-01,9.677506291495771573e-02,-2.613492911334683311e-02,2.329196100499554556e-01,2.270171177716201472e-01,-1.218708495786915424e-01,-4.325676810444480380e-01,-3.623981724068168347e-02
1.353363369130874613e-02,3.302438229679299786e-01,7.495440005819450913e-02,-2.351103761162847972e-01,3.778428082056096982e-02,2.246979648882993161e-02,-9.436168820681151148e-02,1.197730487265396687e-01,-7.322937734246272035e-01,3.233570245055183978e-01
2.156101375340019055e-01,-4.665478457920618771e-02,-4.495637442832009500e-01,1.053389311713137351e-04,4.367922111361378923e-02,5.562136808168727242e-02,5.514093899792485431e-02,2.612943130064673825e-01,-1.940518971307576002e-01,2.115478466422397383e-02
4.541383351313627026e-02,-9.051736061207266149e-02,-4.209484888520793611e-01,4.438878344274985871e-02,-1.524798508259588292e-01,4.190037092717097122e-01,2.848908511043604652e-01,4.922213936572187448e-02,1.688420734671894352e-01,-1.386996563196122856e-01
8.562730388288450345e-02,3.510647810353903497e-02,-2.289645254611689384e-01,-7.275097470729853869e-03,1.756541546031157031e-01,-1.821149486579507273e-02,3.401809659964466492e-01,3.164563753611699531e-02,-3.987115140389860812e-01,9.824086052827246673e-02
1.786538874669569565e-01,2.103052512548415076e-01,-2.361979212495143032e-01,-4.792109795473766844e-03,2.309483619387946163e-02,-1.278863146604777568e-01,-9.539767858857009161e-03,3.433711684576569445e-02,-9.416602829670298047e-02,1.462914012016744147e-01
-3.799059759882146559e-02,-2.672090542184827472e-02,-8.020279082061378129e-02,4.766372944024969971e-02,-1.971239148509794370e-02,-1.727482304584344042e-01,5.264232496664132677e-02,1.259586835853559149e-02,-9.147524293373167359e-02,9.203100642668692044e-02
2.213277413091408949e-02,4.195293121747917242e-01,-1.722352448359786015e-01,5.346050155098663881e-02,1.564850500012172907e-01,-4.699377374656522194e-03,4.278370112094732058e-01,9.454488350796258489e-02,-2.506773866072714019e-01,-3.797319119506931129e-01
1.108285035547381808e-01,2.949801533024993400e-02,-8.661181189386352175e-02,7.533561548700627719e-02,-2.820550253784573358e-02,-6.151208281646617509e-02,1.347672498765398741e-01,-1.720838791474831389e-02,3.419502312226897073e-02,4.325271560574620727e-02
-1.091521633559254800e-01,-6.076955451967013672e-02,-7.622085364486685943e-02,-5.233631720902885698e-02,7.531633988802123592e-02,1.697166975967759617e-01,1.351275169667727760e-01,1.183460735934187547e-01,-3.832729875351760240e-01,-7.108199113192924593e-03
-2.063566291274820663e-01,-8.635519298312402392e-02,4.864254149881943046e-01,3.448494545812285650e-01,-1.843946407672726329e-01,-5.870384166903924728e-01,-2.510143662554890215e-02,2.991115870385658848e-01,1.247395815563722005e-01,2.644115311921747119e-02
-5.222197492293303989e-02,-7.054544446954109926e-02,-1.645874264968529843e-01,-1.737152950265970219e-01,1.571309755359316940e-01,-1.660475578982132938e-01,-7.501340483102132695e-02,1.438622750213419503e-02,3.659312314511746766e-01,2.278385822792067528e-01
-1.082120913394378908e-01,5.799874426375432879e-02,1.701899630504793981e-01,1.455635797154137268e-01,1.765684621388824080e-02,-4.741410535691130933e-03,-6.744782960171150088e-02,8.482581195351551751e-02,-7.009287790762626369e-02,3.800097680620886237e-02
4.223690360285765055e-01,-1.749223476405452615e-01,1.554121474724165508e-01,2.042633803852513252e-01,-1.712815621215896811e-01,1.454468488049928121e-01,-9.560496234656365444e-02,-3.277174943478677327e-01,-1.939079696130502628e-01,-8.245353759729861023e-03
-4.244353229293959529e-02,1.447561081080954090e-02,4.312986926317519121e-02,1.145120229799454492e-01,1.174675080163919971e-01,9.696149113169932887e-02,-1.774611413575382865e-02,3.481010714802812434e-02,9.442521325253697140e-02,7.771116602931198158e-02
7.823447640380498669e-02,2.039449393952872946e-01,-9.371867328239419023e-03,4.607707276205684488e-02,-1.931535992667303067e-02,4.658957737993355691e-03,4.270165830280965302e-01,-4.586126516308002693e-02,-5.207022726871918250e-01,-9.908171924534511787e-02
-1.972775790644753502e-01,-1.738799168382370586e-01,-3.816444067445303734e-01,5.019731587935261780e-02,4.737262249809654491e-01,3.777698548548085594e-02,-1.671725632725036825e-01,9.945176512743743313e-02,2.342468550417039497e-01,1.148195408790916583e-01
-3.716635461652825767e-02,-1.454899200311399188e-01,-1.301510060273295966e-01,-1.849284383590787673e-01,7.345944291348234512e-02,-9.746801016075423707e-02,5.099044567830306879e-02,-2.412070264946838960e-01,3.991654077346378227e-01,3.192403164421315775e-01
-6.942220059679816979e-02,-5.594150720812763461e-02,4.154193447274236867e-02,-7.429279126416035717e-02,3.030634091591111537e-02,-2.933119354755496858e-02,1.891322529908723987e-02,2.682438290141457571e-02,1.094561668000522577e-02,5.677728928512462692e-02
-1.083551514591970938e-01,1.837030615080824381e-01,-2.351436534565108302e-02,7.261125394121534238e-02,3.727920102907299887e-02,-4.438957003315788935e-02,1.078466154342305611e-01,5.081027544938996471e-02,-2.291363807372724382e-01,-1.445081361857232863e-02
3.364780964535919738e-02,-7.301603366911145476e-02,-5.340215927602372931e-02,5.168190913290754418e-02,2.689305276567221722e-02,6.402863179320871477e-03,1.940944336988422725e-01,7.502663913101335902e-02,4.032220427148562603e-02,-7.555521456303770922e-02
2.515945617961926617e-01,7.147556041798799886e-02,-3.056214424629314363e-01,3.945671299467358450e-02,-4.586397964519674936e-03,-1.772441573058328723e-01,1.295988898719421800e-01,1.071611213367343676e-02,-5.629339499930390706e-02,-2.795650926703093647e-02
1.528185225580499518e-01,1.700231904942020311e-01,-9.544853463862162934e-02,-8.657398874068653050e-02,-1.543887458883826946e-01,-1.347425067438183244e-01,-2.540527398392945502e-01,1.355050851748972607e-01,-1.134036468669596953e-01,3.353630595703441242e-01
-1.500797719349228065e-01,2.818978110311643262e-02,-2.094723245160599323e-01,1.341295325153086249e-01,5.577655515962513105e-02,-5.037777181957688727e-02,-2.202166388926416959e-02,7.070106000939732627e-02,6.941060677174785976e-02,5.713206058122936859e-02
-1.587584835567700248e-01,2.562112097200632335e-02,-7.676670791336755173e-02,-1.346068680696005382e-01,1.516534520675429099e-01,6.700648755190607986e-01,-1.736147067890803364e-01,2.812552076678447865e-01,-2.961636414878445756e-01,-1.390166974767399477e-01
-1.291663497147848075e-02,5.496282110220427480e-02,9.747823443138649291e-02,1.498735911627813444e-01,-1.399846073337549512e-01,-1.413761102090093369e-01,-1.348092812320978162e-01,-5.735325284116002745e-03,-8.219928403113549442e-02,-8.900270468873401966e-03
-1.646395059872648448e-01,3.984298617606646942e-01,-5.620223421488017568e-01,-1.029003632431428478e-01,1.460143566393171666e-01,-8.574425617583687764e-02,7.679482285390935858e-02,1.860032235555887647e-01,-2.090840195734748330e-01,-3.379471247736466621e-02
1.337781903647830561e-01,5.849825189556765587e-02,-9.700547403036945404e-01,5.635563788968302179e-02,1.350178550712530234e-01,2.099179839596231056e-02,1.468494796581029382e-01,4.175685203538192503e-01,-4.925810838226274968e-01,2.602828700704328813e-01
2.218249231562874069e-01,7.230976093355233336e-02,1.561984011246539406e-01,2.752101928795832042e-01,-3.495731469152615345e-01,2.854992267493704494e-01,-8.125362372251390686e-02,-2.759210885828289883e-01,-1.563942084237419927e-01,-2.073653211585581302e-01
-9.664007574681806115e-03,1.383162504687229510e-01,-4.273182956405634225e-02,-6.392705574966441040e-02,1.137001249158254013e-01,1.844324764590514823e-02,-1.549199342884662600e-01,-1.161305812055708347e-01,2.562485677824292984e-02,1.781851727069934110e-01
-2.266489878768276345e-01,6.719131710825768100e-02,6.366051670111561034e-02,1.103640477860454439e-01,-3.688715551744308763e-01,2.717767252039431924e-01,1.537694067462682113e-01,-1.703553385992771785e-02,8.837059793652261852e-02,1.704066931270303148e-02
1.610818956348745445e-01,-2.366840073757418839e-01,-1.222163828064908170e-01,2.146656763945145041e-01,-4.211169671421527427e-02,1.624816691740270658e-01,-2.827618973774763574e-03,-1.179547343729450692e-01,1.142090002929484899e-01,-1.562764630664016940e-01
1.805773644558919255e-01,-8.880946034584814852e-02,-3.592410503150063050e-01,8.727380437459085483e-02,2.254553728437084237e-01,3.924160911401363555e-03,-4.901300240287619070e-02,-1.127692249406914669e-02,-1.292237596685208156e-01,4.102118702296410346e-02
-5.361408184242624081e-02,1.393668530223801105e-01,-1.825068983887398744e-01,-4.001706488339350914e-02,-1.033058655540200904e-01,3.220236993656740987e-01,8.327826096292850408e-03,-8.702603685598415961e-02,-1.133891486894478013e-03,-5.611454991809634169e-02
2.587871571686095606e-01,-1.006940784560393237e-01,3.466207063845359038e-01,-9.007485753390379046e-02,3.502224315162308366e-01,1.443569120730340549e-01,5.483089213544656282e-01,-2.828525160905862035e-02,-1.078407134077003615e+00,-3.007042930020121796e-01
7.530423178155767894e-02,1.841560286409285319e-01,3.193429104778593430e-01,7.806859758789205794e-02,-1.701646848402030288e-02,3.386524663516117251e-01,-8.852980010861162541e-02,-2.143958482080587924e-01,-4.982847018667135308e-01,-3.259144917379563910e-01
1.543416719116609895e-02,5.559148114801977514e-02,9.882883518941515399e-02,-3.644579543947357170e-02,1.037507458841313984e-01,2.515440022451582158e-01,1.175477015376931965e-02,5.781219120726174138e-02,-9.969171612194241416e-02,-6.335241177744267704e-02
-7.212711414537908983e-02,4.347078663600034178e-03,2.252245357215848232e-01,6.503585108073700605e-02,-1.845377770419280306e-01,-1.930614400137008191e-01,-2.289512982087909265e-01,1.595529308696323478e-01,1.639776888561656487e-01,1.651937769551597296e-02
7.008822394895938834e-02,-3.372013143203756586e-02,8.239048591962352952e-02,-8.193931202931602209e-02,2.439865589576384053e-01,-8.128595635313044798e-02,-2.997773429057460151e-02,-2.556023587521750670e-02,-3.585052769284757801e-01,9.879383251680652622e-02
-3.275480933657023974e-01,3.217478137636737429e-02,-8.413075677138298625e-02,3.197078463336408549e-01,7.220994563258309462e-02,-4.780951119463363458e-02,-1.541011617821157476e-01,-1.753858603302899666e-01,1.249143743002020523e-01,-1.484936924606771458e-01
-2.938327174137352060e-02,4.838259211784387559e-02,8.657809759153101137e-02,3.436444794766115307e-01,-1.199673946383355422e-01,3.394651849078572647e-02,-2.110311525747679551e-01,-3.681706331497099777e-02,-9.454439468198756746e-02,-6.728131369614491486e-02
4.991099743063796834e-02,2.481633325089533382e-01,8.429575092587966723e-03,1.221223539658605750e-02,2.436927732146753067e-01,2.546510857295835595e-01,1.817247110267013188e-01,-8.263951356695465114e-03,-7.429720059270252808e-01,-1.798068653527391536e-01
8.133707632595076065e-02,1.362652054963059967e-01,-6.833238963698483603e-01,-2.831498586534795733e-02,2.698423603538185542e-02,1.303990467761707850e-02,2.773820259240297736e-01,8.580151575344252546e-02,-1.304137733311577230e-01,-3.293040441824139630e-02
2.185175755977499523e-01,6.501583241850505956e-02,1.279719117586247124e-01,-1.751621913863462554e-01,-2.900056948878376050e-05,-1.917261398376187143e-01,3.513984933059128291e-01,3.661348630975484048e-02,2.754232517225557730e-01,-2.122502346365450487e-01
1.997354095649152891e-03,5.080069861011343724e-02,1.276151770936484291e-02,3.075708493048567166e-02,-5.599413683994976937e-02,-2.569214502969864936e-02,-4.027525611074610906e-02,5.987353373674779433e-03,-4.176965860341518011e-02,-1.152492386094166182e-01
-1.142409792718556139e-01,-1.479631395097381341e-01,3.913103004561793719e-01,-1.847011926055816267e-01,-3.785022518191202834e-02,-4.262751349691711739e-02,-1.033682211770863973e-01,-1.042645934534771057e-01,4.154420503432225409e-02,3.570983123219997890e-02
1.024383806021054028e-01,-1.463916113837223504e-02,3.905879886688876645e-01,6.895131077928363939e-02,-2.668388647613947340e-01,-1.053493326908757632e-01,-1.956061937549679886e-01,-4.459198562267190080e-02,2.764437610707988768e-01,-3.865336561744244781e-01
-2.529157686297939245e-01,-1.060097523502486101e-02,-3.369953030787251058e-01,4.366497492039455586e-01,-9.960088345304407564e-02,3.195227736838864852e-01,-1.125757441161188421e-01,-1.553859937824672854e-01,1.657785739452116991e-01,1.948012005510371125e-01
6.080985445968955377e-02,-6.619879764701612490e-02,-2.650993823873650651e-03,-2.317823235672481774e-01,-1.234575277526342441e-01,6.359876688409195344e-02,-6.627625218157692788e-02,1.320868517809435302e-02,1.023527651151548423e-01,-3.120514426056799490e-02
-4.087539223628375989e-02,-7.548535444545875772e-02,2.414786977900861692e-02,2.310984855507111357e-01,6.436527302893464697e-02,-6.459346812050556497e-02,3.298740502892787974e-01,-1.563208969715534358e-01,1.632893391329319488e-02,-1.556690075943287233e-02
8.243610142766782944e-02,-6.304336404062128862e-02,-1.362868910601841010e-01,-2.209942302925313809e-02,-1.393132145907801343e-02,2.972607206406717162e-01,2.108180325293420587e-01,2.398604841949381061e-02,-3.729811351013355702e-01,-1.788537305850798342e-01
2.063450119350978829e-01,1.002196503178626047e-01,-2.355724407604732895e-01,-2.951563206684538684e-02,-4.329301809112738597e-02,-5.356925707733339176e-02,2.546154116068433809e-02,1.352870983804571776e-02,-1.176235254707517636e-01,5.153087344617034334e-03
4.182466972780848891e-02,9.566831244112232457e-02,-1.485579388960037717e-01,1.509032412629397746e-01,1.043623161473057961e-02,2.038556490218501327e-01,-4.165217431503114021e-02,1.605900263380590776e-01,-8.444861396708729095e-02,-1.945395685124306495e-01
-6.885504415107451814e-02,1.969951325971068881e-03,1.724727177864722807e-02,-9.182025235719018866e-03,-4.170650108726916411e-02,2.813690358861325666e-02,3.875215460658913355e-03,2.768261599238873438e-02,1.218195776042606815e-01,3.933305943975505536e-02
1.586001094233887299e-01,3.522795019999936522e-02,6.048247953210909855e-02,1.514086463896715216e-02,1.913652859644988657e-01,-8.616582088587518284e-02,-1.128048761095999837e-02,-3.875105861630694787e-02,-1.133950771955795772e-01,-1.643023254981404446e-01
1.651827619365709154e-01,-1.229747262921835650e-02,-1.968668362955056095e-01,6.308873101033290673e-03,-6.994629314772396467e-02,1.058294137338563479e-01,3.978414851025868088e-02,-1.117565554036691056e-01,1.643456439328886591e-03,-6.427626187693145920e-02
1.419936834647596013e-01,3.058798281653660883e-02,-1.294403898463346025e-01,1.569401690172819719e-01,-9.425264778040559968e-03,-1.656928429055402538e-02,1.094870112954407226e-01,1.197465452884558246e-01,7.919637520781401541e-02,-7.411820864108445428e-02
4.595638191895828895e-02,-3.125330726674867580e-04,-1.508033520271158667e-01,-3.187838986846483480e-02,5.756168733098106921e-02,3.114680504186490700e-02,1.145423561961888687e-01,-4.617163738953430907e-02,-6.216456804655675489e-02,8.593304123327200061e-02
-1.974978948173936877e-01,1.324975290333886002e-01,1.046294320401418704e-01,3.688245485020716363e-01,-2.033783888073815993e-01,-9.010421343108954151e-02,3.190032868409607703e-02,-6.356770775279071972e-02,-2.629010905745617355e-01,1.597576629121922609e-01
1.317036029343312577e-02,3.089032105165742670e-01,-1.916556063208009753e-01,5.146691393599665126e-02,7.783213578670516997e-02,2.079035087021922079e-01,-6.067356592443519381e-02,-2.264217227780431774e-01,2.630289497329603710e-01,-6.512253208295349684e-03
-2.906233631621142274e-02,-5.905672321241157638e-03,4.346994458166497655e-02,-1.246579996043599842e-01,-4.292489299668654501e-02,2.449554499931394166e-02,-3.569002377109452978e-02,-2.438119413816188519e-01,5.384421865336730395e-01,1.401287513293938969e-01
7.802149475476152785e-02,9.160221959241589273e-02,-1.168564889340419355e-01,-2.744395754470334015e-01,2.638847444744951698e-01,-1.120335134767805191e-01,5.573001001491291184e-01,-2.246039987808111371e-01,-4.098521898872942715e-01,-1.751570842221505386e-01
1.425398757318762089e-01,-6.402315407379748080e-02,-1.545835498946925846e-01,1.085379675483148371e-01,1.552808786076770031e-01,-2.312973894649887271e-02,6.808098621212071988e-02,-1.311434297693035156e-01,-1.939849760429844527e-01,1.044396138744121127e-01
3.517402277890346873e-02,1.779751419001493473e-01,-2.614485370370399631e-01,-2.024916665170923835e-01,-1.873553644788115702e-01,3.679142414804170702e-01,5.232800491204823989e-02,-1.559439227756793112e-01,-8.923216617452725541e-02,9.416822166238891789e-02
